tree
version=v3
num_class=1
num_tree_per_iteration=1
label_index=0
max_feature_idx=7
objective=binary sigmoid:1
feature_names=Cough Fever Sore_throat Shortness_of_breath Headache Age_60+ Male Contact_with_confirmed
feature_infos=[0:1] [0:1] [0:1] [0:1] [0:1] [0:1] [0:1] [0:1]
tree_sizes=5272 4437 4627 4639 4213 4143 4760 4903 4678 4606 3705 4192 4316 5627 4342 3885 3673 4461 3888 4060 5445 5165 4323 4357 4403 3944 4741 3929 5041 4306

Tree=0
num_leaves=48
num_cat=0
split_feature=7 1 4 0 2 0 5 5 1 5 1 5 2 5 0 0 4 5 5 4 5 4 2 2 5 2 5 5 2 4 2 2 2 2 4 4 4 2 2 0 4 4 2 2 2 5 4
split_gain=130197 58946.3 23426.8 12234.7 5188.36 93.352 89.6795 85.6241 69.7236 31.8397 30.1073 28.6763 26.7437 25.2512 25.0688 22.0311 18.1286 13.9015 7.54995 7.43524 6.65754 6.36282 8.44318 6.42563 3.73417 3.56945 2.58442 2.06628 1.8049 1.80382 2.1946 1.68137 1.43482 1.12688 1.06805 0.897676 0.435596 2.21137 1.3825 0.192706 0.150994 0.134305 0.069554 0.021473 0.00848097 0.00660712 0.000191884
threshold=1.0000000180025095e-35 1.0000000180025095e-35 1.0000000180025095e-35 1.0000000180025095e-35 1.0000000180025095e-35 1.0000000180025095e-35 1.0000000180025095e-35 1.0000000180025095e-35 1.0000000180025095e-35 1.0000000180025095e-35 1.0000000180025095e-35 1.0000000180025095e-35 1.0000000180025095e-35 inf 1.0000000180025095e-35 1.0000000180025095e-35 1.0000000180025095e-35 1.0000000180025095e-35 1.0000000180025095e-35 1.0000000180025095e-35 1.0000000180025095e-35 1.0000000180025095e-35 1.0000000180025095e-35 1.0000000180025095e-35 1.0000000180025095e-35 1.0000000180025095e-35 1.0000000180025095e-35 1.0000000180025095e-35 1.0000000180025095e-35 1.0000000180025095e-35 1.0000000180025095e-35 1.0000000180025095e-35 1.0000000180025095e-35 1.0000000180025095e-35 1.0000000180025095e-35 1.0000000180025095e-35 1.0000000180025095e-35 1.0000000180025095e-35 1.0000000180025095e-35 1.0000000180025095e-35 1.0000000180025095e-35 1.0000000180025095e-35 1.0000000180025095e-35 1.0000000180025095e-35 1.0000000180025095e-35 1.0000000180025095e-35 1.0000000180025095e-35
decision_type=2 2 2 2 2 2 10 10 2 10 2 10 2 8 2 2 2 10 8 2 10 2 2 2 10 2 10 10 2 2 2 2 2 2 2 2 2 2 2 2 2 2 2 2 2 8 2
left_child=1 2 3 4 6 10 45 12 9 36 13 15 -5 16 26 19 27 32 44 25 42 22 -17 -23 29 -3 28 31 -4 30 -12 -2 46 -21 -11 -34 38 -38 -7 40 -13 -41 -18 -31 -16 -1 -10
right_child=5 11 14 7 -6 8 -8 -9 17 34 24 39 -14 -15 18 21 20 -19 -20 33 -22 23 -24 -25 -26 -27 -28 -29 -30 43 -32 -33 35 -35 -36 -37 37 -39 -40 41 -42 -43 -44 -45 -46 -47 -48
leaf_value=-0.32797978873869132 0.47207481167614068 0.47508582218252465 0.43999651553810831 0.28364596134768177 0.44411467258749338 0.40408427656478757 -0.35904263329436387 0.44122128807807315 0.4591994419973493 0.49604108053456536 0.49709110901755854 0.51836230129608307 0.37659147680808835 0.37368708075377832 0.38134109379887643 0.43629748665174745 0.44934603964195896 0.52183833995932871 0.4545234566883436 0.50456938815807029 0.5068409192314578 0.48478273231072161 0.49053191920387679 0.43752752921065569 0.5175732353365472 0.50250794150097611 0.47513019085089325 0.48445497465943099 0.41912392598474929 0.48236474766994131 0.47263325184878091 0.4842571551575966 0.48868845843389869 0.48523339796623971 0.46345811236518125 0.46650910119964989 0.40874650458741346 0.38457010626534216 0.42231481960157113 0.52037334361077381 0.50872134219297505 0.52987756474187964 0.44603352516574779 0.48491973988093501 0.37956148350675795 -0.32748101402939389 0.45938629849408846
leaf_weight=63663.287858009338 17271.889298915863 3219.5715789794922 2185.1016612052917 1893.4660830497742 747.43895435333252 2035.6343216896057 9064.767541885376 418.86294507980347 1293.7835416793823 328.87724781036377 3037.6719183921814 697.18895435333252 309.19278907775879 235.96733951568604 785.90821123123169 1594.9148445129395 2943.4033403396606 397.1436882019043 133.69065141677856 1539.5685601234436 177.6148624420166 894.28332138061523 291.49402761459351 341.35675239562988 483.69087171554565 466.60889005661011 158.53288078308105 1396.2344408035278 424.85269737243652 1359.6012206077576 351.42848634719849 1030.7444682121277 252.86080741882324 311.05551385879517 117.13941287994385 411.87319278717041 1004.9165415763855 479.97566986083984 433.13344049453735 423.98591756820679 174.35461473464966 182.64560556411743 667.68276166915894 356.45922946929932 324.99402761459351 2364.9368166923523 742.70944976806641
leaf_count=203665 12366 2275 1782 2463 600 1887 29873 340 978 211 1939 399 313 241 784 1319 2315 223 103 947 108 605 192 281 278 290 112 946 374 930 251 699 168 210 87 302 917 474 377 240 105 98 532 241 326 7562 561
internal_value=0 -0.185283 -0.267238 -0.302556 -0.324068 0.466156 -0.331714 0.319785 0.436981 0.41327 0.473619 0.481506 0.296693 0.469062 0.423278 0.475067 0.47002 0.470651 0.388737 0.486165 0.451458 0.455384 0.444678 0.471728 0.492967 0.478557 0.438805 0.47359 0.436599 0.490636 0.494555 0.472761 0.463126 0.501319 0.487484 0.474946 0.404897 0.400932 0.407283 0.519225 0.516434 0.523235 0.448734 0.482895 0.38082 -0.327962 0.459268
internal_weight=0 92612.1 82475 78462 75840.4 36810.4 75093 2621.52 7498.05 4399.68 29312.4 10137 2202.66 23723.5 4013.08 8658.85 23487.6 3098.37 1244.59 5536.8 3788.7 3122.05 1886.41 1235.64 5588.85 3686.18 2768.49 19698.9 2609.95 5105.16 3389.1 18302.6 2701.23 1850.62 446.017 664.734 3953.66 1484.89 2468.77 1478.18 871.544 606.632 3611.09 1716.06 1110.9 66028.2 2036.49
internal_count=282289 255258 248297 244816 241700 27031 241100 3116 6185 3953 20846 6961 2776 17207 3481 6119 16966 2232 1213 3722 2955 2397 1511 886 3639 2565 2268 14011 2156 3361 2190 13065 2009 1157 298 470 3655 1391 2264 842 504 338 2847 1171 1110 211227 1539
is_linear=0
shrinkage=0.293014


Tree=1
num_leaves=40
num_cat=0
split_feature=7 4 2 3 6 5 5 4 5 5 6 5 3 3 5 3 6 2 3 5 5 2 6 3 6 2 2 5 4 6 2 2 6 2 2 6 6 2 6
split_gain=69072 20363.6 6165.25 3860.55 1577.68 23.6223 22.3663 18.1965 16.0783 15.3123 15.2019 9.11715 7.58899 7.00808 6.91669 6.88538 10.01 4.94511 4.36387 3.90379 3.88104 3.27859 3.2735 2.05225 1.92604 1.72652 1.56482 1.51661 0.640684 0.873355 1.49698 0.619925 0.394063 0.874623 0.420556 0.326603 0.217064 0.146526 0.0841492
threshold=1.0000000180025095e-35 1.0000000180025095e-35 1.0000000180025095e-35 1.0000000180025095e-35 1.0000000180025095e-35 1.0000000180025095e-35 1.0000000180025095e-35 1.0000000180025095e-35 1.0000000180025095e-35 1.0000000180025095e-35 1.0000000180025095e-35 1.0000000180025095e-35 1.0000000180025095e-35 1.0000000180025095e-35 1.0000000180025095e-35 1.0000000180025095e-35 1.0000000180025095e-35 1.0000000180025095e-35 1.0000000180025095e-35 1.0000000180025095e-35 1.0000000180025095e-35 1.0000000180025095e-35 1.0000000180025095e-35 1.0000000180025095e-35 1.0000000180025095e-35 1.0000000180025095e-35 1.0000000180025095e-35 1.0000000180025095e-35 1.0000000180025095e-35 1.0000000180025095e-35 1.0000000180025095e-35 1.0000000180025095e-35 1.0000000180025095e-35 1.0000000180025095e-35 1.0000000180025095e-35 1.0000000180025095e-35 1.0000000180025095e-35 1.0000000180025095e-35 1.0000000180025095e-35
decision_type=2 2 2 2 2 10 10 2 8 8 2 10 2 2 10 2 2 2 2 10 10 2 2 2 2 2 2 8 2 2 2 2 2 2 2 2 2 2 2
left_child=1 2 3 4 8 7 27 9 -1 13 12 23 14 32 21 16 37 18 20 -10 -12 -3 -5 38 -15 -18 -17 -6 29 30 -7 -14 33 -2 -34 -30 -11 -9 -4
right_child=5 10 11 22 6 28 -8 15 19 36 17 -13 31 24 -16 26 25 -19 -20 -21 -22 -23 -24 -25 -26 -27 -28 -29 35 -31 -32 -33 34 -35 -36 -37 -38 -39 -40
leaf_value=-0.23309990200786324 0.35167490960858128 0.32463837117592148 0.33451073008161031 0.4597287983006943 -0.15550657965703682 0.36539629183572087 -0.13431847659454554 0.32267209846213546 -0.26482396122598295 0.29071049608750565 0.35373318078827931 0.40173993607474895 0.36003216924377107 0.37054854088245814 0.36852292438102463 0.38075929187665303 0.34931348150907299 0.33021806873429321 0.4067348594799422 -0.24579670954190455 0.39259846027647471 0.30145061939431328 0.49881233016030924 0.37984612456466116 0.40485222895721695 0.33163377993970883 0.34690772316469654 -0.16571080491016141 0.39155736608139124 0.38040599186336294 0.40136851728734213 0.3861360928076647 0.3528204884967942 0.34285402475557697 0.35996509301731267 0.37519999132601967 0.27404383769013918 0.32667834514159855 0.33881874885351204
leaf_weight=33931.747949063778 10801.081033378839 2228.9883653819561 835.360739544034 393.61573764681816 33774.726127833128 1033.8359420746565 4679.8185472935438 2966.5059252530336 1125.5929711163044 135.99373380839825 2580.2862610071898 226.8127606511116 212.21443383395672 341.19248872995377 266.33643501996994 326.36180159449577 2483.4666855633259 582.7985914349556 160.44332295656204 5215.2901694327593 241.21959942579269 684.24819205701351 345.48864597082138 99.848610430955887 238.93830393254757 586.1751680970192 182.97333559393883 1298.5960012972355 326.67710664868355 1103.8880105316639 109.88147404789925 123.60421827435493 11071.18443121016 1059.7948096096516 755.64337645471096 154.30459505319595 132.41938504576683 1065.2946872413158 729.01761862635612
leaf_count=109355 8318 1919 695 271 99885 739 13552 2578 3763 135 1983 138 160 244 188 226 1949 497 96 17084 152 647 210 69 145 495 146 3915 206 737 66 85 8479 844 562 105 139 918 594
internal_value=0 -0.135501 -0.176354 -0.188599 -0.194755 0.350429 -0.153346 0.348207 -0.235631 0.35209 0.341421 0.346629 0.327749 0.352859 0.323324 0.33569 0.33333 0.354904 0.359729 -0.249174 0.357056 0.319192 0.477998 0.339118 0.384677 0.345937 0.368598 -0.155884 0.376604 0.374527 0.368852 0.36964 0.35208 0.350887 0.353277 0.38631 0.282488 0.323731 0.336518
internal_weight=0 89736.1 82655.9 80764.9 80025.8 34875.6 39753.1 32147 40272.6 24536.2 7080.14 1891.04 3515.39 24267.8 3179.57 7610.78 7101.44 3564.75 2981.95 6340.88 2821.51 2913.24 739.104 1664.23 580.131 3069.64 509.335 35073.3 2728.59 2247.61 1143.72 335.819 23687.7 11860.9 11826.8 480.982 268.413 4031.8 1564.38
internal_count=282289 255258 249531 248035 247554 27031 117352 25178 130202 18866 5727 1496 2999 18592 2754 6312 5940 2728 2231 20847 2135 2566 481 1358 389 2444 372 103800 1853 1542 805 245 18203 9162 9041 311 274 3496 1289
is_linear=0
shrinkage=0.293014


Tree=2
num_leaves=42
num_cat=0
split_feature=7 0 2 3 6 5 0 5 6 5 2 6 3 5 3 5 3 5 5 2 5 6 6 3 3 5 6 2 2 6 2 6 2 2 2 6 2 2 6 6 6
split_gain=38981.5 13521.1 3610.94 1850.63 830.33 84.2373 76.252 71.8378 47.8854 34.6579 25.9887 13.5726 12.1044 11.9718 7.03313 6.43068 5.39886 6.23892 4.59273 4.01996 1.83396 1.81659 1.8059 1.57789 1.37958 1.20555 1.07311 1.00909 0.976483 0.562473 0.508389 0.496045 0.3333 0.24838 0.153706 0.136712 0.101335 0.0331918 0.179333 0.0260823 0.0237536
threshold=1.0000000180025095e-35 1.0000000180025095e-35 1.0000000180025095e-35 1.0000000180025095e-35 1.0000000180025095e-35 1.0000000180025095e-35 1.0000000180025095e-35 1.0000000180025095e-35 1.0000000180025095e-35 1.0000000180025095e-35 1.0000000180025095e-35 1.0000000180025095e-35 1.0000000180025095e-35 inf 1.0000000180025095e-35 1.0000000180025095e-35 1.0000000180025095e-35 1.0000000180025095e-35 1.0000000180025095e-35 1.0000000180025095e-35 1.0000000180025095e-35 1.0000000180025095e-35 1.0000000180025095e-35 1.0000000180025095e-35 1.0000000180025095e-35 1.0000000180025095e-35 1.0000000180025095e-35 1.0000000180025095e-35 1.0000000180025095e-35 1.0000000180025095e-35 1.0000000180025095e-35 1.0000000180025095e-35 1.0000000180025095e-35 1.0000000180025095e-35 1.0000000180025095e-35 1.0000000180025095e-35 1.0000000180025095e-35 1.0000000180025095e-35 1.0000000180025095e-35 1.0000000180025095e-35 1.0000000180025095e-35
decision_type=2 2 2 2 2 10 2 8 2 10 2 2 2 8 2 8 2 10 10 2 10 2 2 2 2 10 2 2 2 2 2 2 2 2 2 2 2 2 2 2 2
left_child=1 2 3 4 7 8 13 -1 14 11 23 12 34 16 27 -6 17 37 22 21 -17 -7 -4 -10 28 -9 -5 -3 -13 -15 -14 -19 35 39 -8 -18 -16 40 -39 -11 -2
right_child=6 5 18 26 15 19 9 25 10 33 -12 24 30 29 36 20 32 31 -20 -21 -22 -23 -24 -25 -26 -27 -28 -29 -30 -31 -32 -33 -34 -35 -36 -37 -38 38 -40 -41 -42
leaf_value=-0.17339857337711709 0.28751647089022742 0.24684902498826045 0.26772819033755435 0.37528035888978317 -0.11624228491098444 0.36027276489899346 0.22574501316096504 -0.19979429719862596 0.31084534063974317 0.31903490620005959 0.23708739837574935 0.25703427889224645 0.29571844315139595 0.23957010143488913 0.28570719562052982 -0.13697736146424938 0.31057797801100517 0.30146832322504419 0.33353017031967908 0.32144212308089709 -0.12417037698709854 0.38672249719452617 0.28737078677469591 0.34020471035973532 0.28822904468174504 -0.21072589657143223 0.40103787665734231 0.23261077351451029 0.27197054120560615 0.21221189044685171 0.27193642519770567 0.31164380975301637 0.33268096127097047 0.3023397407188011 0.23069860480434115 0.32118109521735089 0.29661685588624043 0.28877026059442673 0.28296360011395016 0.31508853179811291 0.28814800983558253
leaf_weight=32428.973046377301 10219.699758887291 2042.072077870369 886.41484349966049 298.35914200544357 32843.739306539297 438.59057810902596 2159.1799216717482 1058.4823203980923 2446.8083140552044 329.49223211407661 458.30399008095264 1919.943979665637 200.4265833646059 132.43014532327652 219.88659586012363 1229.6691940873861 266.19548767805099 846.95889557898045 131.69870525598526 147.13230347633362 4377.5370554775 453.4205826818943 735.13046778738499 167.95384551584721 158.00372564792633 4766.8084478527308 259.78824037313461 540.4651500582695 467.25816947221756 125.82317917048931 125.4976070523262 799.70208418369293 111.49310497939587 113.60476964712143 716.19307987391949 171.77407711744308 109.50231815874577 1201.7270645201206 736.52656674385071 255.1231664121151 10233.686317428946
leaf_count=108812 8633 2484 812 215 99487 349 2267 3741 2400 242 466 1822 165 136 188 3896 204 670 91 107 13422 306 625 113 133 16924 169 561 422 141 113 606 78 89 742 125 90 1014 632 190 8607
internal_value=0 -0.10028 -0.134912 -0.144348 -0.148216 0.289308 0.281633 -0.17878 0.275937 0.253232 0.30145 0.245742 0.233045 0.289 0.249012 -0.117808 0.289659 0.289003 0.280907 0.366316 -0.126979 0.373717 0.276633 0.312731 0.261713 -0.20874 0.387269 0.243869 0.259958 0.226241 0.286561 0.30641 0.318378 0.314877 0.226979 0.314737 0.289334 0.287723 0.286564 0.317313 0.287832
internal_weight=0 86040.7 79016.6 77263.4 76705.2 7024.14 31290.7 38254.3 5984.99 6444.72 3073.07 5746.5 3201.3 24846 2911.93 38450.9 24587.8 24038.3 1753.24 1039.14 5607.21 892.011 1621.55 2614.76 2545.21 5825.29 558.147 2582.54 2387.2 258.253 325.924 1646.66 549.463 698.22 2875.37 437.97 329.389 22391.6 1938.25 584.615 20453.4
internal_count=282289 255258 248194 246666 246282 7064 27031 129477 6302 6185 2979 5664 3287 20846 3323 116805 20569 20162 1528 762 17318 655 1437 2513 2377 20665 384 3045 2244 277 278 1276 407 521 3009 329 278 18886 1646 432 17240
is_linear=0
shrinkage=0.293014


Tree=3
num_leaves=42
num_cat=0
split_feature=7 1 2 3 6 2 1 5 3 5 5 5 5 5 5 3 6 6 6 2 3 3 5 2 5 3 6 6 2 6 6 6 2 6 3 5 6 6 3 6 6
split_gain=22476.2 21638.3 1715.78 1187.33 250.636 151.309 50.775 49.0045 46.3059 24.5906 14.7126 11.1844 10.1674 8.76308 8.6369 7.41669 4.93085 4.68743 3.9877 3.96735 5.87325 2.49374 2.04963 1.79458 1.62907 0.595322 0.530675 0.408468 0.377583 0.359676 0.358403 0.227755 0.211648 0.206754 0.17096 0.122096 0.100607 0.074805 0.298133 0.0723451 0.00390322
threshold=1.0000000180025095e-35 1.0000000180025095e-35 1.0000000180025095e-35 1.0000000180025095e-35 1.0000000180025095e-35 1.0000000180025095e-35 1.0000000180025095e-35 1.0000000180025095e-35 1.0000000180025095e-35 1.0000000180025095e-35 inf 1.0000000180025095e-35 1.0000000180025095e-35 1.0000000180025095e-35 1.0000000180025095e-35 1.0000000180025095e-35 1.0000000180025095e-35 1.0000000180025095e-35 1.0000000180025095e-35 1.0000000180025095e-35 1.0000000180025095e-35 1.0000000180025095e-35 1.0000000180025095e-35 1.0000000180025095e-35 1.0000000180025095e-35 1.0000000180025095e-35 1.0000000180025095e-35 1.0000000180025095e-35 1.0000000180025095e-35 1.0000000180025095e-35 1.0000000180025095e-35 1.0000000180025095e-35 1.0000000180025095e-35 1.0000000180025095e-35 1.0000000180025095e-35 1.0000000180025095e-35 1.0000000180025095e-35 1.0000000180025095e-35 1.0000000180025095e-35 1.0000000180025095e-35 1.0000000180025095e-35
decision_type=2 2 2 2 2 2 2 10 2 10 8 10 10 10 10 2 2 2 2 2 2 2 8 2 8 2 2 2 2 2 2 2 2 2 2 8 2 2 2 2 2
left_child=1 2 3 4 7 8 10 24 9 18 13 35 15 19 16 36 21 -5 -3 20 26 23 25 -8 -1 30 -2 -12 29 -15 -7 -22 34 -10 -18 -6 -4 38 -21 -11 -16
right_child=6 5 12 17 11 22 14 -9 33 39 27 -13 -14 28 40 -17 32 -19 -20 37 31 -23 -24 -25 -26 -27 -28 -29 -30 -31 -32 -33 -34 -35 -36 -37 -38 -39 -40 -41 -42
leaf_value=-0.14940530455078052 0.22236674792586889 0.35869411138838236 0.16946410341805651 0.28213940649699309 -0.11740045932204188 0.24998100872063023 0.24308926687844615 -0.1828598575458438 0.26037910187841734 0.41805432268271886 0.16269331842401158 -0.13374992332051569 0.26886534038597243 0.24377455625432556 0.28732021707334376 0.2527215253311012 0.25830089441861909 0.33810885077808822 0.37374463138506919 0.21347156510013543 0.25532919128321535 0.27213262119740406 0.28954856723814026 0.22382416622783255 -0.16147140212770122 0.23102588318641362 0.22563464460328522 0.13814306566502632 0.23083930484044074 0.25338172589307767 0.26138021194053962 0.27024315149521028 0.26484114690480137 0.27446348907888152 0.24473249828804092 -0.11434132310560202 0.17476946527170786 0.20851244982518941 0.19562288610930009 0.41323197531887512 0.28585300881367559
leaf_weight=30383.759030401707 8748.6800852417946 2498.70498688519 744.40204152464867 297.80916652083397 30523.36286726594 491.33512178063393 2206.1348600238562 4383.9130204021931 188.42609916627407 454.2082431614399 122.16374695301056 3989.7147260904312 114.15815050899982 713.37159222364426 325.92135366797447 104.9118180423975 2389.4128026813269 225.94026121497154 3825.4432969391346 1197.3661938160658 246.02064843475819 216.60714854300022 153.3875213265419 511.36849041283131 992.05037923157215 93.978521853685379 8327.5270196646452 111.10600870847702 115.75378651916981 630.09720745682716 457.13508602976799 136.79787331819534 437.33238886296749 170.41951924562454 82.48045115172863 1162.8319133222103 522.13531450927258 702.35977932810783 86.127148076891899 648.36767670512199 298.02115598320961
leaf_count=109212 8811 2065 879 264 99072 454 2079 16944 167 301 148 13322 98 668 261 96 2135 162 2829 1243 222 184 122 513 3760 92 8291 144 113 571 405 117 382 144 77 3882 606 738 94 382 240
internal_value=0 -0.0743481 -0.126848 -0.133283 -0.136506 0.354966 0.231132 -0.153841 0.369871 0.374838 0.22418 -0.119129 0.184847 0.224997 0.25385 0.177853 0.250351 0.306284 0.367798 0.223354 0.224765 0.241876 0.257924 0.239464 -0.149787 0.253271 0.22396 0.151 0.246897 0.24828 0.255475 0.260659 0.258899 0.267068 0.257848 -0.117288 0.171651 0.210944 0.212274 0.415219 0.286619
internal_weight=0 82426.4 73445 71959.4 71435.6 8981.41 27604.6 35759.7 7785.57 7426.72 21137.4 35675.9 1485.61 20904.1 6467.28 1371.45 5843.34 523.749 6324.15 19444.9 17459 2934.11 1195.84 2717.5 31375.8 1042.45 17076.2 233.27 1459.22 1343.47 948.47 382.819 2909.23 358.846 2471.89 31686.2 1266.54 1985.85 1283.49 1102.58 623.943
internal_count=282289 255258 248297 246618 246192 6961 27031 129916 5888 5577 21160 116276 1679 20868 5871 1581 5370 426 4894 19516 17441 2776 1073 2592 112972 951 17102 292 1352 1239 859 339 2594 311 2212 102954 1485 2075 1337 683 501
is_linear=0
shrinkage=0.293014


Tree=4
num_leaves=38
num_cat=0
split_feature=7 1 4 3 2 2 4 1 4 2 2 3 5 5 3 5 5 5 3 5 3 3 5 5 4 5 2 5 3 2 4 3 3 5 2 5 2
split_gain=13007.3 12225.5 5044.17 670.206 606.687 106.315 79.0531 42.1396 36.2674 34.8554 20.0392 18.3644 18.1524 17.2193 13.7107 9.81263 8.58712 6.02032 5.37595 4.76255 3.66056 3.50619 2.33989 2.20535 1.62366 1.46617 0.867134 0.799176 0.722819 0.944365 0.629749 0.580238 0.541491 0.405725 0.0859953 0.00948664 0.000217042
threshold=1.0000000180025095e-35 1.0000000180025095e-35 1.0000000180025095e-35 1.0000000180025095e-35 1.0000000180025095e-35 1.0000000180025095e-35 1.0000000180025095e-35 1.0000000180025095e-35 1.0000000180025095e-35 1.0000000180025095e-35 1.0000000180025095e-35 1.0000000180025095e-35 1.0000000180025095e-35 1.0000000180025095e-35 1.0000000180025095e-35 inf 1.0000000180025095e-35 1.0000000180025095e-35 1.0000000180025095e-35 1.0000000180025095e-35 1.0000000180025095e-35 1.0000000180025095e-35 1.0000000180025095e-35 1.0000000180025095e-35 1.0000000180025095e-35 1.0000000180025095e-35 1.0000000180025095e-35 1.0000000180025095e-35 1.0000000180025095e-35 1.0000000180025095e-35 1.0000000180025095e-35 1.0000000180025095e-35 1.0000000180025095e-35 1.0000000180025095e-35 1.0000000180025095e-35 1.0000000180025095e-35 1.0000000180025095e-35
decision_type=2 2 2 2 2 2 2 2 2 2 2 2 10 10 2 8 10 10 2 10 2 2 8 10 2 10 2 8 2 2 2 2 2 10 2 8 2
left_child=1 2 3 4 12 14 9 8 15 11 31 13 22 -3 25 18 24 21 23 -6 -7 26 -1 34 28 -4 -10 -11 29 -9 -18 33 36 -8 -2 -5 -26
right_child=7 6 5 35 19 20 10 16 17 27 -12 -13 -14 -15 -16 -17 30 -19 -20 -21 -22 -23 -24 -25 32 -27 -28 -29 -30 -31 -32 -33 -34 -35 -36 -37 -38
leaf_value=-0.11618762470982252 0.18826264147805655 0.31003918811961262 0.27683399847939277 0.27427206040587754 0.14239105558493709 0.1283892921830031 0.25613065512927335 0.213209276639196 0.15465541938542304 0.2329505725612554 0.18881599672936045 0.22365436671635511 -0.13094588961586232 0.35710664474884474 0.17657037941402134 0.11991904752368605 0.24178766391308198 0.20874821018955633 0.22979605078291454 0.2257988018312832 0.20517052850729589 0.19201368646366221 -0.10605095078151104 0.20249546694967757 0.19998570060995766 0.30339495173741704 0.14333707486336245 0.26344293105350441 0.23245632276612924 0.1971347265696447 0.26532269395811381 0.23656676088906617 0.21854911357883924 0.27113888894650118 0.19118328019436395 0.27761123296978774 0.20022328491378891
leaf_weight=55889.796558663249 12604.277538076043 4089.1311617791653 2556.0591963976622 282.37373355031013 672.86222046613693 514.6061452627182 1595.4940156787634 2700.4040461033583 2567.8596832454205 479.10300089418888 473.33786152303219 184.93464578688145 7734.9711093604565 797.49447196722031 117.72002084553242 172.31728203594685 397.79713006317616 183.90797767043114 289.3273992985487 64.40191613137722 59.471417084336281 200.30048929154873 2026.02128072083 1035.1589671075344 1306.6782198995352 191.82193329930305 751.16410283744335 87.233121499419212 145.83976300060749 355.04558365046978 129.35671462118626 120.45272000133991 147.22276002168655 171.24845483899117 929.37670774757862 98.540045887231827 441.73170864582062
leaf_count=205865 14030 3444 2452 245 842 667 1450 2806 3119 468 526 192 30104 532 137 229 385 195 287 65 63 221 7609 1116 1408 162 938 79 144 386 116 119 151 151 1025 86 475
internal_value=0 -0.0554928 -0.0945954 -0.112422 -0.114645 0.251436 0.287742 0.189718 0.18304 0.306592 0.242723 0.31429 -0.117614 0.317721 0.274493 0.189439 0.211961 0.157067 0.190246 0.149677 0.136343 0.154366 -0.115833 0.18946 0.208279 0.278688 0.152094 0.237647 0.212303 0.211341 0.247563 0.256244 0.201483 0.257585 0.188463 0.275136 0.200046
internal_weight=0 78207.1 70208.6 66769 66388.1 3439.68 7998.43 24357.8 18733.7 5637.9 2360.53 5071.56 65650.8 4886.63 2865.6 15030.5 5624.08 3703.23 14858.1 737.264 574.078 3519.32 57915.8 14568.8 5096.92 2747.88 3319.02 566.336 3201.29 3055.45 527.154 1887.2 1895.63 1766.74 13533.7 380.914 1748.41
internal_count=282289 255258 248297 244816 244485 3481 6961 27031 21160 4715 2246 4168 243578 3976 2751 16687 5871 4473 16458 907 730 4278 213474 16171 5370 2614 4057 547 3336 3192 501 1720 2034 1601 15055 331 1883
is_linear=0
shrinkage=0.293014


Tree=5
num_leaves=37
num_cat=0
split_feature=4 0 2 3 6 0 5 5 6 2 5 6 5 2 3 5 2 2 5 2 6 6 3 5 3 2 6 6 3 5 6 3 2 6 6 2
split_gain=3778.77 2983.83 808.751 371.685 206.035 157.017 95.9263 79.6688 31.4229 30.8389 16.3022 15.381 9.97097 8.48389 8.14354 7.86238 4.74509 4.04171 3.11222 2.97793 2.55685 2.26654 0.748698 0.447514 0.37717 0.360634 0.281262 0.273022 0.271862 0.226727 0.196464 0.175484 0.0731954 0.013829 0.000868655 0.000564426
threshold=1.0000000180025095e-35 1.0000000180025095e-35 1.0000000180025095e-35 1.0000000180025095e-35 1.0000000180025095e-35 1.0000000180025095e-35 1.0000000180025095e-35 1.0000000180025095e-35 1.0000000180025095e-35 1.0000000180025095e-35 1.0000000180025095e-35 1.0000000180025095e-35 1.0000000180025095e-35 1.0000000180025095e-35 1.0000000180025095e-35 1.0000000180025095e-35 1.0000000180025095e-35 1.0000000180025095e-35 1.0000000180025095e-35 1.0000000180025095e-35 1.0000000180025095e-35 1.0000000180025095e-35 1.0000000180025095e-35 1.0000000180025095e-35 1.0000000180025095e-35 1.0000000180025095e-35 1.0000000180025095e-35 1.0000000180025095e-35 1.0000000180025095e-35 1.0000000180025095e-35 1.0000000180025095e-35 1.0000000180025095e-35 1.0000000180025095e-35 1.0000000180025095e-35 1.0000000180025095e-35 1.0000000180025095e-35
decision_type=2 2 2 2 2 2 10 8 2 2 8 2 8 2 2 10 2 2 10 2 2 2 2 10 2 2 2 2 2 10 2 2 2 2 2 2
left_child=1 2 3 4 7 9 8 -1 16 15 11 14 -6 22 25 21 24 33 26 31 -5 28 -13 -14 -3 -7 -4 -11 -2 -9 -17 -10 34 -8 -12 -16
right_child=5 6 18 20 12 10 17 29 19 27 32 13 23 -15 35 30 -18 -19 -20 -21 -22 -23 -24 -25 -26 -27 -28 -29 -30 -31 -32 -33 -34 -35 -36 -37
leaf_value=-0.049427765781309925 0.19499933138666356 0.13885215087195457 0.17189575177863478 0.20354276064224308 -0.0225610510127831 0.082959249421304726 0.26309516207027905 -0.084513264374767888 0.18087462548722941 0.14800418433240103 0.18349806011460085 0.14822852285198856 -0.041247904615970811 0.097734131349956052 0.1445137567253876 0.24036621322726742 0.10723205524198806 0.20321206622625526 0.2201937054127934 0.15208241657498536 0.24716246782181628 0.20756431017488844 0.17964567534097681 -0.034769747450202469 0.1539091638968946 0.092555075009548515 0.16382165214500721 0.15742903757178708 0.20911743523603971 -0.089534423604957072 0.25443584488776372 0.1934145633641827 0.17286147321649936 0.2654856501592941 0.18237125609126975 0.14361757165073452
leaf_weight=32166.70485393703 2668.418041691184 2266.6578631103039 854.60190807282925 248.4366811811924 33768.612271681428 1016.1716889292002 420.89386768639088 944.74449428915977 2442.2090340852737 725.10588416457176 154.79732587188482 878.39077512174845 1174.1116879582405 360.13463334739208 122.40859922766685 172.2871993035078 456.55871546268463 104.79696902632713 106.63273723423481 337.75764966011047 215.41828342527151 2666.9568635076284 70.340261429548264 4157.3355219811201 152.44121380150318 502.56625688076019 653.81716963648796 414.87974846363068 122.47897112369537 4224.8833535611629 168.59535463154316 99.724631585180759 79.516703024506569 410.33953239023685 94.657330229878426 118.98970566689968
leaf_count=114482 2993 3247 1014 275 105328 1478 435 3824 3090 908 185 1114 3997 506 157 173 629 120 116 421 210 2876 84 13857 193 710 796 509 135 17388 159 117 96 400 115 152
internal_value=0 -0.0173821 -0.0333894 -0.0376991 -0.039286 0.170219 0.170445 -0.0548539 0.156296 0.195491 0.118613 0.111968 -0.0244203 0.136023 0.0940806 0.204152 0.13463 0.257439 0.171816 0.177932 0.2238 0.201456 0.150558 -0.0361964 0.139801 0.0861346 0.168396 0.151434 0.195619 -0.0886168 0.247325 0.181367 0.180603 0.264275 0.18307 0.144072
internal_weight=0 85206.7 78515.3 76900.2 76436.4 10336.7 6691.38 37336.3 5755.35 6938.72 3397.97 3069 39100.1 1308.87 1760.14 5798.74 2875.66 936.03 1615.05 2879.69 463.855 5457.85 948.731 5331.45 2419.1 1518.74 1508.42 1139.99 2790.9 5169.63 340.883 2541.93 328.971 831.233 249.455 241.398
internal_count=282289 269939 261287 259361 258876 12350 8652 135694 7697 7753 4597 4201 123182 1704 2497 6336 4069 955 1926 3628 485 6004 1198 17854 3440 2188 1810 1417 3128 21212 332 3207 396 835 300 309
is_linear=0
shrinkage=0.293014


Tree=6
num_leaves=43
num_cat=0
split_feature=7 1 0 4 0 3 0 2 4 4 4 1 2 2 2 1 1 2 3 3 2 2 2 3 3 2 4 2 4 3 2 2 4 4 2 4 3 2 4 2 3 2
split_gain=6493.48 6074.67 1889.04 1899.78 283.066 245.485 238.401 169.995 99.2718 92.9065 69.1419 63.1077 56.9896 43.4229 38.2293 14.7884 12.0816 8.77139 6.70115 6.53828 5.1328 3.47758 3.42061 3.33209 3.11543 2.21925 2.03549 1.98978 1.77548 1.24918 2.08788 0.896841 0.810837 0.781735 1.27288 0.768958 0.958337 0.503555 0.357805 0.295003 0.03044 0.0148471
threshold=1.0000000180025095e-35 1.0000000180025095e-35 1.0000000180025095e-35 1.0000000180025095e-35 1.0000000180025095e-35 1.0000000180025095e-35 1.0000000180025095e-35 1.0000000180025095e-35 1.0000000180025095e-35 1.0000000180025095e-35 1.0000000180025095e-35 1.0000000180025095e-35 1.0000000180025095e-35 1.0000000180025095e-35 1.0000000180025095e-35 1.0000000180025095e-35 1.0000000180025095e-35 1.0000000180025095e-35 1.0000000180025095e-35 1.0000000180025095e-35 1.0000000180025095e-35 1.0000000180025095e-35 1.0000000180025095e-35 1.0000000180025095e-35 1.0000000180025095e-35 1.0000000180025095e-35 1.0000000180025095e-35 1.0000000180025095e-35 1.0000000180025095e-35 1.0000000180025095e-35 1.0000000180025095e-35 1.0000000180025095e-35 1.0000000180025095e-35 1.0000000180025095e-35 1.0000000180025095e-35 1.0000000180025095e-35 1.0000000180025095e-35 1.0000000180025095e-35 1.0000000180025095e-35 1.0000000180025095e-35 1.0000000180025095e-35 1.0000000180025095e-35
decision_type=2 2 2 2 2 2 2 2 2 2 2 2 2 2 2 2 2 2 2 2 2 2 2 2 2 2 2 2 2 2 2 2 2 2 2 2 2 2 2 2 2 2
left_child=1 2 3 5 10 7 8 -1 16 12 14 18 19 -5 -3 24 25 -18 33 -4 -12 38 35 26 39 40 31 -28 -24 30 -11 -6 -25 34 -8 36 -13 -17 -20 -10 -2 -35
right_child=6 4 9 13 23 -7 11 -9 15 29 20 22 -14 -15 -16 37 17 -19 21 -21 -22 -23 28 32 -26 -27 27 -29 -30 -31 -32 -33 -34 41 -36 -37 -38 -39 -40 -41 -42 -43
leaf_value=-0.08951894729684183 0.16869408174681769 0.29678750378280755 0.20349813831076877 0.21484346062253687 0.13647484883034514 0.24161899703244413 0.041555779358114775 0.099329338225796204 0.0949481815217008 0.075826038312742081 0.21342701821103061 0.11192582843814802 0.043514165406166802 0.088615205135579203 0.17857225953225514 0.14007744878937414 0.19794747892144005 0.13224885762235522 0.12067732002892922 0.11700788951672809 0.15896393737958012 0.04630842123006107 0.17647403421422345 0.19111394722243805 0.15833363114219567 0.15001991466332315 0.12927530559546704 0.09160088985969958 0.13591048735726632 0.10533958143546561 0.040067850208001035 0.15987683435593317 0.15338894480058138 0.057343321025077713 0.064586913916311203 0.12986302980477168 0.15312915782051506 0.15697308645080699 0.15256701110061877 0.10401286206431135 0.17347330768531805 0.054770309667531061
leaf_weight=59533.828785166144 11147.263590469956 3214.6377886682749 2020.3970403671265 1799.709696918726 1095.1272112429142 194.35733694583178 1227.9115967750549 412.07955265790224 1614.32048522681 548.01736840605736 968.12814266234636 736.44500821828842 219.95244756340981 268.94731730222702 253.38095507025719 721.35566006600857 1910.0095716118813 192.01434180885553 60.534147053956985 77.936772651970387 175.50033899396658 52.566321797668934 151.07548040151596 101.71826900541782 72.938190579414368 571.08702007681131 428.0078144595027 167.45112612098455 239.53717719763517 79.500912562012672 188.38710089027882 161.31023314595222 94.23162154853344 582.7107946574688 247.57037153840065 445.86702341586351 51.879240207374096 191.69963832944632 60.2980697453022 380.9937941133976 115.60743737220764 287.5650706961751
leaf_count=240926 13317 2647 2652 1880 1416 186 1983 588 2362 802 1039 1055 349 388 317 982 2147 264 86 115 223 84 185 127 95 745 617 242 318 114 297 208 125 899 380 604 70 246 78 538 150 443
internal_value=0 -0.0393051 -0.0664754 -0.0776581 0.227291 -0.0871548 0.145665 -0.0882208 0.161094 0.155483 0.267547 0.0826769 0.185412 0.198432 0.28815 0.112565 0.171476 0.191946 0.053637 0.200286 0.205069 0.109222 0.127701 0.136636 0.0988533 0.16784 0.132792 0.118681 0.151599 0.0704455 0.0666784 0.139479 0.172972 0.0495282 0.0454202 0.120138 0.114637 0.143625 0.136591 0.096679 0.168743 0.0564931
internal_weight=0 72002.6 65343.1 62208.9 6659.49 60140.3 21061.3 59945.9 16917.3 3134.19 4611.65 4143.96 2318.29 2068.66 3468.02 2981.31 13936 2102.02 2519.16 2098.33 1143.63 173.399 1624.8 2047.85 2068.25 11834 1851.9 595.459 390.613 815.905 736.404 1256.44 195.95 2345.76 1475.48 1234.19 788.324 913.055 120.832 1995.31 11262.9 870.276
internal_count=282289 255258 248297 243968 6961 241700 27031 241514 20846 4329 4226 6185 3116 2268 2964 4223 16623 2411 3953 2767 1262 248 2232 2735 2995 14212 2483 859 503 1213 1099 1624 252 3705 2363 1729 1125 1228 164 2900 13467 1342
is_linear=0
shrinkage=0.293014


Tree=7
num_leaves=44
num_cat=0
split_feature=1 4 0 0 3 0 4 5 5 6 6 3 5 6 5 6 5 6 6 5 5 6 3 6 3 3 4 4 5 4 3 4 6 3 6 4 6 6 3 3 5 6 6
split_gain=3386.57 885.906 708.001 196.466 151.704 65.8302 60.7611 60.1824 58.1855 29.5475 29.1389 25.4512 24.816 24.2822 19.2704 9.88989 7.49478 5.35815 4.43062 4.11139 3.82539 3.1417 4.01668 2.84159 2.61452 2.36577 1.71315 1.2289 1.146 0.947811 0.824157 0.689958 0.648541 0.300715 0.175414 0.908511 0.162654 0.119644 0.0718981 0.0288424 0.0127828 0.00397025 0.00232965
threshold=1.0000000180025095e-35 1.0000000180025095e-35 1.0000000180025095e-35 1.0000000180025095e-35 1.0000000180025095e-35 1.0000000180025095e-35 1.0000000180025095e-35 1.0000000180025095e-35 1.0000000180025095e-35 1.0000000180025095e-35 1.0000000180025095e-35 1.0000000180025095e-35 1.0000000180025095e-35 1.0000000180025095e-35 1.0000000180025095e-35 1.0000000180025095e-35 1.0000000180025095e-35 1.0000000180025095e-35 1.0000000180025095e-35 1.0000000180025095e-35 1.0000000180025095e-35 1.0000000180025095e-35 1.0000000180025095e-35 1.0000000180025095e-35 1.0000000180025095e-35 1.0000000180025095e-35 1.0000000180025095e-35 1.0000000180025095e-35 1.0000000180025095e-35 1.0000000180025095e-35 1.0000000180025095e-35 1.0000000180025095e-35 1.0000000180025095e-35 1.0000000180025095e-35 1.0000000180025095e-35 1.0000000180025095e-35 1.0000000180025095e-35 1.0000000180025095e-35 1.0000000180025095e-35 1.0000000180025095e-35 1.0000000180025095e-35 1.0000000180025095e-35 1.0000000180025095e-35
decision_type=2 2 2 2 2 2 2 10 10 2 2 2 10 2 10 2 10 2 2 8 8 2 2 2 2 2 2 2 10 2 2 2 2 2 2 2 2 2 2 2 8 2 2
left_child=1 2 4 6 8 16 11 13 9 20 -10 14 18 39 15 -2 17 30 24 21 -1 22 -7 -6 31 27 -27 -20 33 -26 -3 -5 -30 42 35 -14 -18 -16 -15 -4 -11 -9 -8
right_child=3 5 7 12 23 19 28 41 10 40 -12 -13 34 38 37 -17 36 -19 25 -21 -22 -23 -24 -25 29 26 -28 -29 32 -31 -32 -33 -34 -35 -36 -37 -38 -39 -40 -41 -42 -43 -44
leaf_value=-0.037686242648777971 0.18754337730722573 0.10220491329408682 0.059367715735254172 0.085191545989488776 0.15214533011128026 0.025570307036396664 0.14344263702563645 0.19691160229236038 -0.078033178875392142 -0.025363478764267235 -0.040775663858745523 0.06571234908227247 0.1533118148034136 0.1092965874803257 0.2555550982575015 0.21657291678666116 0.16760695275792434 0.12609163531433762 0.096856693736470517 0.094615970067903468 -0.057681094897380318 0.059627385809096836 0.083536074882240102 0.21061935309395716 0.14374121628226905 0.18506644136111003 0.11201696232107916 0.1152717633583606 0.19602233043726391 0.098614024503132086 0.13216265766771154 0.0715049892523065 0.1527688518390759 0.16316392811316907 0.17907993742831277 0.19551520656824067 0.185538174271211 0.26376509404039211 0.12027834690496611 0.053783529549130661 -0.02432989596172962 0.1951777338302812 0.14274229880284933
leaf_weight=28920.102267608047 1717.7798979878426 1915.5899962186813 1614.3242232650518 802.47959007322788 160.39639572799206 852.29821786284447 819.32578223198652 266.28479727357626 3623.6558027416468 29926.546829216182 3585.6480602324009 104.71791855990887 136.62818256765604 1514.6647574305534 275.85448165237904 2437.1607591435313 100.81645651906729 1626.0175318345428 871.17814967036247 143.74598153680563 845.53165222704411 593.12004214525223 116.68782748281956 128.52988036721945 73.944327265024185 54.414618216454983 55.858653217554092 483.98326143622398 57.421563558280468 86.944242641329765 82.228202246129513 521.90190687030554 61.788883894681931 66.719162836670876 200.98156620562077 64.452730894088745 76.307175934314728 340.52410699427128 52.975996449589729 83.520799338817596 1063.8520442694426 197.47169675678015 811.92103067785501
leaf_count=113459 2007 2725 2636 1190 214 1386 1109 319 17191 103544 13584 191 195 2188 263 2599 129 2198 1287 213 3812 914 178 152 106 74 84 718 74 133 120 814 88 96 277 89 91 315 79 137 3956 232 1123
internal_value=0 -0.0182554 -0.0269208 0.162563 -0.0337134 0.095017 0.191564 0.0973997 -0.0346141 -0.0316608 -0.0595026 0.208607 0.104666 0.0833721 0.211743 0.204571 0.116479 0.113603 0.0953611 0.0471952 -0.0382542 0.0428315 0.0325507 0.178158 0.0840829 0.106792 0.148063 0.103433 0.145832 0.119354 0.103438 0.0797981 0.173603 0.143883 0.172958 0.166839 0.175332 0.260091 0.109668 0.059093 -0.025328 0.196173 0.143094
internal_weight=0 77490.3 71983.5 10046 68254.3 5506.81 6693.21 3729.24 67965.3 60756 7209.3 4876.04 3352.77 3265.49 4771.32 4154.94 3800.96 3623.84 2950.7 1705.85 29765.6 1562.11 968.986 288.926 1485.27 1465.43 110.273 1355.16 1817.18 160.889 1997.82 1324.38 119.21 1697.97 402.062 201.081 177.124 616.379 1567.64 1697.85 30990.4 463.756 1631.25
internal_count=282289 269457 261503 12832 255912 7954 7865 5591 255546 224771 30775 5375 4967 5040 5184 4606 5263 5043 4406 2691 117271 2478 1564 366 2243 2163 158 2005 2490 239 2845 2004 162 2328 561 284 220 578 2267 2773 107500 551 2232
is_linear=0
shrinkage=0.293014


Tree=8
num_leaves=42
num_cat=0
split_feature=7 4 4 2 6 3 3 2 2 5 5 5 3 3 5 5 5 3 6 6 3 6 6 2 6 2 6 5 5 6 3 6 5 2 6 6 6 5 5 5 6
split_gain=3140.41 928.635 169.038 149.295 110.575 52.1383 41.8896 39.4787 10.1302 7.9647 6.77645 5.74651 4.74377 3.95238 3.83796 3.76774 3.61342 3.58016 3.55923 3.37778 2.85041 3.0823 2.84596 2.46221 2.10397 2.02807 1.61062 1.88455 1.43605 0.92502 0.868012 2.29945 0.609685 0.494055 0.412003 0.310485 0.282513 0.20445 0.0682681 0.0388981 0.0125627
threshold=1.0000000180025095e-35 1.0000000180025095e-35 1.0000000180025095e-35 1.0000000180025095e-35 1.0000000180025095e-35 1.0000000180025095e-35 1.0000000180025095e-35 1.0000000180025095e-35 1.0000000180025095e-35 1.0000000180025095e-35 inf 1.0000000180025095e-35 1.0000000180025095e-35 1.0000000180025095e-35 1.0000000180025095e-35 1.0000000180025095e-35 1.0000000180025095e-35 1.0000000180025095e-35 1.0000000180025095e-35 1.0000000180025095e-35 1.0000000180025095e-35 1.0000000180025095e-35 1.0000000180025095e-35 1.0000000180025095e-35 1.0000000180025095e-35 1.0000000180025095e-35 1.0000000180025095e-35 1.0000000180025095e-35 1.0000000180025095e-35 1.0000000180025095e-35 1.0000000180025095e-35 1.0000000180025095e-35 1.0000000180025095e-35 1.0000000180025095e-35 1.0000000180025095e-35 1.0000000180025095e-35 1.0000000180025095e-35 inf 1.0000000180025095e-35 1.0000000180025095e-35 1.0000000180025095e-35
decision_type=2 2 2 2 2 2 2 2 2 10 8 8 2 2 8 10 10 2 2 2 2 2 2 2 2 2 2 10 10 2 2 2 10 2 2 2 2 8 10 8 2
left_child=1 3 8 4 5 37 11 13 10 20 12 -6 16 26 30 36 18 28 -2 -15 21 23 25 -4 -14 -22 39 -28 34 -11 31 -9 -13 -23 -10 -18 -5 38 -1 -3 -12
right_child=2 7 9 15 6 -7 -8 14 17 29 40 32 24 19 -16 -17 35 -19 -20 -21 22 33 -24 -25 -26 -27 27 -29 -30 -31 -32 -33 -34 -35 -36 -37 -38 -39 -40 -41 -42
leaf_value=-0.051814879508825316 0.13035856201365587 0.11986590531415164 0.036845139796246387 0.078266413009471028 -0.028393635990402948 0.10912671913845885 0.1372845313830246 0.02645498639609984 0.08308604252082788 0.12782632751423878 0.070151005489225399 -0.010977911893208289 0.059875943698233104 0.040622100381053426 0.12690529485088639 0.13759592306548288 0.13865963248172841 0.16259317375457599 0.12034569390647015 0.13178827994575634 0.13080428063016339 0.063182999939298559 0.031499259161958296 0.059352742946695146 0.11919157191139995 0.064529798798211371 0.13000932780121727 0.16945905034663994 0.13584500285018541 0.083857994169502556 0.074295271919662717 0.062077564757669464 -0.019034416301645787 0.049849044381816227 0.09575722832461013 0.1490111867175658 0.067572726343971032 -0.047197598457262957 -0.053200806787138261 0.11448816981163987 0.065133835746206847
leaf_weight=25253.514493003488 6149.2632423341274 1384.4746698588133 1523.4460664466023 473.62404821068048 27258.436462014914 173.75247372686863 134.18674313277006 379.11890080571175 553.07232040166855 129.08368800580502 81.583024516701698 1040.8958501219749 131.74802578240633 87.83010496199131 52.124302484095097 86.631016321480274 505.21873139590025 63.787740454077721 6043.6370977014303 57.892571590840816 99.02418015897274 1178.0132015049458 64.028109990060329 574.71873323619366 84.12660938501358 66.108322337269783 1441.8277074471116 112.04645352065563 57.553632281720638 60.259359322488308 75.445998460054398 263.85597795248032 3580.8620022758842 299.16923522204161 366.17961120605469 490.10607828944921 384.14620181918144 787.76186326146126 3470.8956639841199 125.98812512308359 90.249717704951763
leaf_count=109355 8318 1893 2578 734 99885 271 210 636 856 206 122 3915 234 160 78 138 697 90 8479 96 149 1949 115 918 141 108 1983 152 89 105 121 421 13552 495 565 681 624 3763 17084 187 136
internal_value=0 -0.027541 0.108602 -0.0362611 -0.0380308 -0.0509124 -0.0260861 0.109692 0.123199 0.0551787 0.125335 -0.0267738 0.126076 0.123989 0.0501324 0.079359 0.126781 0.0953367 0.125395 0.0768405 0.0522596 0.0502291 0.0839393 0.0430103 0.0829913 0.104272 0.126231 0.132854 0.0909447 0.113833 0.0445622 0.0410733 -0.01722 0.0604825 0.0881335 0.143757 0.0734773 -0.0518546 -0.0519823 0.119417 0.0675159
internal_weight=0 66625.3 18610.4 62644.7 61700.3 29685.9 32014.4 3980.6 14616.5 3993.85 13575.9 31880.2 13404.1 3210.06 770.545 944.401 13188.2 1040.59 12192.9 145.723 3804.51 3575.35 229.161 2098.16 215.875 165.133 3064.34 1553.87 976.806 189.343 718.421 642.975 4621.76 1477.18 919.252 995.325 857.77 29512.2 28724.4 1510.46 171.833
internal_count=282289 255258 27031 249531 248035 130473 117562 5727 20408 6623 18808 117352 18550 4471 1256 1496 18175 1600 16797 256 6312 5940 372 3496 375 257 4215 2135 1510 311 1178 1057 17467 2444 1421 1378 1358 130202 126439 2080 258
is_linear=0
shrinkage=0.293014


Tree=9
num_leaves=41
num_cat=0
split_feature=1 4 0 0 2 4 3 2 0 2 3 6 2 6 6 6 6 6 6 6 4 2 6 6 2 2 3 3 2 6 6 3 3 4 6 3 2 3 2 2
split_gain=1634.6 253.079 288.918 151.575 127.686 63.233 55.2854 41.7357 40.1493 26.2416 24.2814 12.7206 10.3596 7.25787 5.15013 3.76074 2.79986 2.47445 2.14189 1.85282 1.45523 3.3874 1.16215 1.0593 5.95213 1.25214 2.81147 1.01238 0.754969 1.79992 0.756797 0.736039 0.471035 0.467801 0.336468 0.213206 0.0855238 0.0325109 0.0159152 0.00062846
threshold=1.0000000180025095e-35 1.0000000180025095e-35 1.0000000180025095e-35 1.0000000180025095e-35 1.0000000180025095e-35 1.0000000180025095e-35 1.0000000180025095e-35 1.0000000180025095e-35 1.0000000180025095e-35 1.0000000180025095e-35 1.0000000180025095e-35 1.0000000180025095e-35 1.0000000180025095e-35 1.0000000180025095e-35 1.0000000180025095e-35 1.0000000180025095e-35 1.0000000180025095e-35 1.0000000180025095e-35 1.0000000180025095e-35 1.0000000180025095e-35 1.0000000180025095e-35 1.0000000180025095e-35 1.0000000180025095e-35 1.0000000180025095e-35 1.0000000180025095e-35 1.0000000180025095e-35 1.0000000180025095e-35 1.0000000180025095e-35 1.0000000180025095e-35 1.0000000180025095e-35 1.0000000180025095e-35 1.0000000180025095e-35 1.0000000180025095e-35 1.0000000180025095e-35 1.0000000180025095e-35 1.0000000180025095e-35 1.0000000180025095e-35 1.0000000180025095e-35 1.0000000180025095e-35 1.0000000180025095e-35
decision_type=2 2 2 2 2 2 2 2 2 2 2 2 2 2 2 2 2 2 2 2 2 2 2 2 2 2 2 2 2 2 2 2 2 2 2 2 2 2 2 2
left_child=1 2 4 5 6 7 11 10 12 13 14 -1 18 27 -2 -6 20 -11 37 -8 21 31 -9 25 -25 26 -10 -4 29 -7 -30 -5 33 39 -14 36 -22 -3 -35 -18
right_child=3 8 9 16 15 28 19 22 23 17 -12 -13 34 -15 -16 -17 32 -19 -20 -21 35 -23 -24 24 -26 -27 -28 -29 30 -31 -32 -33 -34 38 -36 -37 -38 -39 -40 -41
leaf_value=-0.027442863460696281 0.16771996861848501 0.07022683021272276 0.063168304078244752 0.056785175394514886 0.10574002295254245 0.1136571072002709 0.10392070930829074 0.049132405860126876 -0.0058478014561075238 -0.020784859929139518 0.011206548839493418 -0.019200349878987333 0.03879028597576293 0.090276156467452753 0.18965996398109883 0.066375087549919734 0.080131368442926537 0.025579887840347416 0.086274671537811529 0.15968073073941713 0.049029572079908504 0.10813468184855966 0.084585583236318693 0.041602868251403885 -0.025240047056660518 0.022286658078059907 0.059724986949986091 0.027195401261388669 0.073022168664923101 0.091358625249897407 0.10390838135069937 0.090830960801576072 0.096521201366389892 0.06952647653321084 0.023514858003021818 0.06221012385223576 0.041055003459140066 0.062885803216415945 0.065606854537319431 0.079336101127852277
leaf_weight=31165.316800251603 1574.1080245599151 1445.8701038211584 1500.7813036888838 712.10835779458284 527.37426991760731 608.36847593635321 120.23641270399094 159.76492629945278 601.68872747570276 257.26861204952002 74.145842485129833 33201.181522615254 370.58611265569925 1455.63065796718 2205.813049711287 344.46714416146278 822.83587455004454 160.4713926166296 1282.2894049286842 89.062234118580818 339.37559898197651 145.50788225978613 157.77881117910147 420.05265877395868 157.17345837503672 333.12151023000479 61.915411278605461 70.316039033234119 168.65806993842125 635.41329564899206 114.25329422950745 59.039291873574257 106.5260578468442 315.18249762803316 185.91205338388681 84.346977762877941 175.00586461275816 53.719784334301949 123.90460926294327 95.184406295418739
leaf_count=133700 1994 2251 2486 1154 787 951 189 298 1051 476 161 120543 624 2220 2639 558 1317 279 1965 135 594 232 283 692 286 557 105 130 284 1070 185 105 189 567 324 148 294 99 203 164
internal_value=0 -0.0122636 -0.0168454 0.122179 -0.0211985 0.15018 -0.0227024 0.168853 0.0519926 0.065868 0.177266 -0.0231913 0.0701817 0.0753694 0.180523 0.0901868 0.0686189 -0.00297422 0.0774822 0.127648 0.0597906 0.0671291 0.0667481 0.0134133 0.0234021 0.00762848 0.000270253 0.0615583 0.0991578 0.102265 0.0854955 0.0593917 0.0777593 0.0762866 0.0336871 0.0485555 0.0463164 0.0699639 0.0684204 0.0800489
internal_weight=0 73804.4 68892.1 8677.32 65447.6 5698.3 64575.8 4171.61 4912.33 3444.47 3854.07 64366.5 3338.38 3026.73 3779.92 871.841 2979.02 417.74 2781.88 209.299 1515.38 916.656 317.544 1573.95 577.226 996.726 663.604 1571.1 1526.69 1243.78 282.911 771.148 1463.63 1357.11 556.498 598.728 514.381 1499.59 439.087 918.02
internal_count=282289 269457 261503 12832 255912 7865 254567 5375 7954 5591 4794 254243 5263 4836 4633 1345 4967 755 4315 324 2527 1491 581 2691 978 1713 1156 2616 2490 2021 469 1259 2440 2251 948 1036 888 2350 770 1481
is_linear=0
shrinkage=0.293014


Tree=10
num_leaves=33
num_cat=0
split_feature=7 1 4 4 1 4 3 2 5 2 2 2 1 5 2 5 3 3 5 3 5 5 5 5 3 2 2 5 3 2 5 3
split_gain=1488.47 1308.53 256.98 158.163 62.6605 55.5186 35.7707 20.4762 18.8938 15.5682 14.1094 13.6173 12.1463 5.25441 5.19946 4.21059 4.18955 4.16176 3.99354 3.56645 2.78591 2.09015 1.90117 1.73577 1.25717 1.21578 1.06891 0.928806 0.842834 0.817335 0.344533 0.104101
threshold=1.0000000180025095e-35 1.0000000180025095e-35 1.0000000180025095e-35 1.0000000180025095e-35 1.0000000180025095e-35 1.0000000180025095e-35 1.0000000180025095e-35 1.0000000180025095e-35 1.0000000180025095e-35 1.0000000180025095e-35 1.0000000180025095e-35 1.0000000180025095e-35 1.0000000180025095e-35 inf 1.0000000180025095e-35 inf 1.0000000180025095e-35 1.0000000180025095e-35 1.0000000180025095e-35 1.0000000180025095e-35 1.0000000180025095e-35 1.0000000180025095e-35 1.0000000180025095e-35 1.0000000180025095e-35 1.0000000180025095e-35 1.0000000180025095e-35 1.0000000180025095e-35 1.0000000180025095e-35 1.0000000180025095e-35 1.0000000180025095e-35 1.0000000180025095e-35 1.0000000180025095e-35
decision_type=2 2 2 2 2 2 2 2 10 2 2 2 2 8 2 8 2 2 10 2 10 10 10 10 2 2 2 10 2 2 10 2
left_child=1 2 6 4 10 8 7 13 11 16 15 17 23 20 30 19 27 -3 25 21 -1 -2 24 28 26 -14 -6 -4 29 -5 31 -7
right_child=3 5 9 12 22 14 -8 -9 -10 -11 -12 -13 18 -15 -16 -17 -18 -19 -20 -21 -22 -23 -24 -25 -26 -27 -28 -29 -30 -31 -32 -33
leaf_value=-0.035389800928127192 0.10493965232788538 0.1456890848539521 0.078783623062434305 0.0073144833507967008 0.04333987020424495 0.08462934348506429 0.090130707516155095 0.022392501814035095 0.19843609770124546 0.015510416997201097 0.061403050018264509 0.074503221640024139 0.039433643349841625 -0.01972116159196266 0.041298069097573109 0.054931717774697804 0.0066858595499089679 0.075129806757350773 0.12210845126781499 0.054882198423069337 -0.04192695769026434 0.12127498452585739 0.073136356893351059 0.050508847774937415 0.078671140186033828 0.06089572101705526 0.020513509942299668 0.10649073845676181 0.035580149119030208 0.020352606575400667 0.10315597416071283 0.071086321125311797
leaf_weight=48136.151639729738 9621.2949938178062 2704.4121779203415 1656.2518779337406 1709.972460500896 1482.7933782711625 837.45046852529049 196.48811522126198 526.80367372184992 514.86930555105209 424.68058067560196 684.08572169393301 266.71281610429287 810.56097225099802 1724.3506907522678 297.1767952889204 143.28908786177635 68.539130933582783 73.726805239915848 61.51031169295311 118.14515142142773 6333.5662710666656 723.04762649536133 190.40418316423893 103.47252722084522 78.039952844381332 314.55783146619797 199.87546652555466 110.827521443367 120.84340801090002 544.17550981789827 87.055313378572464 51.741021126508713
leaf_count=205865 14030 3444 2452 3119 2806 1450 331 907 639 730 1151 482 1491 7609 526 219 137 150 116 231 30104 1056 385 195 144 543 386 162 221 938 168 102
internal_value=0 -0.018854 -0.0308266 0.0788989 0.0938097 0.12774 -0.0346744 -0.0351068 0.146523 0.0660677 0.102189 0.137745 0.0250303 -0.0356458 0.0752335 0.10482 0.0777645 0.143817 0.0494085 0.105503 -0.0361499 0.106081 0.0453224 0.0133586 0.0423146 0.045434 0.0406284 0.0805214 0.0117401 0.010462 0.0855636 0.0838413
internal_weight=0 64010.8 59177.7 16906.1 13241 4833.14 56917.4 56720.9 3559.72 2260.3 11289.9 3044.85 3665.09 56194.1 1273.42 10605.8 1835.62 2778.14 1186.63 10462.5 54469.7 10344.3 1951.11 2478.46 1760.71 1125.12 1682.67 1767.08 2374.99 2254.15 976.247 889.191
internal_count=282289 255258 248297 27031 20408 6961 244816 244485 4715 3481 16687 4076 6623 243578 2246 15536 2751 3594 2150 15317 235969 15086 3721 4473 3336 2034 3192 2614 4278 4057 1720 1552
is_linear=0
shrinkage=0.293014


Tree=11
num_leaves=37
num_cat=0
split_feature=7 4 4 6 2 2 2 3 3 3 2 6 5 5 5 5 3 3 5 3 6 2 6 6 2 5 6 5 6 6 5 6 5 5 2 5
split_gain=799.453 178.665 94.0556 34.7891 20.1672 11.5073 8.69844 8.5152 8.20361 4.74285 4.47063 3.47731 3.15625 2.40225 2.29161 1.61437 1.51155 1.33622 1.25139 1.15561 2.1327 1.30033 1.1377 0.899806 1.60071 0.778659 0.923308 0.423443 0.791316 0.405409 0.314206 0.298507 0.257573 0.0584841 0.028727 0.019975
threshold=1.0000000180025095e-35 1.0000000180025095e-35 1.0000000180025095e-35 1.0000000180025095e-35 1.0000000180025095e-35 1.0000000180025095e-35 1.0000000180025095e-35 1.0000000180025095e-35 1.0000000180025095e-35 1.0000000180025095e-35 1.0000000180025095e-35 1.0000000180025095e-35 1.0000000180025095e-35 1.0000000180025095e-35 1.0000000180025095e-35 inf 1.0000000180025095e-35 1.0000000180025095e-35 1.0000000180025095e-35 1.0000000180025095e-35 1.0000000180025095e-35 1.0000000180025095e-35 1.0000000180025095e-35 1.0000000180025095e-35 1.0000000180025095e-35 1.0000000180025095e-35 1.0000000180025095e-35 1.0000000180025095e-35 1.0000000180025095e-35 1.0000000180025095e-35 1.0000000180025095e-35 1.0000000180025095e-35 1.0000000180025095e-35 1.0000000180025095e-35 1.0000000180025095e-35 1.0000000180025095e-35
decision_type=2 2 2 2 2 2 2 2 2 2 2 2 10 10 8 8 2 2 8 2 2 2 2 2 2 10 2 8 2 2 10 2 10 10 2 8
left_child=1 3 6 4 7 16 9 30 10 11 14 15 19 18 -5 33 25 31 -13 23 21 -21 -11 24 -4 29 -27 28 -8 -3 35 -7 -16 -2 -25 -1
right_child=2 5 12 8 -6 17 27 -9 -10 22 -12 13 -14 -15 32 -17 -18 -19 -20 20 -22 -23 -24 34 -26 26 -28 -29 -30 -31 -32 -33 -34 -35 -36 -37
leaf_value=-0.025807878323064106 0.08029228194634469 0.057270505071834163 0.0058003513215157156 -0.012238881559402351 0.036335411274887465 0.009336746498147204 0.034923199696777027 0.046030438841755499 0.066494196515024043 0.0097616920662185573 0.022325845441827558 0.068632277838577602 0.059102048037757357 0.091790533160016299 -0.00090501977693261792 0.03648938873250928 0.029479103696809037 0.055753930335865759 0.032491456072619634 0.081236766008767808 -0.0096676947294562342 0.02416240143873476 0.057805304590728163 0.021599855773392414 0.024793176201058382 0.060504327250629347 0.10313287139943612 0.067892423920439551 0.053445765669138161 0.064957164315235072 -0.028844789945194984 0.022334085999707157 -0.0062342069998006823 0.083898081511316849 0.01822805172887872 -0.024266892092473596
leaf_weight=23691.76137688756 5225.1529489532113 1179.9893685206771 1402.2001504823565 26025.114213481545 456.54882467165589 380.31566618382931 496.8981247395277 141.16204462200403 118.29516891762614 115.87522814422846 345.51912859454751 5112.9758665114641 154.7552929148078 393.69511254131794 1010.5940536409616 72.282544396817684 124.83873979374766 75.536121279001236 83.602028861641884 82.11610609292984 57.203279249370098 58.823962107300758 66.665343254804611 1043.559726215899 523.12058113515377 89.03921327367425 85.525743007659912 59.529503062367439 329.23482993245125 1176.4436530545354 3209.0694478526711 252.3964634090662 3393.0413333773613 417.02091786265373 273.87561348080635 744.92167112231255
leaf_count=109355 8318 1919 2578 99885 818 674 896 271 241 239 647 8479 311 681 3915 117 256 133 136 149 115 108 141 1949 918 161 152 114 590 1983 17084 449 13552 697 495 3763
internal_value=0 -0.0135793 0.059882 -0.0173159 -0.0247487 0.0521046 0.0720047 -0.0257523 -0.0105205 0.0741619 -0.0108166 0.0749185 0.0181668 0.0697227 -0.0111929 0.0800014 0.0609544 0.0189191 0.0680508 0.0163257 0.038049 0.0574157 0.0273076 0.0149984 0.0109608 0.0625069 0.0813896 0.0440248 0.0423049 0.0611081 -0.0261189 0.0145215 -0.00501121 0.0805588 0.0208989 -0.0257609
internal_weight=0 62500.1 15968.6 59136 28243.5 3364.08 12372.9 27786.9 30892.6 11487.3 30774.3 11304.7 3595.65 5590.27 30428.7 5714.46 2655.84 708.248 5196.58 3440.9 198.143 140.94 182.541 3242.76 1925.32 2531 174.565 885.662 826.133 2356.43 27645.8 632.712 4403.64 5642.17 1317.44 24436.7
internal_count=282289 255258 27031 249531 131291 5727 20408 130473 118240 18808 117999 18428 6623 9296 117352 9132 4471 1256 8615 6312 372 257 380 5940 3496 4215 313 1600 1486 3902 130202 1123 17467 9015 2444 113118
is_linear=0
shrinkage=0.293014


Tree=12
num_leaves=38
num_cat=0
split_feature=1 7 7 4 4 4 2 3 3 6 2 2 2 6 6 6 4 3 2 6 2 6 2 6 2 6 3 2 6 6 2 2 3 6 6 6 6
split_gain=426.237 554.193 125.548 73.6731 72.2589 55.4656 16.3763 14.0549 11.9678 10.6215 5.72071 5.24225 4.87264 3.48633 2.93903 2.59794 2.37099 2.36235 1.6665 1.63535 0.793288 0.781659 0.673861 0.311351 0.293092 0.897392 0.269409 0.119677 0.0934515 0.0792367 1.57743 0.309157 2.54452 0.0480287 0.0341587 0.0104649 0.00518408
threshold=1.0000000180025095e-35 1.0000000180025095e-35 1.0000000180025095e-35 1.0000000180025095e-35 1.0000000180025095e-35 1.0000000180025095e-35 1.0000000180025095e-35 1.0000000180025095e-35 1.0000000180025095e-35 1.0000000180025095e-35 1.0000000180025095e-35 1.0000000180025095e-35 1.0000000180025095e-35 1.0000000180025095e-35 1.0000000180025095e-35 1.0000000180025095e-35 1.0000000180025095e-35 1.0000000180025095e-35 1.0000000180025095e-35 1.0000000180025095e-35 1.0000000180025095e-35 1.0000000180025095e-35 1.0000000180025095e-35 1.0000000180025095e-35 1.0000000180025095e-35 1.0000000180025095e-35 1.0000000180025095e-35 1.0000000180025095e-35 1.0000000180025095e-35 1.0000000180025095e-35 1.0000000180025095e-35 1.0000000180025095e-35 1.0000000180025095e-35 1.0000000180025095e-35 1.0000000180025095e-35 1.0000000180025095e-35 1.0000000180025095e-35
decision_type=2 2 2 2 2 2 2 2 2 2 2 2 2 2 2 2 2 2 2 2 2 2 2 2 2 2 2 2 2 2 2 2 2 2 2 2 2
left_child=1 4 5 10 8 6 7 13 9 12 14 15 -1 -2 17 -6 19 -3 23 26 -21 -10 -11 -7 36 -26 27 -4 -8 31 -31 32 -5 -12 -13 -20 -18
right_child=2 3 16 29 11 18 28 -9 21 22 33 34 -14 -15 -16 -17 24 -19 35 20 -22 -23 -24 -25 25 -27 -28 -29 -30 30 -32 -33 -34 -35 -36 -37 -38
leaf_value=-0.025010431457485025 0.11676848675336958 0.069234508652876892 0.0056957881915214968 4.550986384845757e-05 0.031819160174784235 0.056596345561279932 0.055666413665352368 0.0029712229712580505 0.040005591558534496 -0.016572408606427416 0.036436439270011882 0.0079534927912511127 0.012929637590337649 0.13739289468457286 0.057986201110389553 0.05494178348001337 0.029470943390056605 0.017298710800174772 0.026394676060100722 0.0203073898964145 0.048556305864778812 0.079773901686365972 -5.3833180206833415e-05 0.04547511554117712 0.027090113013925218 0.059958280886895456 0.026083861807026095 -0.0044711790284015264 0.044781488138052848 0.0084217718737638076 -0.022137549641294749 0.012685299968940097 0.06489304499967545 0.031149315955292325 0.0024336699023796153 0.022790070786353821 0.027994264770439103
leaf_weight=26083.046946033835 1202.9904575869441 4665.4734095260501 719.57591151446104 1056.551341727376 884.57349333167076 411.31559780612588 136.72456799447536 78.231857031583786 103.37568373978138 28599.433082982898 396.88367868959904 263.22763861715794 293.90684022009373 1695.4353215619922 4572.9840677753091 789.56770069152117 437.73483506217599 76.426233053207397 163.97125764936209 794.15097872167826 95.62716044858098 71.982317540794611 213.61546766757965 455.46260068193078 189.92820806801319 114.20333919674158 51.721919827163219 115.33659875392914 134.17557499557734 723.5967774912715 181.37445895373821 405.62510881572962 54.637674793601036 234.77919276058674 151.74499569088221 119.58114985376596 382.45146209001541
leaf_count=128557 1645 7629 1503 1943 1459 781 271 192 191 115021 716 460 520 2331 7752 1292 834 155 299 1685 190 140 387 939 357 207 107 236 276 1365 340 721 104 435 270 227 752
internal_value=0 -0.00596593 0.0684527 0.0502975 -0.0180779 0.0996634 0.119248 0.125525 -0.0200964 -0.0203392 0.0614563 0.0354167 -0.0245877 0.128833 0.0632862 0.0427244 0.0211333 0.0683974 0.0443737 0.0144687 0.0233434 0.05633 -0.0164499 0.0507525 0.0316632 0.0394323 0.00556257 0.0042913 0.0502752 0.00446693 0.00229707 0.00576153 0.00323409 0.0344713 0.00593503 0.0248745 0.0287824
internal_weight=0 69822.8 7298.62 12368.3 57454.5 4397.89 3247.56 2976.66 55365.4 55190 9946.55 2089.11 26377 2898.43 9314.88 1674.14 2900.73 4741.9 1150.33 1776.41 889.778 175.358 28813 866.778 1124.32 304.132 886.634 834.913 270.9 2421.79 904.971 1516.81 1111.19 631.663 414.973 283.552 820.186
internal_count=282289 269457 12832 21160 248297 6961 4715 4168 244816 244485 16687 3481 129077 3976 15536 2751 5871 7784 2246 3721 1875 331 115408 1720 2150 564 1846 1739 547 4473 1705 2768 2047 1151 730 526 1586
is_linear=0
shrinkage=0.293014


Tree=13
num_leaves=50
num_cat=0
split_feature=1 7 0 0 0 7 2 5 2 2 5 2 5 6 5 2 6 5 5 2 6 6 6 5 6 6 6 6 6 7 6 6 6 5 2 5 7 6 5 5 6 6 6 6 6 7 7 6 6
split_gain=229.258 289.351 305.057 283.907 99.7923 103.803 50.0599 27.3927 17.8622 14.6651 12.7899 9.53572 9.0229 8.94777 6.1055 6.1048 6.06331 4.67507 3.97049 2.63399 3.23628 2.22914 1.7482 1.51921 1.32274 1.30943 1.2567 0.920279 0.897631 0.761343 1.79413 0.917982 0.633935 0.598622 0.795253 0.563259 0.509484 0.884318 0.379712 0.379649 0.336561 0.260801 0.160592 0.126972 0.0816982 0.0113344 0.00579151 0.00570884 9.24213e-05
threshold=1.0000000180025095e-35 1.0000000180025095e-35 1.0000000180025095e-35 1.0000000180025095e-35 1.0000000180025095e-35 1.0000000180025095e-35 1.0000000180025095e-35 1.0000000180025095e-35 1.0000000180025095e-35 1.0000000180025095e-35 1.0000000180025095e-35 1.0000000180025095e-35 1.0000000180025095e-35 1.0000000180025095e-35 1.0000000180025095e-35 1.0000000180025095e-35 1.0000000180025095e-35 1.0000000180025095e-35 inf 1.0000000180025095e-35 1.0000000180025095e-35 1.0000000180025095e-35 1.0000000180025095e-35 1.0000000180025095e-35 1.0000000180025095e-35 1.0000000180025095e-35 1.0000000180025095e-35 1.0000000180025095e-35 1.0000000180025095e-35 1.0000000180025095e-35 1.0000000180025095e-35 1.0000000180025095e-35 1.0000000180025095e-35 1.0000000180025095e-35 1.0000000180025095e-35 1.0000000180025095e-35 1.0000000180025095e-35 1.0000000180025095e-35 1.0000000180025095e-35 1.0000000180025095e-35 1.0000000180025095e-35 1.0000000180025095e-35 1.0000000180025095e-35 1.0000000180025095e-35 1.0000000180025095e-35 1.0000000180025095e-35 1.0000000180025095e-35 1.0000000180025095e-35 1.0000000180025095e-35
decision_type=2 2 2 2 2 2 2 8 2 2 10 2 10 2 10 2 2 10 8 2 2 2 2 10 2 2 2 2 2 2 2 2 2 8 2 8 2 2 8 10 2 2 2 2 2 2 2 2 2
left_child=1 2 11 18 5 8 7 13 14 17 15 12 21 -4 41 27 -14 25 19 22 -21 35 39 -24 -8 -5 -11 45 -9 31 -31 -17 -10 34 44 -1 37 -12 -23 -3 -36 -2 -16 -13 -7 -6 -29 -35 -20
right_child=4 3 6 9 10 33 24 28 32 26 36 43 16 -15 42 29 -18 -19 48 20 -22 38 23 -25 -26 -27 -28 46 -30 30 -32 -33 -34 47 40 -37 -38 -39 -40 -41 -42 -43 -44 -45 -46 -47 -48 -49 -50
leaf_value=-0.019236343699335991 0.1116533123722198 0.062133868535030112 0.065299557758853183 -0.079638341284041597 -0.016778454439097045 0.020669119187038048 -0.0039552103861510406 0.15951485236804683 0.027679232156495058 -0.033957119702440683 0.053701849983697141 0.016474779172049932 -0.038815545466497209 0.1042193483809541 0.1658492460842319 0.030073154202130463 -0.019994664461554998 -0.022206374382031876 0.0079754854223842084 0.054744138057312028 0.013209671368979957 -0.015186112137359471 0.053374869748407952 0.076113471195071156 -0.039992195679188401 -0.098682713519046034 -0.0024341690861714709 -0.0048623780028045219 0.18911302466926894 0.017806606984920106 0.06864668180230124 -0.005823728156822393 0.056337996956460357 0.042063352168975353 -0.0049773022456857411 -0.010807215465273873 0.04976095717540574 0.097486313455438137 -0.009207826240613344 0.07275716127978378 0.017510537158282068 0.11823108620942145 0.15272656082355365 0.025414218855299615 0.025199815223934212 -0.018914083053607866 -0.00332691671866022 0.038309235966766844 0.0084487331913733702
leaf_weight=21916.8617926687 875.11696050688624 4398.6078551858664 1027.2796089202166 781.59085320681334 466.47154990583658 680.99115543067455 241.47580816596746 200.34797331690788 139.95276335626841 316.50106705725193 75.270031720399857 324.86276792734861 2825.5637393295765 1001.7026636078954 149.60567112267017 138.61268380284309 3062.4464410245419 102.57404789328575 67.502932369709015 466.17878500372171 246.09152603894472 24029.936378799379 4200.9643975533545 268.38642528653145 137.09815510362387 513.7048654705286 165.28516031056643 494.36119533330202 156.83911551162601 157.26566953957081 95.959931142628193 109.46756518632174 125.86656447872519 72.465395234525204 135.95665138959885 702.45644882321358 96.672218825668097 83.582733012735844 948.16288215667009 309.12633420526981 98.566184312105179 1266.4778579324484 172.25759993121028 235.16508956253529 685.86688508093357 393.22919476032257 367.8326114565134 66.872167985886335 74.568264171481133
leaf_count=107699 1296 7414 1725 1646 907 1395 431 259 284 602 161 576 16774 1470 200 255 13197 242 115 823 465 97728 7267 471 260 1158 305 1017 184 295 175 218 256 159 279 3723 223 177 3859 526 206 1926 264 412 1445 786 753 155 126
internal_value=0 -0.00424532 -0.0129513 0.037278 0.0516035 0.0777518 0.0819818 0.0976865 0.113412 -0.0672283 0.00444897 -0.0178077 -0.0182059 0.0845141 0.121198 -0.00268669 -0.0290265 -0.0824227 0.05686 0.0575587 0.0403939 -0.0168674 0.058891 0.0547403 -0.0170058 -0.0871912 -0.0231426 -0.0109715 0.172511 0.0257701 0.0370725 0.0142333 0.0412493 0.0218406 0.0202378 -0.0189746 0.0665329 0.0767397 -0.0149592 0.0628314 0.00447398 0.115543 0.158826 0.0202286 0.0229425 -0.0177553 -0.00420731 0.0402616 0.00822388
internal_weight=0 68721.3 56810.2 11911.1 6948.72 4470 2764.74 2386.17 2729.28 1879.66 2478.73 54045.5 53485.4 2028.98 2463.46 2223.2 5888.01 1397.87 10031.4 9889.36 712.27 47597.4 9177.09 4469.35 378.574 1295.3 481.786 1721.89 357.187 501.306 253.226 248.08 265.819 1740.72 1601.38 22619.3 255.525 158.853 24978.1 4707.73 234.523 2141.59 321.863 560.028 1366.86 859.701 862.194 139.338 142.071
internal_count=282289 269457 248297 21160 12832 7865 4329 3638 4226 3953 4967 243968 242980 3195 3686 4406 29971 3046 17207 16966 1288 213009 15678 7738 691 2804 907 3463 443 943 470 473 540 3639 3325 111422 561 338 101587 7940 485 3222 464 988 2840 1693 1770 314 241
is_linear=0
shrinkage=0.293014


Tree=14
num_leaves=38
num_cat=0
split_feature=1 7 7 5 2 2 3 6 5 5 6 3 5 3 2 6 5 5 3 5 2 2 2 6 2 6 6 6 6 3 2 5 6 5 3 6 6
split_gain=122.221 151.289 42.9484 12.0229 7.24692 4.99083 4.00243 3.01825 1.87221 1.59988 1.56543 1.58721 1.02722 1.59206 2.96394 0.956075 0.937184 0.887192 0.601565 0.590257 0.480762 0.41071 0.395672 1.16276 0.349384 0.29183 0.250617 0.203482 0.195376 0.184495 0.120732 0.0858433 0.0376657 0.00845608 0.0043457 0.000886594 0.000107124
threshold=1.0000000180025095e-35 1.0000000180025095e-35 1.0000000180025095e-35 1.0000000180025095e-35 1.0000000180025095e-35 1.0000000180025095e-35 1.0000000180025095e-35 1.0000000180025095e-35 1.0000000180025095e-35 1.0000000180025095e-35 1.0000000180025095e-35 1.0000000180025095e-35 1.0000000180025095e-35 1.0000000180025095e-35 1.0000000180025095e-35 1.0000000180025095e-35 1.0000000180025095e-35 1.0000000180025095e-35 1.0000000180025095e-35 inf 1.0000000180025095e-35 1.0000000180025095e-35 1.0000000180025095e-35 1.0000000180025095e-35 1.0000000180025095e-35 1.0000000180025095e-35 1.0000000180025095e-35 1.0000000180025095e-35 1.0000000180025095e-35 1.0000000180025095e-35 1.0000000180025095e-35 1.0000000180025095e-35 1.0000000180025095e-35 1.0000000180025095e-35 1.0000000180025095e-35 1.0000000180025095e-35 1.0000000180025095e-35
decision_type=2 2 2 10 2 2 2 2 10 8 2 2 10 2 2 2 10 8 2 8 2 2 2 2 2 2 2 2 2 2 2 10 2 8 2 2 2
left_child=1 6 3 4 10 8 7 16 9 27 11 -2 13 15 -15 20 30 18 26 24 -4 -17 23 -8 31 -11 -7 29 -14 -3 33 -9 -6 -1 -29 -10 -5
right_child=2 5 12 36 32 17 22 19 35 25 -12 -13 28 14 -16 21 -18 -19 -20 -21 -22 -23 -24 -25 -26 -27 -28 34 -30 -31 -32 -33 -34 -35 -36 -37 -38
leaf_value=-0.011191450573672199 0.052744051455089917 0.03060022580051253 0.0049761001857757193 0.10348477289842428 0.017167470726767484 0.016461100539689376 0.0041617536307955658 -0.0075420753880352026 0.044507386248474619 0.011878523217910709 0.064103392726331365 0.0038902874895545224 0.039220741048209225 0.0064743754139699478 0.092863665902739936 0.011441076239134033 -0.016614074831588489 -0.023923589852005166 -0.016385095875072742 -0.00026021621530371888 -0.009202583518049744 0.026967215996293641 0.048214329117681164 0.049724670290805316 0.0015549039631640488 -0.013537100503808767 0.0070598199754279677 0.027602991187320486 0.021209575204611163 0.018340157631234366 -0.0065091285671534894 -0.0091700933752185167 0.022342460228912061 -0.010167785027837165 0.030238908125327462 0.045195341668059365 0.10377128072228248
leaf_weight=22582.049036234617 1221.3142419606447 4900.5249315053225 1022.7453523129225 212.89796940609813 263.76506595313549 680.91540057957172 132.35533858835697 24759.162330195308 355.61016398668289 76.865043722093105 1654.4701676480472 59.89745743945241 111.13991803303361 89.727085769176483 54.997668854892254 1012.4319724589586 2934.8835250213742 64.37544883415103 62.937826208770275 970.63617151230574 256.89406491070986 170.98415303975344 57.312050577253103 75.531177699565887 352.74164786189795 78.302688866853714 378.93248076736927 4526.022492595017 96.697999224066734 107.69975391030312 489.26969888061285 3132.5861360430717 222.71567017585039 714.76245387643576 54.344411808997393 293.64310893416405 236.52129554376006
leaf_count=109212 2065 8811 2079 380 520 1243 264 99072 668 130 2943 138 261 194 101 2135 17000 137 126 3887 513 348 105 162 634 138 706 8291 240 222 879 13322 453 3760 117 571 462
internal_value=0 -0.00296929 0.038552 0.0585774 0.0526601 0.0275274 -0.00925307 -0.00942333 0.0295833 0.0285681 0.0581491 0.0504601 0.0110163 0.00943626 0.0393037 0.0076813 -0.0116739 0.00952902 0.011447 -0.00736487 0.00212966 0.0136843 0.0266587 0.0207161 -0.00760903 -0.000947028 0.0130998 0.0290457 0.0308409 0.0303366 -0.0110644 -0.00772492 0.0195366 -0.01116 0.0276343 0.0448185 0.103636
internal_weight=0 67781.5 6687.2 3871.58 3422.16 11580.2 56201.3 55936.1 10393 9743.76 2935.68 1281.21 2815.62 2607.78 144.725 2463.06 26721 1187.16 1122.79 29215.1 1279.64 1183.42 265.199 207.887 28244.5 155.168 1059.85 9588.59 207.838 5008.22 23786.1 27891.7 486.481 23296.8 4580.37 649.253 449.419
internal_count=282289 269457 12832 6961 6119 21160 248297 247766 18948 17709 5146 2203 5871 5370 295 5075 130851 2212 2075 116915 2592 2483 531 426 113028 268 1949 17441 501 9033 113851 112394 973 112972 8408 1239 842
is_linear=0
shrinkage=0.293014


Tree=15
num_leaves=34
num_cat=0
split_feature=7 0 0 4 4 4 4 2 2 5 3 2 2 2 3 3 5 2 2 5 3 3 3 2 5 5 5 3 5 5 5 3 5
split_gain=58.9094 118.19 84.278 103.895 71.4514 66.3476 52.3771 22.8708 19.819 19.5321 10.7835 9.06533 6.50049 5.53462 4.12205 4.08138 3.76813 2.77383 2.62595 2.50755 2.09253 1.76456 1.66681 1.56837 1.23388 1.14632 0.799406 0.457912 0.438165 0.388216 0.133035 0.0725025 0.00432213
threshold=1.0000000180025095e-35 1.0000000180025095e-35 1.0000000180025095e-35 1.0000000180025095e-35 1.0000000180025095e-35 1.0000000180025095e-35 1.0000000180025095e-35 1.0000000180025095e-35 1.0000000180025095e-35 1.0000000180025095e-35 1.0000000180025095e-35 1.0000000180025095e-35 1.0000000180025095e-35 1.0000000180025095e-35 1.0000000180025095e-35 1.0000000180025095e-35 1.0000000180025095e-35 1.0000000180025095e-35 1.0000000180025095e-35 1.0000000180025095e-35 1.0000000180025095e-35 1.0000000180025095e-35 1.0000000180025095e-35 1.0000000180025095e-35 1.0000000180025095e-35 1.0000000180025095e-35 1.0000000180025095e-35 1.0000000180025095e-35 1.0000000180025095e-35 1.0000000180025095e-35 inf 1.0000000180025095e-35 1.0000000180025095e-35
decision_type=2 2 2 2 2 2 2 2 2 10 2 2 2 2 2 2 10 2 2 10 2 2 2 2 10 10 8 2 8 8 8 2 10
left_child=2 6 4 7 13 8 21 9 10 14 16 22 26 15 -4 25 -3 29 19 -8 -19 23 24 30 -5 28 -6 -13 -1 31 32 -7 -2
right_child=1 5 3 11 12 17 18 -9 -10 -11 -12 27 -14 -15 -16 -17 -18 20 -20 -21 -22 -23 -24 -25 -26 -27 -28 -29 -30 -31 -32 -33 -34
leaf_value=-0.0085211124489223897 0.042587244951792703 -0.097823538075584762 0.067205272559943754 -0.069016794598794964 0.057211494127945406 0.022004664082074517 -0.017829153682657081 -0.011796056092231562 -0.003924389668685373 0.13985157196890011 0.0203206073021171 -0.0075973086786095623 0.010302518104695508 0.02297803244293254 -0.0011975990284623518 0.043919270215357152 -0.042075875674232197 0.0038537460034770788 0.010312852398642085 0.042877267400818368 -0.056505398164183929 0.0052100190714782415 -0.014376933241456181 0.02567505414892212 -0.022169199224695693 -0.012690105417771177 0.031209948342581291 0.021597912509523275 -0.0036716628670068335 0.046510790232182159 0.051838374551081687 0.032141927019435274 0.041740837281037189
leaf_weight=45521.247131288052 7719.0371139273047 1205.7691841572523 2222.4078343361616 584.48864716291428 1556.1258765459061 767.23555349558592 1594.5751441270113 292.14824321493506 301.02021474391222 342.78019252792001 76.248580653220415 297.94992268830538 326.58562085777521 477.59374696016312 78.303066853433847 126.22859175875783 113.93603926151991 385.26251628994942 420.99486478418112 60.640913154929876 56.551328226923943 115.0168322622776 60.817258682101965 493.04296831041574 52.614850215613842 5877.753785058856 108.60340479016304 54.573052197694778 1657.9244297891855 63.85864644125104 133.97081415355206 65.766481786966324 555.24112945795059
leaf_count=205709 14101 2738 3599 1285 2701 1328 3275 579 591 506 156 539 611 917 183 261 300 698 806 142 121 269 133 964 134 30167 218 106 7610 127 211 126 1078
internal_value=0 0.0175891 -0.00345378 0.0377038 -0.0064017 -0.0336411 0.031609 0.0660013 -0.0721157 0.0745991 -0.0868203 -0.041378 0.0481001 -0.00842423 0.0648772 -0.00870622 -0.0930106 0.0151314 -0.0103497 -0.0156051 -0.00387211 0.041271 -0.0607237 0.0417369 -0.0651479 -0.00883143 0.0555152 -0.00307768 -0.0083507 0.0244929 0.0426788 0.022805 0.0425304
internal_weight=0 14128.2 59638.1 3986.08 55652.1 3035.65 11092.5 2935.64 1696.97 2643.49 1395.95 1050.44 1991.31 53660.7 2300.71 53183.2 1319.71 1338.67 2076.21 1655.22 441.814 9016.31 697.921 8901.29 637.103 53056.9 1664.73 352.523 47179.2 896.861 8408.25 833.002 8274.28
internal_count=282289 27031 255258 7064 248194 6185 20846 4867 3785 4288 3194 2197 3530 244664 3782 243747 3038 2400 4223 3417 819 16623 1552 16354 1419 243486 2919 645 213319 1581 15390 1454 15179
is_linear=0
shrinkage=0.293014


Tree=16
num_leaves=32
num_cat=0
split_feature=1 7 7 4 4 4 5 2 2 3 3 4 3 5 5 5 5 2 5 5 3 2 5 2 5 3 2 2 2 3 5
split_gain=55.1686 40.0761 18.9875 27.9306 16.1142 14.9707 7.37953 2.55742 1.81595 2.73938 1.62037 1.21695 0.71126 0.635249 0.468323 0.365664 0.356733 0.433453 0.413207 0.315125 0.303034 0.376146 0.288148 0.281886 0.266587 0.764549 0.132076 0.099085 0.0600201 0.512105 0.0261665
threshold=1.0000000180025095e-35 1.0000000180025095e-35 1.0000000180025095e-35 1.0000000180025095e-35 1.0000000180025095e-35 1.0000000180025095e-35 1.0000000180025095e-35 1.0000000180025095e-35 1.0000000180025095e-35 1.0000000180025095e-35 1.0000000180025095e-35 1.0000000180025095e-35 1.0000000180025095e-35 inf 1.0000000180025095e-35 1.0000000180025095e-35 inf 1.0000000180025095e-35 1.0000000180025095e-35 1.0000000180025095e-35 1.0000000180025095e-35 1.0000000180025095e-35 1.0000000180025095e-35 1.0000000180025095e-35 1.0000000180025095e-35 1.0000000180025095e-35 1.0000000180025095e-35 1.0000000180025095e-35 1.0000000180025095e-35 1.0000000180025095e-35 1.0000000180025095e-35
decision_type=2 2 2 2 2 2 10 2 2 2 2 2 2 8 8 10 8 2 10 8 2 2 10 2 10 2 2 2 2 2 8
left_child=1 5 3 6 13 10 7 12 9 22 16 28 -2 23 20 26 17 18 -1 27 21 -6 -7 24 25 -3 -5 -13 29 30 -4
right_child=2 4 11 15 14 8 -8 -9 -10 -11 -12 19 -14 -15 -16 -17 -18 -19 -20 -21 -22 -23 -24 -25 -26 -27 -28 -29 -30 -31 -32
leaf_value=-0.0061731260644355352 0.054216263629569307 0.020382365433426742 0.0042001656489505318 -0.0020594514570594293 -0.0096010277823439932 0.025518230132512875 0.096791398289520256 0.020326137893177727 0.0022519409558627271 -0.036744710122556624 0.023479841820340148 0.012944652179641259 0.022207012552931449 -0.00034181115897173337 -0.025551168606456134 -0.021654799591539316 -0.0020310569212192409 0.0022637678473514528 -0.0087911517489085277 0.037041575614775391 0.0083407508869681006 -0.0004536730725468511 0.042544702624123708 0.013877219317035097 0.026780418878209086 -0.0072721348420650292 0.0057878896271924126 0.019471976257901234 0.0079304460179301407 -0.023457594299111619 6.745212153819836e-05
leaf_weight=45437.930575579405 2041.2676014304161 7455.3658634647727 1296.7263820022345 676.36301632225513 1607.8233448266983 1442.3098707124591 332.32433686777949 223.67859669029713 410.76086988300085 61.093989621847868 157.83857365697622 743.08187494426966 61.393513582646847 132.97699636220932 118.20299871638417 71.597187988460064 1665.129958987236 492.4134249612689 5841.4312451928854 57.250593014061451 110.41335003823042 507.87351685017347 90.704455465078354 589.16790114343166 543.97976982966065 86.831677749752998 253.03250177204609 273.03655853867531 211.81986043602228 61.798409968614578 146.38731852918863
leaf_count=205865 3444 14030 2767 1552 3072 2452 639 482 730 137 331 1477 150 229 258 203 7623 893 30104 139 219 924 162 1141 1089 198 491 534 449 144 361
internal_value=0 -0.00201949 0.0263591 0.0402407 0.0140109 -0.005235 0.0559476 0.050113 0.0196244 0.0241008 -0.00616494 0.0081512 0.0532817 0.0197569 -0.00757853 -0.00147737 -0.0062525 -0.00638827 -0.00647136 0.0158903 -0.00662422 -0.0074052 0.0265256 0.020065 0.0205158 0.020064 7.70258e-05 0.0146986 0.00331241 0.00266241 0.00378095
internal_weight=0 66752.2 6449.76 3659.66 11152.6 55599.6 2658.66 2326.34 2004.87 1594.11 53594.7 2790.1 2102.66 8808.32 2344.31 1000.99 53436.9 51771.8 51279.4 1073.37 2226.11 2115.7 1533.01 8675.35 8086.18 7542.2 929.396 1016.12 1716.73 1504.91 1443.11
internal_count=282289 269457 12832 6961 21160 248297 4715 4076 3481 2751 244816 5871 3594 16687 4473 2246 244485 236862 235969 2150 4215 3996 2614 16458 15317 14228 2043 2011 3721 3272 3128
is_linear=0
shrinkage=0.293014


Tree=17
num_leaves=39
num_cat=0
split_feature=1 0 4 3 2 0 4 2 4 2 3 2 4 3 6 6 4 6 6 3 6 2 2 6 2 6 6 3 6 6 6 6 3 6 6 2 6 6
split_gain=28.5632 46.3947 14.61 12.6908 11.7282 8.17675 13.2591 13.9317 6.98364 6.51514 4.22502 4.04114 4.37736 3.93364 2.30379 2.15024 2.00535 1.95081 1.64007 1.51943 1.49999 1.48548 1.29971 0.7804 0.674067 0.998445 0.941259 0.74883 0.547305 0.466335 0.232551 0.193266 0.184839 0.161245 0.0916226 0.0621998 0.0346471 0.00137416
threshold=1.0000000180025095e-35 1.0000000180025095e-35 1.0000000180025095e-35 1.0000000180025095e-35 1.0000000180025095e-35 1.0000000180025095e-35 1.0000000180025095e-35 1.0000000180025095e-35 1.0000000180025095e-35 1.0000000180025095e-35 1.0000000180025095e-35 1.0000000180025095e-35 1.0000000180025095e-35 1.0000000180025095e-35 1.0000000180025095e-35 1.0000000180025095e-35 1.0000000180025095e-35 1.0000000180025095e-35 1.0000000180025095e-35 1.0000000180025095e-35 1.0000000180025095e-35 1.0000000180025095e-35 1.0000000180025095e-35 1.0000000180025095e-35 1.0000000180025095e-35 1.0000000180025095e-35 1.0000000180025095e-35 1.0000000180025095e-35 1.0000000180025095e-35 1.0000000180025095e-35 1.0000000180025095e-35 1.0000000180025095e-35 1.0000000180025095e-35 1.0000000180025095e-35 1.0000000180025095e-35 1.0000000180025095e-35 1.0000000180025095e-35 1.0000000180025095e-35
decision_type=2 2 2 2 2 2 2 2 2 2 2 2 2 2 2 2 2 2 2 2 2 2 2 2 2 2 2 2 2 2 2 2 2 2 2 2 2 2
left_child=5 2 3 4 15 8 7 13 9 10 30 12 19 17 35 -2 31 -7 -11 34 -9 -16 32 -14 25 27 -26 -8 -12 -6 -1 -13 33 -10 -3 -4 -18 -24
right_child=1 11 14 -5 29 6 24 20 22 18 28 16 23 -15 21 -17 36 -19 -20 -21 -22 -23 37 -25 26 -27 -28 -29 -30 -31 -32 -33 -34 -35 -36 -37 -38 -39
leaf_value=-0.0040905933295581325 0.049214563811969987 -0.034877744897953318 0.024999929168536765 -0.072994156398884222 -0.021921004218600347 0.022931720343312433 -0.026967423263450935 -0.044667361917078693 0.012921832490502026 0.03645323748270831 0.031050782976089729 0.040449189391601727 -0.0091493194502789525 -0.032885655577588345 -0.0097383366435162579 0.06651522273757049 -0.0024417261967306166 0.038782851987938176 0.0078923792906160032 0.011083672476626723 -0.0072063865779690055 0.031539441731493215 -0.0019647152582414049 0.011930570988850031 0.0057488105645328476 -0.0047394885111805328 -0.021873423712643593 0.0092981914693998097 0.066734971402162224 0.0040516051005887854 -0.0029164177554369041 0.022008677930153164 -0.00098915557613876931 0.017864157349621795 -0.029689799502211831 0.017973884256453493 -0.0087443667802156923 -0.00094969279065701959
leaf_weight=27602.184995949268 1094.4030679054558 566.64371514320374 449.87873170152307 70.31647602468729 120.84112210571766 1389.7919445335865 574.7192674651742 243.76072130352259 1247.4958147630095 423.13958660140634 94.974610857665539 115.11300148069859 321.00578442588449 86.693434379994869 460.42666577547789 1413.3081391900778 191.80260387063026 1281.0637381672859 291.56684936583042 74.030620105564594 147.18169017136097 89.384454965591431 332.85439208894968 284.35060580447316 320.3436131477356 372.71923609822989 158.23588271439075 53.428713716566563 60.351998958736658 116.64481735229492 30466.968956425786 84.7006895840168 62.45765794813633 1038.631859280169 603.61229227855802 142.42722341045737 122.84976805001497 174.57582932710648
leaf_count=133700 1994 1154 951 191 276 2486 1051 476 2251 787 189 232 664 201 1070 2639 372 2149 558 175 279 185 624 621 557 692 286 105 135 275 120543 183 141 1923 1317 284 249 324
internal_value=0 0.019183 0.0385838 0.0499227 0.0530711 -0.00142876 0.0104508 0.0212019 -0.00231844 -0.00300413 -0.00334545 -0.0132949 -0.019684 0.0285408 0.0106314 0.058965 0.00967567 0.0305346 0.0248017 -0.0296265 -0.0305641 -0.00302768 0.0118321 0.000752417 -0.012429 -0.0167539 -0.00338411 -0.0238828 0.0449158 -0.00916416 -0.00347454 0.0326323 0.0147376 0.0151672 -0.0322018 0.0233104 -0.00490247 -0.00161551
internal_weight=0 6321.74 3957.63 2815.51 2745.2 66423.1 4627.94 3148.49 61795.2 58939.2 58224.5 2364.11 1849.64 2757.55 1142.12 2507.71 514.466 2670.86 714.706 1244.29 390.942 549.811 2856.02 605.356 1479.45 1000.87 478.579 628.148 155.327 237.486 58069.2 199.814 2348.59 2286.13 1170.26 592.306 314.652 507.43
internal_count=282289 12832 7865 5375 5184 269457 8282 5591 261175 255912 254567 4967 3931 4836 2490 4633 1036 4635 1345 2646 755 1255 5263 1285 2691 1848 843 1156 324 551 254243 415 4315 4174 2471 1235 621 948
is_linear=0
shrinkage=0.293014


Tree=18
num_leaves=34
num_cat=0
split_feature=7 0 4 0 4 4 4 5 3 2 2 2 3 2 2 5 2 5 3 2 3 3 2 3 5 5 5 5 3 5 5 5 3
split_gain=12.1621 49.7989 37.9057 28.7076 45.823 23.2547 22.956 11.7527 10.9101 8.17255 6.81462 4.36148 2.84117 2.60215 2.1012 1.66615 1.27304 1.32102 1.16635 1.1368 1.06705 0.839193 0.811511 1.31131 0.571613 0.543103 0.474535 0.256419 0.23047 0.228125 0.13342 0.0305601 1.47478e-05
threshold=1.0000000180025095e-35 1.0000000180025095e-35 1.0000000180025095e-35 1.0000000180025095e-35 1.0000000180025095e-35 1.0000000180025095e-35 1.0000000180025095e-35 1.0000000180025095e-35 1.0000000180025095e-35 1.0000000180025095e-35 1.0000000180025095e-35 1.0000000180025095e-35 1.0000000180025095e-35 1.0000000180025095e-35 1.0000000180025095e-35 1.0000000180025095e-35 1.0000000180025095e-35 1.0000000180025095e-35 1.0000000180025095e-35 1.0000000180025095e-35 1.0000000180025095e-35 1.0000000180025095e-35 1.0000000180025095e-35 1.0000000180025095e-35 1.0000000180025095e-35 1.0000000180025095e-35 1.0000000180025095e-35 1.0000000180025095e-35 1.0000000180025095e-35 inf 1.0000000180025095e-35 1.0000000180025095e-35 1.0000000180025095e-35
decision_type=2 2 2 2 2 2 2 8 2 2 2 2 2 2 2 10 2 10 2 2 2 2 2 2 10 10 8 8 2 8 8 10 2
left_child=3 5 8 6 7 22 19 10 9 15 12 20 -5 26 27 -3 17 -7 -16 21 25 24 23 29 30 -6 -8 32 -13 31 -1 -2 -4
right_child=1 2 14 4 11 16 13 -9 -10 -11 -12 28 -14 -15 18 -17 -18 -19 -20 -21 -22 -23 -24 -25 -26 -27 -28 -29 -30 -31 -32 -33 -34
leaf_value=-0.0043491446740259671 0.025439064757535591 -0.070385952226569376 0.019713069965461093 0.042259559358301516 -0.047308973498780667 -0.015371996282998231 0.034770247042671523 0.08983240508872177 0.040834991458319245 -0.01220723998973184 -0.010066536727164826 -0.0049201983124317686 -0.016189269723299878 0.0044668954472416918 0.0022406653257780081 -0.033784974434710693 0.0043567784463813914 0.029643247380948833 -0.042198353959721414 0.010076368732120236 -0.004768966345683248 0.020205688388102744 0.012835054511540217 -0.0094082574716598932 -0.0073460675794792497 -0.016522298880563856 0.014261445841097198 0.039220616252751687 0.015923548810147691 0.037690443125962508 -0.0016642434330293081 0.023123773985431445 0.019860124611703046
leaf_weight=44976.05209633708 7335.2280789911747 1279.9684987142682 761.76387229561806 2091.8515207991004 613.44917841255665 1604.5187740921974 1461.4918770492077 387.8473236002028 101.24895591288805 276.64801251888275 258.53615510463715 299.77521440386772 73.927193701267242 321.44546926766634 383.58233841508627 116.50277773290873 414.03443855419755 57.994544766843319 58.432174228131771 460.91001461073756 62.393282327800989 117.40617892146111 492.89264967665076 93.549443077296019 5769.3472534716129 53.485579416155815 103.73981674388051 62.291639037430286 53.703925728797913 129.35476191341877 1647.2526482492685 524.45739677175879 63.427608720958233
leaf_count=205709 14101 2738 1328 3531 1285 3275 2701 664 201 546 495 539 177 611 698 300 806 142 121 917 133 261 1009 224 30167 134 218 127 106 211 7610 1078 126
internal_value=0 0.0081239 -0.0245362 -0.00155504 0.0227524 0.0176406 -0.0032809 0.0424736 -0.0525654 -0.0582176 0.034897 -0.0284656 0.0402645 0.0284796 0.012872 -0.0673325 -0.0101812 -0.0138017 -0.00363396 -0.00441212 -0.041412 -0.00453929 0.0243777 0.0250816 -0.00459474 -0.04484 0.033411 0.0210928 -0.00175342 0.0254854 -0.00425428 0.0252846 0.0197244
internal_weight=0 13755.9 3103.87 58752.6 3894.97 10652 54857.6 2812.16 1774.37 1673.12 2424.31 1082.81 2165.78 1886.68 1329.5 1396.47 2076.55 1662.51 442.015 52971 729.328 52510.1 8575.48 8082.59 52392.7 666.935 1565.23 887.483 353.479 7989.04 46623.3 7859.69 825.191
internal_count=282289 27031 6185 255258 7064 20846 248194 4867 3785 3584 4203 2197 3708 3530 2400 3038 4223 3417 819 244664 1552 243747 16623 15614 243486 1419 2919 1581 645 15390 213319 15179 1454
is_linear=0
shrinkage=0.293014


Tree=19
num_leaves=35
num_cat=0
split_feature=1 4 5 6 2 6 4 5 6 2 3 6 2 6 5 5 3 2 5 2 6 5 3 2 5 3 2 6 5 5 2 2 2 3
split_gain=13.4663 3.39498 3.55851 1.27311 0.60078 0.505822 0.34291 2.71748 0.702803 0.957458 0.670578 0.596768 0.26633 0.263291 2.12964 1.71003 0.74469 0.982446 0.234702 0.938134 0.750373 0.230962 0.0978905 0.536812 0.0751223 0.345904 0.0435036 0.0386576 0.408149 0.227205 0.0264912 0.00939497 0.0078097 0.00293473
threshold=1.0000000180025095e-35 1.0000000180025095e-35 1.0000000180025095e-35 1.0000000180025095e-35 1.0000000180025095e-35 1.0000000180025095e-35 1.0000000180025095e-35 inf 1.0000000180025095e-35 1.0000000180025095e-35 1.0000000180025095e-35 1.0000000180025095e-35 1.0000000180025095e-35 1.0000000180025095e-35 1.0000000180025095e-35 1.0000000180025095e-35 1.0000000180025095e-35 1.0000000180025095e-35 1.0000000180025095e-35 1.0000000180025095e-35 1.0000000180025095e-35 1.0000000180025095e-35 1.0000000180025095e-35 1.0000000180025095e-35 1.0000000180025095e-35 1.0000000180025095e-35 1.0000000180025095e-35 1.0000000180025095e-35 1.0000000180025095e-35 1.0000000180025095e-35 1.0000000180025095e-35 1.0000000180025095e-35 1.0000000180025095e-35 1.0000000180025095e-35
decision_type=2 2 10 2 2 2 2 8 2 2 2 2 2 2 8 8 2 2 10 2 2 10 2 2 10 2 2 2 8 8 2 2 2 2
left_child=6 2 3 12 -5 -4 10 8 24 21 18 -12 33 15 16 22 17 -15 27 20 -20 -10 23 -3 25 31 -27 28 30 32 -1 -8 -29 -2
right_child=1 13 5 4 -6 -7 7 -9 9 -11 11 -13 -14 14 -16 -17 -18 -19 19 -21 -22 -23 -24 -25 -26 26 -28 29 -30 -31 -32 -33 -34 -35
leaf_value=-0.001147356997160523 0.01064269650258784 0.0070490492038543396 0.032669245045034122 0.021857639565297012 0.0044499050041265347 0.052445584265870267 -0.0016834441435447059 -0.063930639752754148 0.0094593809736001084 -0.007259791329695022 0.0030247936192031558 0.031066890150979454 -8.1991761944554158e-05 0.0005048255764394181 -0.052151518187421274 0.048817990990452358 -0.030098956630198279 0.024892073870062342 -0.0066110858900958053 0.032958658409941312 -0.00019573710943372673 0.028067041201449691 0.012977704043383411 -0.0084488362122069668 0.006324305903807878 0.0084765197291045858 0.018692521757361746 -0.00094895633846209606 -0.0080047813316525621 0.0034697533670955366 0.00085955735361670498 -0.0030709733318077265 -0.0022594840466961435 0.012611287016829356
leaf_weight=25038.329070538282 1446.5292478203773 664.7945818156004 215.55730133503675 1790.1973407939076 188.10406666249037 229.01191046461463 1698.6020058244467 53.769131928682327 1340.7084062770009 331.40765499323606 182.49510684609413 101.33797448128462 224.55903099477291 658.41722057759762 62.898928411304951 76.663538321852684 52.860823951661587 180.76463387161493 3016.7805743291974 61.931241869926453 3253.575006686151 59.826307486742735 84.715427421033382 269.75331890583038 122.29149907827377 90.340676531195641 59.266203753650188 27276.49599609524 757.19813710451126 1027.4356768429279 577.73112682253122 556.15302966535091 396.07596953958273 68.077763974666595
leaf_count=114951 2764 1369 478 3596 425 546 3072 107 2499 603 382 241 476 1461 179 189 126 359 17397 125 13763 123 181 532 248 188 109 104944 3858 3989 1098 1005 755 151
internal_value=0 0.013273 0.0180811 0.0151183 0.0202024 0.0428567 -0.000996167 0.00152992 0.00235642 0.00690293 -0.00117275 0.0130368 0.009335 0.00351544 -4.11939e-05 0.00661453 0.00363316 0.00575798 -0.00123843 -0.00292783 -0.00328228 0.0102542 0.00344021 0.00257565 -0.000760063 -0.00112039 0.0125236 -0.00104419 -0.00130028 -0.000808856 -0.00110209 -0.00202569 -0.000967714 0.0107312
internal_weight=0 6212.91 4162.04 3717.47 1978.3 444.569 66001.8 4312.36 4258.6 1731.94 61689.4 283.833 1739.17 2050.87 954.942 1095.93 892.043 839.182 61405.6 6332.29 6270.36 1400.53 1019.26 934.548 2526.65 2404.36 149.607 55073.3 26373.3 28700 25616.1 2254.76 27672.6 1514.61
internal_count=282289 12832 8436 7412 4021 1024 269457 7954 7847 3225 261503 623 3391 4396 2125 2271 1946 1820 260880 31285 31160 2622 2082 1901 4622 4374 297 229595 119907 109688 116049 4077 105699 2915
is_linear=0
shrinkage=0.293014


Tree=20
num_leaves=48
num_cat=0
split_feature=1 0 7 4 7 7 0 0 4 4 4 4 5 4 4 6 6 6 5 5 6 6 6 5 6 6 5 6 6 5 4 6 5 6 5 6 6 6 6 5 5 5 6 5 5 5 6
split_gain=6.8639 19.7703 38.5043 19.3544 18.8393 8.48722 56.4161 55.6108 47.0681 36.3698 20.1316 16.6919 7.49337 6.759 4.87729 3.14836 2.90686 2.68867 2.40736 1.89564 1.87367 0.925873 0.888878 1.72727 0.813533 0.726256 0.714881 0.583242 0.57069 0.494488 0.477651 0.400612 0.369704 0.712637 0.332784 0.408711 0.227446 0.226177 0.169146 0.0869987 0.0676242 0.0578682 0.0343145 0.0329503 0.00304928 0.00235882 1.68037e-05
threshold=1.0000000180025095e-35 1.0000000180025095e-35 1.0000000180025095e-35 1.0000000180025095e-35 1.0000000180025095e-35 1.0000000180025095e-35 1.0000000180025095e-35 1.0000000180025095e-35 1.0000000180025095e-35 1.0000000180025095e-35 1.0000000180025095e-35 1.0000000180025095e-35 1.0000000180025095e-35 1.0000000180025095e-35 1.0000000180025095e-35 1.0000000180025095e-35 1.0000000180025095e-35 1.0000000180025095e-35 1.0000000180025095e-35 1.0000000180025095e-35 1.0000000180025095e-35 1.0000000180025095e-35 1.0000000180025095e-35 1.0000000180025095e-35 1.0000000180025095e-35 1.0000000180025095e-35 1.0000000180025095e-35 1.0000000180025095e-35 1.0000000180025095e-35 inf 1.0000000180025095e-35 1.0000000180025095e-35 1.0000000180025095e-35 1.0000000180025095e-35 1.0000000180025095e-35 1.0000000180025095e-35 1.0000000180025095e-35 1.0000000180025095e-35 1.0000000180025095e-35 1.0000000180025095e-35 1.0000000180025095e-35 inf 1.0000000180025095e-35 1.0000000180025095e-35 1.0000000180025095e-35 1.0000000180025095e-35 1.0000000180025095e-35
decision_type=2 2 2 2 2 2 2 2 2 2 2 2 10 2 2 2 2 2 10 10 2 2 2 10 2 2 10 2 2 8 2 2 8 2 10 2 2 2 2 10 8 8 2 10 8 10 2
left_child=5 2 3 18 13 6 11 10 12 19 16 22 15 21 34 -8 29 -5 20 36 -2 -3 23 40 -15 -20 38 -12 -11 39 32 -14 33 -6 35 -4 -9 -10 -13 -7 -1 45 -16 44 -18 -24 -32
right_child=1 4 14 17 30 7 8 9 37 28 27 26 31 24 42 -17 43 -19 25 -21 -22 -23 41 -25 -26 -27 -28 -29 -30 -31 46 -33 -34 -35 -36 -37 -38 -39 -40 -41 -42 -43 -44 -45 -46 -47 -48
leaf_value=-0.005633409813277708 0.046682423510286196 -0.042965778522428236 -0.017065868844735422 0.020971879480477771 0.013410994719950452 0.029501553733654016 0.043393776082878956 -0.070604831596865689 -0.024333942883219804 0.0034820053079475249 -0.0095573267257098547 0.023681044936898113 0.12092037653742034 -0.019955488514497015 0.0069260311319116422 0.06841027631174533 0.01691645286609126 -0.020505656715618745 0.11082751896913656 -0.028998637531899539 0.068047810414780585 -0.063214569726602277 -0.0040724966824533413 -0.013487044737242063 0.0048363155184911449 0.076092514300905675 0.058584528465431898 -0.021359834862552128 0.019558662783721693 0.00098131404050397892 0.0085353309478273798 0.09635700070157914 0.0013652145620425074 0.033638165532109215 -0.043145656701993503 -0.029464290730701229 -0.079230371186835721 -0.035585784542205207 0.030537818344261277 0.023868269243465679 -0.0026633801348153428 -0.0017015417653683188 0.01143402946205656 0.020590062245162803 0.014874107976544124 -0.0037939334897143765 0.0084225446202154126
leaf_weight=20833.403748769313 600.80576335638762 383.64723028615117 461.64223075658083 258.60479376837611 311.9487265124917 3433.3330725878477 879.1329442486167 625.52989207953215 398.70175569504499 561.36640316992998 912.63460421562195 662.27913101762533 143.26886930316687 240.557841937989 315.8365554176271 849.08467976376414 3388.461345706135 278.87949537113309 100.68585601449013 85.916271902620792 852.38295572251081 391.95363895222545 23081.381319176406 2635.5273127108812 215.39399247989058 106.18419493362308 64.216714531183243 593.09785567969084 286.24202819168568 54.429379776120186 274.79639253392816 94.678938914090395 75.617946743965149 287.25182714313269 77.921701602637768 451.57060059905052 452.22194546461105 249.28293232619762 578.86912863701582 252.70191665738821 679.66998642683029 940.60003523901105 267.97680178657174 218.36646730080247 63.949127644300461 2942.6327908635139 193.11867406964302
leaf_count=107116 1033 816 1062 573 582 6505 1486 1287 730 983 1785 1132 199 507 662 1290 6560 689 174 211 1532 935 97102 16746 477 225 112 1210 495 94 529 141 185 543 221 1128 977 483 1024 494 3721 3851 566 452 107 13164 393
internal_value=0 0.00953363 0.0227169 0.0477776 -0.0114132 -0.00070394 -0.00218507 0.00675474 0.0398253 -0.0372566 0.0166818 -0.00428015 0.0623966 -0.0365552 -0.0122505 0.0556845 0.0229573 -0.000549186 0.0634245 -0.070885 0.0592145 -0.0531986 -0.00511575 -0.00640695 -0.00824371 0.0929984 0.0284388 -0.0142063 0.00891118 0.028706 0.0156829 0.111147 0.0206713 0.0231077 -0.0247651 -0.0231967 -0.0742241 -0.0286626 0.026879 0.0291154 -0.00553958 -0.00395939 0.00899525 0.0170994 0.0168786 -0.004041 0.00848878
internal_weight=0 6146.78 3772.49 2197.54 2374.29 65961 55032.7 10928.3 2614.15 2011.28 8916.97 52418.6 1966.17 1231.55 1574.95 1728.22 7411.24 537.484 1660.06 1163.67 1453.19 775.601 51113.2 24148.6 455.952 206.87 1305.36 1505.73 847.608 3740.46 1142.73 237.948 674.819 599.201 991.135 913.213 1077.75 647.985 1241.15 3686.03 21513.1 26964.6 583.813 3670.78 3452.41 26024 467.915
internal_count=282289 12832 7865 4226 4967 269457 248297 21160 4329 3953 17207 243968 3116 2735 3639 2776 14212 1262 2964 2475 2565 1751 241700 127583 984 399 2268 2995 1478 7093 2232 340 1310 1125 2411 2190 2264 1213 2156 6999 110837 114117 1228 7119 6667 110266 922
is_linear=0
shrinkage=0.293014


Tree=21
num_leaves=45
num_cat=0
split_feature=7 0 4 0 4 4 2 4 2 5 6 2 6 2 5 2 6 6 2 6 6 2 6 6 6 5 5 6 6 5 5 6 6 6 2 5 6 2 6 5 2 5 5 5
split_gain=2.67974 12.852 8.92872 6.70057 11.6626 6.25201 5.81257 5.57076 5.4862 4.81438 2.8646 2.10746 1.31893 1.2201 1.0442 0.990397 0.940906 0.90132 0.875427 0.822225 0.792242 0.748006 0.686905 0.68443 0.679836 0.620947 0.573964 0.520673 0.415971 0.327991 0.26466 0.179048 0.159068 0.0782297 0.0651427 0.149925 0.025826 0.0170435 0.0166296 0.00805027 0.148968 0.00214795 1.30041e-06 1.2291e-08
threshold=1.0000000180025095e-35 1.0000000180025095e-35 1.0000000180025095e-35 1.0000000180025095e-35 1.0000000180025095e-35 1.0000000180025095e-35 1.0000000180025095e-35 1.0000000180025095e-35 1.0000000180025095e-35 1.0000000180025095e-35 1.0000000180025095e-35 1.0000000180025095e-35 1.0000000180025095e-35 1.0000000180025095e-35 1.0000000180025095e-35 1.0000000180025095e-35 1.0000000180025095e-35 1.0000000180025095e-35 1.0000000180025095e-35 1.0000000180025095e-35 1.0000000180025095e-35 1.0000000180025095e-35 1.0000000180025095e-35 1.0000000180025095e-35 1.0000000180025095e-35 1.0000000180025095e-35 1.0000000180025095e-35 1.0000000180025095e-35 1.0000000180025095e-35 1.0000000180025095e-35 1.0000000180025095e-35 1.0000000180025095e-35 1.0000000180025095e-35 1.0000000180025095e-35 1.0000000180025095e-35 1.0000000180025095e-35 1.0000000180025095e-35 1.0000000180025095e-35 1.0000000180025095e-35 1.0000000180025095e-35 1.0000000180025095e-35 1.0000000180025095e-35 1.0000000180025095e-35 1.0000000180025095e-35
decision_type=2 2 2 2 2 2 2 2 2 8 2 2 2 2 10 2 2 2 2 2 2 2 2 2 2 10 10 2 2 10 8 2 2 2 2 8 2 2 2 8 2 10 8 10
left_child=3 5 6 7 8 12 14 20 9 36 -8 19 25 17 32 28 -11 -9 30 -6 29 26 -13 -15 -10 34 38 -16 -4 39 -14 -23 -3 -17 35 -2 -5 41 -7 40 -1 42 -22 -32
right_child=1 2 15 4 11 21 10 13 24 16 -12 22 18 23 27 33 -18 -19 -20 -21 37 31 -24 -25 -26 -27 -28 -29 -30 -31 43 -33 -34 -35 -36 -37 -38 -39 -40 -41 -42 -43 -44 -45
leaf_value=-0.0030328444213103931 0.017225344784993948 -0.031968572530489209 0.0069621401435857018 0.019916618098848999 -0.031192741379959418 -0.0099744802170933476 -0.010154132905476078 0.025136312907199202 -0.0048233913781721991 0.04476496531724531 0.048036753163107217 0.01475357062230424 0.0090031741639331319 -0.012997341697738257 0.0090256420652951273 -0.0023446340124721873 0.076618043284825105 0.010772752306552291 -0.010560614544602711 -0.011764541367124119 -0.0010641987309047835 0.010017672761874185 -0.01155163026237885 0.014978104440565734 -0.033741477519352574 0.0030062930948849451 0.020920497877698289 -0.027660846007329407 0.020182146233647724 -0.0063410734512943951 0.017825305794348746 -0.0029063692311501721 -0.038144957647264013 -0.010666328492147385 0.012785832154254015 0.032074468149977498 0.021966234209437028 0.0016244436483569386 -0.0080865874789238078 -0.0019362429287295682 0.0045958145547707295 -0.00080296699000029117 -0.0010752201568669474 0.017820857288842459
leaf_weight=21111.511662237346 3542.8972106054425 790.26835787296295 536.84637354686856 1054.8822052851319 430.95484618097544 921.81680592894554 197.11271044611931 744.65893071144819 169.3059014081955 172.16979083046317 115.01217664778233 218.4846170283854 3617.1045415401459 193.28417133912444 72.781802341341972 296.22339851036668 148.1145540419966 755.76558219641447 191.72808736562729 330.42199769616127 23627.768721483648 277.62216842547059 139.74150920286775 122.7809606641531 118.75526987761259 286.67553280666471 56.36683190241456 61.096295163035393 329.94343639537692 2704.0122928284109 67.777534887194633 137.67459449917078 654.50843964144588 144.20476475730538 274.31273189932108 59.355676561594009 1056.4038407839835 208.30668284371495 708.47490150481462 689.60602074861526 222.08379989117384 3024.9644983559847 956.33990607410669 250.08623244985938
leaf_count=107691 6998 1535 968 1866 852 1830 376 1388 332 303 215 385 7287 374 171 544 277 1531 410 700 98198 534 260 237 247 603 142 158 613 16920 115 272 1330 275 564 99 1842 431 1445 3742 437 13361 3884 547
internal_value=0 0.00386808 -0.0123752 -0.000701712 0.0111288 0.00886677 -0.0252487 -0.00153724 0.0214907 0.0260204 0.0112881 -0.0140414 0.0124858 0.014416 -0.0324726 0.00624524 0.0594953 0.0179014 0.0087735 -0.0227613 -0.00208875 -0.00540619 0.0044921 -0.0021298 -0.0167451 0.0161654 -0.00814899 -0.00771652 0.0119943 -0.00329551 0.00971554 0.00573324 -0.0347666 -0.00506932 0.0171386 0.01747 0.0209422 -0.00101604 -0.00915406 -0.00292158 -0.00295343 -0.00103596 -0.00106463 0.0178218
internal_weight=0 13589.9 3198 58200.3 3839.23 10391.9 1890.78 54361.1 2719.63 2431.57 312.125 1119.6 8289.94 1816.49 1578.65 1307.22 320.284 1500.42 4126.7 761.377 52544.6 2101.96 358.226 316.065 288.061 4163.24 1686.66 133.878 866.79 24727.2 3934.97 415.297 1444.78 440.428 3876.57 3602.25 2111.29 27817.4 1630.29 22023.2 21333.6 27609.1 24584.1 317.864
internal_count=282289 27031 6185 255258 7064 20846 3785 248194 4867 4288 591 2197 16623 3530 3194 2400 580 2919 8359 1552 244664 4223 645 611 579 8264 3417 329 1581 128790 7949 806 2865 819 7661 7097 3708 115874 3275 111870 108128 115443 102082 662
is_linear=0
shrinkage=0.293014


Tree=22
num_leaves=37
num_cat=0
split_feature=1 7 4 3 7 4 4 4 6 2 6 6 3 2 6 6 2 3 2 6 2 6 6 2 2 6 6 2 3 6 2 2 6 6 3 2
split_gain=3.26687 2.26341 3.60274 3.18564 2.26142 1.7728 1.05943 0.690478 0.560751 0.547663 0.574272 0.325314 0.308336 0.216647 0.228595 0.177705 0.142965 0.133412 0.251614 0.275033 0.0690403 0.0675696 0.0387772 0.144283 0.0872524 0.0369708 0.0279932 0.0211609 0.0577743 0.0163728 0.00648021 0.00579541 0.009257 0.00115966 0.000238803 4.40177e-05
