tree
version=v3
num_class=1
num_tree_per_iteration=1
label_index=0
max_feature_idx=7
objective=binary sigmoid:1
feature_names=Cough Fever Sore_throat Shortness_of_breath Headache Age_60+ Male Contact_with_confirmed
feature_infos=[0:1] [0:1] [0:1] [0:1] [0:1] [0:1] [0:1] [0:1]
tree_sizes=6669 6474 5204 4273 3393 4343 4469

Tree=0
num_leaves=62
num_cat=0
split_feature=7 4 0 1 2 6 5 5 5 5 5 4 2 5 6 0 5 0 1 2 6 2 2 5 6 1 5 1 1 5 2 2 6 0 2 6 1 2 6 2 4 6 0 1 0 2 1 2 2 6 6 0 1 1 6 6 1 2 6 1 1
split_gain=129053 46248.8 30703.3 15025.3 5889.42 250.822 59.2297 34.7034 32.1714 17.0618 5.52479 5.02965 3.49145 2.1825 1.23078 1.21855 1.18787 1.0194 0.963788 0.982919 0.690791 1.63587 0.744361 0.497138 0.456569 0.930658 0.407135 0.365844 0.291293 0.323797 0.290338 0.222114 0.221148 0.220928 0.20193 1.51483 0.192842 0.642958 0.72216 0.277857 0.150106 0.0957693 0.166763 0.146907 0.116278 0.114378 0.632619 0.100084 0.0878357 0.0867721 0.0857171 0.0674205 0.0539327 0.0530178 0.0462372 0.044008 0.0342382 0.0274011 0.355617 0.653171 0.302405
threshold=1.0000000180025095e-35 1.0000000180025095e-35 1.0000000180025095e-35 1.0000000180025095e-35 1.0000000180025095e-35 1.0000000180025095e-35 1.0000000180025095e-35 1.0000000180025095e-35 inf 1.0000000180025095e-35 1.0000000180025095e-35 1.0000000180025095e-35 1.0000000180025095e-35 1.0000000180025095e-35 1.0000000180025095e-35 1.0000000180025095e-35 1.0000000180025095e-35 1.0000000180025095e-35 1.0000000180025095e-35 1.0000000180025095e-35 1.0000000180025095e-35 1.0000000180025095e-35 1.0000000180025095e-35 1.0000000180025095e-35 1.0000000180025095e-35 1.0000000180025095e-35 1.0000000180025095e-35 1.0000000180025095e-35 1.0000000180025095e-35 1.0000000180025095e-35 1.0000000180025095e-35 1.0000000180025095e-35 1.0000000180025095e-35 1.0000000180025095e-35 1.0000000180025095e-35 1.0000000180025095e-35 1.0000000180025095e-35 1.0000000180025095e-35 1.0000000180025095e-35 1.0000000180025095e-35 1.0000000180025095e-35 1.0000000180025095e-35 1.0000000180025095e-35 1.0000000180025095e-35 1.0000000180025095e-35 1.0000000180025095e-35 1.0000000180025095e-35 1.0000000180025095e-35 1.0000000180025095e-35 1.0000000180025095e-35 1.0000000180025095e-35 1.0000000180025095e-35 1.0000000180025095e-35 1.0000000180025095e-35 1.0000000180025095e-35 1.0000000180025095e-35 1.0000000180025095e-35 1.0000000180025095e-35 1.0000000180025095e-35 1.0000000180025095e-35 1.0000000180025095e-35
decision_type=2 2 2 2 2 2 8 8 8 10 8 2 2 10 2 2 8 2 2 2 2 2 2 8 2 2 8 2 2 10 2 2 2 2 2 2 2 2 2 2 2 2 2 2 2 2 2 2 2 2 2 2 2 2 2 2 2 2 2 2 2
left_child=1 2 3 4 5 6 -1 11 13 -8 12 17 24 -7 23 18 41 36 20 -20 21 -13 -22 48 27 -26 31 -4 29 -9 33 -16 -30 -31 -19 53 39 38 -38 54 49 43 -43 44 47 52 -47 -3 -5 -35 -6 -45 -44 -36 -2 -41 -12 -17 59 -59 -60
right_child=7 16 10 14 50 8 9 28 -10 -11 56 15 -14 -15 26 57 -18 34 19 -21 22 -23 -24 -25 25 -27 -28 -29 32 30 -32 -33 -34 40 35 -37 37 -39 -40 55 -42 42 45 51 -46 46 -48 -49 -50 -51 -52 -53 -54 -55 -56 -57 -58 58 60 -61 -62
leaf_value=-1.013636970951302 1.4551235763102437 1.5690472711430188 1.4645605839128628 1.5093613408094404 1.5771960434334 -0.90545115754569727 -0.80162548499675756 1.6126058487461574 -0.76224270521043069 -0.93460109150467807 1.5581387048119475 1.5038414461976195 1.5409486886324215 -0.88167514620792309 1.5578580374564668 1.4977822026449268 1.6185891106752894 1.4737091669418709 1.4347694579009804 1.5133549893899911 1.4587626697855423 1.4427458016449759 1.5152522014306453 1.5762067636204768 1.4627619480343612 1.5083408386302495 1.609641185798921 1.4343723506109389 1.6156383540620887 1.5637075415565256 1.5322439618219441 1.6010036534911254 1.571986652173843 1.5832093826260591 1.4272270935168401 1.5065378105524767 1.4391670908133001 1.515397014099926 1.4779791488443772 1.434520827674258 1.5584631736251258 1.5858284016811737 1.5822720623761981 1.5557311192128991 1.5841874149675013 1.521485729077936 1.6017817539072572 1.5866029523075291 1.5359411556505345 1.6084947334593402 1.558064796522413 1.571275173399423 1.5676583006285356 1.401548700640735 1.458060732258508 1.4478896763676341 1.5712392814073175 1.5091156477002032 1.5069174103652296 1.4488874910501099 1.5623481326885236
leaf_weight=28415.787411928177 7218.4337558746338 1147.9537532329559 1100.7223989963531 475.55262494087219 337.94553470611572 30321.435227870941 816.6035327911377 115.57691359519958 1144.885181427002 3473.9176886081696 450.25233054161072 1603.8856716156006 519.93841981887817 2898.4413638114929 804.73810076713562 1710.1673202514648 514.70853757858276 3481.9301998615265 588.57421469688416 133.86714911460876 1043.0614569187164 369.49079966545105 188.76803231239319 104.29170751571655 918.7295138835907 461.01238942146301 144.15738463401794 366.73074078559875 186.52809119224548 1063.2123401165009 147.65738463401794 91.006501436233521 138.63726687431335 274.51950430870056 282.75441598892212 249.93400382995605 619.65971517562866 159.43756127357483 699.14609885215759 426.89168286323547 119.33194303512573 1685.2276735305786 542.01889085769653 356.49079966545105 973.98098587989807 148.15738463401794 123.09703135490417 276.02453374862671 103.78667807579041 140.64732575416565 305.59997534751892 412.40174174308777 254.20915102958679 68.431059837341309 7476.6479363441467 278.99938654899597 196.29820895195007 435.19197726249695 183.75294399261475 172.21270847320557 106.5467369556427
leaf_count=94766 5612 757 845 343 220 97723 2544 71 3520 11301 302 1166 358 9270 540 1254 313 2640 470 96 807 292 135 68 707 333 89 293 114 707 103 57 91 177 228 181 492 114 527 341 80 1082 350 240 627 105 77 177 72 87 205 271 168 57 5790 219 129 314 133 135 71
internal_value=0 -0.547626 -0.734042 -0.862714 -0.924146 -0.94806 -0.999949 1.47379 -0.898675 -0.909292 1.49203 1.4658 1.47857 -0.903377 1.55088 1.48585 1.58045 1.45955 1.47664 1.44933 1.4828 1.4924 1.46742 1.52359 1.46718 1.47799 1.56881 1.45702 1.57417 1.57017 1.56736 1.56224 1.59703 1.57061 1.47129 1.45728 1.45671 1.46575 1.45974 1.45585 1.58434 1.57713 1.5807 1.57402 1.57722 1.57261 1.55792 1.57245 1.51412 1.59178 1.56811 1.56407 1.57761 1.42222 1.45662 1.4398 1.56212 1.49973 1.50343 1.49204 1.52726
internal_weight=0 79886.1 73451.8 69438.1 67714.6 67071.1 32706.3 29683.9 34364.8 4290.52 4013.68 27497.8 3367.13 33219.9 1723.53 6535.52 6434.27 20962.3 3927.65 722.441 3205.21 1973.38 1231.83 683.631 2847.2 1379.74 1039.9 1467.45 2186.11 1860.95 1745.37 895.745 325.165 1597.71 4083.05 601.119 16879.2 1478.24 1318.81 15401 534.499 5919.56 2752.71 3166.85 2397.96 1067.48 271.254 1423.98 579.339 415.167 643.546 768.893 796.228 351.185 14695.1 705.891 646.551 2607.87 897.704 607.405 290.3
internal_count=250356 227852 223685 220718 219549 219124 108611 22504 110513 13845 2967 21074 2536 106993 1169 4873 4167 16201 2966 566 2400 1458 942 483 2178 1040 686 1138 1430 1225 1154 597 205 1051 3106 466 13095 1133 1019 11962 344 3854 1782 2072 1561 700 182 934 415 264 425 511 518 285 11402 560 431 1907 653 449 204
is_linear=0
shrinkage=0.82779


Tree=1
num_leaves=59
num_cat=0
split_feature=7 4 1 3 2 6 5 5 4 5 5 5 6 3 5 2 6 5 6 2 5 1 6 2 2 2 3 1 1 5 2 2 6 6 6 1 2 6 3 1 2 2 4 1 6 3 6 2 2 1 2 3 1 6 6 6 6 1
split_gain=14921.7 5706.07 2519.25 1546.79 1030.64 46.4782 37.2662 11.3688 4.93688 3.44982 2.75547 2.65585 2.51735 1.58584 1.5786 1.45346 1.18149 1.04853 0.68083 1.9734 0.678828 0.510659 1.03745 0.515153 0.48578 0.47026 0.53657 0.378704 0.376065 0.420961 0.351587 0.296724 0.295243 0.197748 0.133621 0.133488 0.125858 0.123127 0.305515 0.211391 0.142799 0.123367 0.105199 0.102966 0.0997032 0.0923807 0.0808324 0.0589786 0.0348622 0.0263236 0.0239532 0.0138056 0.0125138 0.0124619 0.00803108 0.00424248 0.0037664 0.00124988
threshold=1.0000000180025095e-35 1.0000000180025095e-35 1.0000000180025095e-35 1.0000000180025095e-35 1.0000000180025095e-35 1.0000000180025095e-35 1.0000000180025095e-35 1.0000000180025095e-35 1.0000000180025095e-35 1.0000000180025095e-35 1.0000000180025095e-35 1.0000000180025095e-35 1.0000000180025095e-35 1.0000000180025095e-35 1.0000000180025095e-35 1.0000000180025095e-35 1.0000000180025095e-35 1.0000000180025095e-35 1.0000000180025095e-35 1.0000000180025095e-35 1.0000000180025095e-35 1.0000000180025095e-35 1.0000000180025095e-35 1.0000000180025095e-35 1.0000000180025095e-35 1.0000000180025095e-35 1.0000000180025095e-35 1.0000000180025095e-35 1.0000000180025095e-35 1.0000000180025095e-35 1.0000000180025095e-35 1.0000000180025095e-35 1.0000000180025095e-35 1.0000000180025095e-35 1.0000000180025095e-35 1.0000000180025095e-35 1.0000000180025095e-35 1.0000000180025095e-35 1.0000000180025095e-35 1.0000000180025095e-35 1.0000000180025095e-35 1.0000000180025095e-35 1.0000000180025095e-35 1.0000000180025095e-35 1.0000000180025095e-35 1.0000000180025095e-35 1.0000000180025095e-35 1.0000000180025095e-35 1.0000000180025095e-35 1.0000000180025095e-35 1.0000000180025095e-35 1.0000000180025095e-35 1.0000000180025095e-35 1.0000000180025095e-35 1.0000000180025095e-35 1.0000000180025095e-35 1.0000000180025095e-35 1.0000000180025095e-35
decision_type=2 2 2 2 2 2 8 8 2 8 10 8 2 2 8 2 2 10 2 2 8 2 2 2 2 2 2 2 2 10 2 2 2 2 2 2 2 2 2 2 2 2 2 2 2 2 2 2 2 2 2 2 2 2 2 2 2 2
left_child=1 2 3 4 5 7 8 -1 13 -7 -9 12 15 21 37 -4 -5 -11 25 27 55 24 23 -23 54 26 43 -20 29 -8 42 -24 -30 -15 -26 -21 -14 38 39 48 45 -41 56 -10 -44 52 -13 -40 -3 -42 53 57 -39 -16 -2 -6 -31 -27
right_child=6 14 11 16 20 9 28 10 18 17 -12 46 36 33 50 -17 -18 -19 19 35 -22 22 31 -25 34 51 -28 -29 32 30 -32 -33 -34 -35 -36 -37 -38 40 47 41 49 -43 44 -45 -46 -47 -48 -49 -50 -51 -52 -53 -54 -55 -56 -57 -58 -59
leaf_value=-0.28485430207694851 0.69745539574771931 0.85563176961957033 0.72171965897752377 1.8770442306518402 0.82921906041820159 -0.23329562996934533 0.91530812662778693 -0.18845097403371996 0.75481579160468482 -0.18280354986487576 -0.24612899117978343 0.85620426839913466 0.80635846326660376 0.78950115977564672 0.93350174444118927 0.8293792547010217 1.9980772324936626 -0.21460257760762216 0.71218586837095132 0.76661992933515211 0.92437349080806941 0.68176606049480371 0.72991036180470503 0.74757196253958635 0.66657837026811539 0.72204877468965578 0.6786473902688045 0.67704989819604844 0.92013230737368201 0.85321125524589803 0.79558857660712912 0.78341786120813439 0.8528802321609037 0.73694162741005287 0.69002161979326293 0.80375048427881468 0.83945909952162956 0.86981240252584147 0.87866418073745711 0.84440071239124681 0.84275101629404481 0.81017933358019567 0.81523182842337327 0.73823963516792934 0.8599219708532454 0.90363794090326088 0.8859988212151001 0.91367693680455464 0.86581153319874449 0.85970547182183199 0.91029836049403245 0.73444037562271802 0.86390125885866276 0.92065313164848905 0.69890168342501968 0.8246027460189741 0.85692672759784372 0.71911129199868551
leaf_weight=22794.924635857344 5213.4592520594597 974.01279012858868 509.97272518277168 129.80492334067822 293.34443782269955 25355.683390408754 64.073842078447342 705.34583938121796 1399.2563003748655 996.97826313972473 2905.5389140248299 115.65085795521736 736.12207166850567 136.63762086629868 141.89627796411514 103.34120292961597 96.243778243660927 2473.2270073890686 923.02949778735638 220.66980807483196 53.967290356755257 594.29718652367592 620.1908515393734 94.475404888391495 428.89226979017258 449.09051644802094 71.630927130579948 272.18704508244991 103.19869954884052 428.92943996191025 86.291294068098068 80.200843781232834 78.952415347099304 76.52151919901371 272.4219663888216 94.870845973491669 88.138077720999718 894.67018489539623 75.437389567494392 295.56755268573761 175.7512514591217 95.510034531354904 97.763388514518738 314.49600405991077 52.619699403643608 52.527134269475937 135.4988671541214 58.557778865098953 302.00298191606998 97.596679508686066 60.910895645618439 61.567440509796143 338.16610679030418 81.399509936571121 5311.0505991131067 255.00436289608479 331.40231828391552 127.417839884758
leaf_count=95532 6594 1121 636 123 344 98366 71 2551 1711 3524 11423 133 873 160 155 120 87 9360 1158 268 58 760 768 115 552 560 93 350 114 494 103 96 91 94 348 113 103 1021 85 342 203 114 116 385 60 58 153 64 346 113 68 76 387 90 6714 299 381 159
internal_value=0 -0.139033 -0.202427 -0.232435 -0.241184 -0.252929 0.717952 -0.278018 0.707696 -0.229945 -0.234862 0.793739 0.780018 0.699829 0.86561 0.73986 1.92858 -0.205467 0.733349 0.719556 0.83579 0.698632 0.713604 0.690792 0.69678 0.741946 0.74884 0.704184 0.856234 0.850269 0.846089 0.736037 0.890982 0.770633 0.675685 0.777784 0.809898 0.860599 0.855937 0.852881 0.865986 0.836043 0.850874 0.751774 0.830869 0.86964 0.872279 0.893965 0.858041 0.848804 0.924849 0.722658 0.868191 0.928818 0.698185 0.827072 0.854831 0.7214
internal_weight=0 61392.8 57748.8 56060.1 55834 55231.7 18005.6 26405.8 16762.4 28825.9 3610.88 1688.72 1437.57 12828.1 3644.01 613.314 226.049 3470.21 3934.22 1510.76 602.316 12615 1389.16 688.773 11225.8 2423.46 1785.38 1195.22 1243.23 1061.08 997.006 700.392 182.151 213.159 701.314 315.541 824.26 3359.8 1801.09 1667.09 1558.71 391.078 910.715 1713.75 150.383 1285.36 251.15 133.995 1276.02 273.348 284.207 638.076 1232.84 223.296 10524.5 548.349 760.332 576.508
internal_count=250356 227852 223685 221667 221457 220756 22504 109506 21074 111250 13974 2018 1732 16201 4167 756 210 12884 4873 1889 701 15947 1739 875 14208 2984 2189 1508 1430 1225 1154 864 205 254 900 381 976 3854 2072 1923 1782 456 1051 2096 176 1466 286 149 1467 316 313 795 1408 245 13308 643 875 719
is_linear=0
shrinkage=0.82779


Tree=2
num_leaves=47
num_cat=0
split_feature=0 7 1 2 3 7 1 5 2 5 6 2 5 6 5 5 5 5 6 5 3 1 1 6 2 2 6 1 6 6 6 5 6 2 2 6 6 1 2 6 2 6 6 6 2 6
split_gain=2519.71 2214.74 517.546 250.428 210.849 119.547 38.4507 26.3235 15.3455 15.096 12.2894 3.92063 3.71514 2.17697 1.63308 1.52523 1.09249 0.871182 0.834389 0.811918 0.664169 1.29041 0.419568 0.608157 1.85476 1.32189 0.357784 0.205707 0.198844 0.197956 0.140567 0.107247 0.101927 0.0557592 0.0514165 0.050647 0.0312509 0.0287146 1.87271 0.698971 0.238177 0.711354 0.205029 0.0267221 0.00708343 0.00135621
threshold=1.0000000180025095e-35 1.0000000180025095e-35 1.0000000180025095e-35 1.0000000180025095e-35 1.0000000180025095e-35 1.0000000180025095e-35 1.0000000180025095e-35 1.0000000180025095e-35 1.0000000180025095e-35 1.0000000180025095e-35 1.0000000180025095e-35 1.0000000180025095e-35 1.0000000180025095e-35 1.0000000180025095e-35 inf 1.0000000180025095e-35 1.0000000180025095e-35 1.0000000180025095e-35 1.0000000180025095e-35 1.0000000180025095e-35 1.0000000180025095e-35 1.0000000180025095e-35 1.0000000180025095e-35 1.0000000180025095e-35 1.0000000180025095e-35 1.0000000180025095e-35 1.0000000180025095e-35 1.0000000180025095e-35 1.0000000180025095e-35 1.0000000180025095e-35 1.0000000180025095e-35 1.0000000180025095e-35 1.0000000180025095e-35 1.0000000180025095e-35 1.0000000180025095e-35 1.0000000180025095e-35 1.0000000180025095e-35 1.0000000180025095e-35 1.0000000180025095e-35 1.0000000180025095e-35 1.0000000180025095e-35 1.0000000180025095e-35 1.0000000180025095e-35 1.0000000180025095e-35 1.0000000180025095e-35 1.0000000180025095e-35
decision_type=2 2 2 2 2 2 2 8 2 8 2 2 8 2 8 8 10 8 2 8 2 2 2 2 2 2 2 2 2 2 2 10 2 2 2 2 2 2 2 2 2 2 2 2 2 2
left_child=1 2 3 4 10 6 8 37 12 20 14 15 28 34 31 18 19 -15 -8 -12 22 -22 32 24 -24 -25 -6 29 -2 -11 -10 -1 44 -34 -4 -5 -14 40 39 -39 42 -42 -3 -9 -7 -13
right_child=5 7 13 35 26 9 11 43 30 27 16 45 36 17 -16 -17 -18 -19 -20 -21 21 -23 23 25 -26 -27 -28 -29 -30 -31 -32 -33 33 -35 -36 -37 -38 38 -40 -41 41 -43 -44 -45 -46 -47
leaf_value=-0.095358032267810741 0.77096421843769314 0.40080320524471896 0.55173126158144647 0.65601260323197885 0.98020295796005075 0.43619060869678106 0.43584615417639977 0.61634844572533931 0.58470894213912206 0.62382934862570272 -0.067671336669007903 0.64995712218589907 0.85766634726233226 0.62154745769588904 -0.053773512611275991 0.60774869801478881 -0.086071676255943252 0.73971526276806265 0.50765082472011469 -0.042647668252135382 0.54825966960901606 0.38011764622555316 0.47045094894435296 0.45505719540017003 0.31808113183960202 0.60786828610574972 0.89486791491309747 0.70442355163501347 0.75305290610258968 0.67861952435910666 0.54631078269706823 -0.10111909810798617 0.41906611649941677 0.43857838405970662 0.52492040601039724 0.63528018733734937 0.87527695387981019 0.34829392043195123 0.49611051794987254 0.4003376395772919 0.35281691288994627 0.4199317729719354 0.39143448156555877 0.60286891914634866 0.43105720295184397 0.64472145449704987
leaf_weight=19443.431745059788 941.69997148960829 3241.3611600995064 293.36244206875563 186.3993289321661 79.62170035392046 765.43351694941521 217.51699385046959 224.00317724794149 175.71711555682123 124.95952390134335 22557.596224084496 75.45562581717968 168.22104498744011 405.52984300255775 645.62613332271576 65.527739033102989 2176.6007156968117 47.789443373680115 226.22464510053396 924.91478353738785 96.587808899581432 46.253881774842739 211.30184477567673 178.03876101225615 73.88489431142807 49.596489638090134 58.332130402326584 47.391917429864407 773.62914075888693 70.780282132327557 103.99074217304587 2498.7757352292538 626.51646213233471 119.49633044749498 58.845962755382061 142.44053955376148 117.12319640256464 348.56647673249245 99.264537654817104 358.91529059410095 301.82117193937302 168.70180906355381 3162.2032677680254 183.19469410926104 242.56245467811823 61.560325019061565
leaf_count=95463 1265 6778 621 407 86 1598 471 495 399 272 98379 162 213 874 2545 149 9286 105 501 3526 194 101 430 367 160 103 64 105 1057 152 231 11333 1306 254 131 307 142 735 210 754 633 354 6597 406 500 135
internal_value=0 0.00356752 -0.0620284 -0.0729108 -0.0778037 0.586172 0.701533 0.405181 0.752044 0.458901 -0.0807257 0.523304 0.777435 0.596073 -0.0948067 0.489862 -0.0683302 0.634005 0.472453 -0.0666857 0.439066 0.493813 0.435616 0.456444 0.430976 0.488351 0.94412 0.655489 0.762886 0.643642 0.570433 -0.0960141 0.429527 0.422192 0.547252 0.647032 0.864895 0.394308 0.389636 0.374696 0.394856 0.37688 0.396177 0.610284 0.434955 0.647605
internal_weight=0 57607.3 49519.3 48713.7 48384.9 5579.47 2926.67 8088.03 2280.38 2652.8 48246.9 646.285 2000.67 805.528 22587.8 509.269 25659.1 453.319 443.742 23482.5 2409.67 142.842 2266.83 512.822 285.187 227.635 137.954 243.132 1715.33 195.74 279.708 21942.2 1754.01 746.013 352.208 328.84 285.344 7680.83 806.746 707.482 6874.09 470.523 6403.56 407.198 1008 137.016
internal_count=250356 240089 223127 221396 220682 10267 4725 16962 3307 5542 220532 1418 2677 1731 109341 1121 111191 979 972 101905 5013 295 4718 1060 590 470 150 529 2322 424 630 106796 3658 1560 752 714 355 16061 1699 1489 14362 987 13375 901 2098 297
is_linear=0
shrinkage=0.82779


Tree=3
num_leaves=38
num_cat=0
split_feature=4 7 7 1 3 2 5 2 1 5 5 6 6 2 5 3 3 5 1 6 1 2 6 6 2 1 1 6 2 1 6 6 5 6 5 6 1
split_gain=551.65 239.918 120.217 58.974 45.6061 33.9059 23.9672 7.3786 6.57696 4.38479 3.08169 2.77756 1.24441 1.74089 1.14796 1.10872 0.83104 0.76295 0.673381 0.528684 0.732693 0.51746 0.314718 0.236922 0.194147 0.143852 0.120573 0.190303 0.0692445 0.0806312 0.0205145 0.0126963 0.0217486 0.00959707 0.00620102 0.00550255 0.00107349
threshold=1.0000000180025095e-35 1.0000000180025095e-35 1.0000000180025095e-35 1.0000000180025095e-35 1.0000000180025095e-35 1.0000000180025095e-35 1.0000000180025095e-35 1.0000000180025095e-35 1.0000000180025095e-35 1.0000000180025095e-35 1.0000000180025095e-35 1.0000000180025095e-35 1.0000000180025095e-35 1.0000000180025095e-35 1.0000000180025095e-35 1.0000000180025095e-35 1.0000000180025095e-35 1.0000000180025095e-35 1.0000000180025095e-35 1.0000000180025095e-35 1.0000000180025095e-35 1.0000000180025095e-35 1.0000000180025095e-35 1.0000000180025095e-35 1.0000000180025095e-35 1.0000000180025095e-35 1.0000000180025095e-35 1.0000000180025095e-35 1.0000000180025095e-35 1.0000000180025095e-35 1.0000000180025095e-35 1.0000000180025095e-35 1.0000000180025095e-35 1.0000000180025095e-35 1.0000000180025095e-35 1.0000000180025095e-35 1.0000000180025095e-35
decision_type=2 2 2 2 2 2 8 2 2 8 8 2 2 2 8 2 2 8 2 2 2 2 2 2 2 2 2 2 2 2 2 2 10 2 10 2 2
left_child=1 3 7 4 5 17 15 8 14 11 12 -5 16 18 23 19 21 22 -14 28 24 25 -1 -2 -21 -4 27 -9 29 -3 -8 32 -19 -10 -33 -7 -23
right_child=2 6 10 9 -6 35 30 26 33 -11 -12 -13 13 -15 -16 -17 -18 31 -20 20 -22 36 -24 -25 -26 -27 -28 -29 -30 -31 -32 34 -34 -35 -36 -37 -38
leaf_value=-0.020029262738661902 0.58311180774195859 0.14806023541611185 0.25273991377242938 0.15821829150512159 0.62763823348488079 0.33185190644639528 0.38983086849945781 0.44589754969489137 0.44487333778223037 0.44033325314310096 0.37993717195770688 0.28135079759218484 0.17853515020349062 0.27288064839918696 0.71558888221091821 0.24942676537675951 0.13062005486426331 -0.0044476163844622543 0.10757381981754757 0.15845043939306733 0.20106995644310366 0.20210906862126909 -0.015390212539802757 0.61037559961518895 0.12384451402162878 0.22247614077871755 0.38520305057693088 0.38726507434559476 0.13160843110027126 0.13280467417021422 0.40367128092248139 -0.0081848031062661808 -0.0098967852460921119 0.45533621118164269 -0.0055992429041628791 0.34082921869205168 0.20624069356573771
leaf_weight=18520.428747802973 460.33595277741551 2264.198376879096 569.3666742220521 233.21168110147119 75.842128325253725 100.34875313937664 164.8837120719254 108.38140906393528 122.00522464886308 73.939379628747702 78.154083825647831 271.88116120174527 396.56035902351141 119.88048217445612 58.737862426787615 83.406202740967274 54.712367907166481 633.41394698619843 119.17144967615604 2324.1928094029427 286.16697744652629 192.49715428426862 21835.055813379586 415.59120116010308 116.66477532684803 132.70954413712025 73.872402049601078 58.356230944395065 235.09243649616838 265.21094702929258 132.24004907906055 907.13847345113754 2417.1647711917758 118.34108342975378 2123.5287472680211 87.650991149246693 55.520744100213051
leaf_count=95532 1177 6594 1711 756 210 380 630 414 415 286 298 976 1158 381 176 254 169 2551 350 6714 864 560 98366 1057 348 385 282 212 667 760 502 3524 11423 434 9360 321 159
internal_value=0 0.00910215 0.366482 -0.0104976 -0.013753 -0.0147964 0.166912 0.545111 0.572155 0.252059 0.219342 0.224498 0.211691 0.183025 0.60356 0.154703 0.229824 -0.0162167 0.162138 0.153265 0.161442 0.235537 -0.0175192 0.596047 0.156796 0.247019 0.413043 0.425377 0.145198 0.146461 0.395991 -0.00757316 -0.00876533 0.450025 -0.00637315 0.336037 0.203034
internal_weight=0 53151.7 3134.19 47279.6 46700.6 46624.7 5872.06 1415.62 1175.01 579.032 1718.57 505.093 1640.42 635.612 934.665 5574.93 1004.81 46436.7 515.732 5491.53 2727.02 950.094 40355.5 875.927 2440.86 702.076 240.61 166.738 2764.5 2529.41 297.124 6081.25 3050.58 240.346 3030.67 188 248.018
internal_count=250356 241018 9338 223685 221667 221457 17333 4167 3259 2018 5171 1732 4873 1889 2410 16201 2984 220756 1508 15947 7926 2815 193898 2234 7062 2096 908 626 8021 7354 1132 26858 13974 849 12884 701 719
is_linear=0
shrinkage=0.82779


Tree=4
num_leaves=30
num_cat=0
split_feature=0 7 4 7 1 4 7 2 1 1 4 2 5 5 5 2 4 1 2 2 1 2 2 1 2 1 5 5 2
split_gain=187.573 77.4424 75.0032 62.3516 44.2447 35.9777 15.5694 15.5335 12.9592 8.1516 6.99738 3.63724 3.28122 2.72836 2.58353 1.15834 1.14351 0.856699 0.544516 0.256428 0.24467 0.353766 0.35295 0.191095 0.186024 0.152587 0.143367 0.0944085 0.0116286
threshold=1.0000000180025095e-35 1.0000000180025095e-35 1.0000000180025095e-35 1.0000000180025095e-35 1.0000000180025095e-35 1.0000000180025095e-35 1.0000000180025095e-35 1.0000000180025095e-35 1.0000000180025095e-35 1.0000000180025095e-35 1.0000000180025095e-35 1.0000000180025095e-35 1.0000000180025095e-35 1.0000000180025095e-35 1.0000000180025095e-35 1.0000000180025095e-35 1.0000000180025095e-35 1.0000000180025095e-35 1.0000000180025095e-35 1.0000000180025095e-35 1.0000000180025095e-35 1.0000000180025095e-35 1.0000000180025095e-35 1.0000000180025095e-35 1.0000000180025095e-35 1.0000000180025095e-35 inf 1.0000000180025095e-35 1.0000000180025095e-35
decision_type=2 2 2 2 2 2 2 2 2 2 2 2 8 8 8 2 2 2 2 2 2 2 2 2 2 2 8 10 2
left_child=2 4 6 9 5 7 8 13 11 15 -6 26 16 -2 25 -4 19 18 -5 23 22 -22 -18 -3 -7 28 27 -1 -8
right_child=1 12 3 17 10 24 14 -9 -10 -11 -12 -13 -14 -15 -16 -17 20 -19 -20 -21 21 -23 -24 -25 -26 -27 -28 -29 -30
leaf_value=-0.013107086225407969 0.48080125351548803 0.063228143818064769 0.44865772753958999 0.065464897107045783 -0.027375030938382137 0.044208905885040548 0.036256692219113817 0.056798931567095576 0.17203038597391385 0.1771211610313492 0.23302423709516776 0.16217201129085435 0.22718984793790301 0.60765174183878201 0.15270361754421141 0.31685661933394005 0.071297188412805315 -0.010585368914329636 0.004789602269421849 0.01779004179601007 0.16310600203109313 0.078500883174053945 0.12524232076877864 0.031036409359318031 0.10100961461290472 0.054287913827659601 -0.0053603574952730956 -0.017148293041014478 0.029385356107769715
leaf_weight=39168.005087994039 833.86958854179829 610.07374000921845 437.84040021337569 572.04094577021897 201.17545305937529 110.49521354027092 3452.3830282986164 57.819538426585495 261.0896280054003 101.51241423003376 109.03941638208926 81.147903143428266 95.165116751566529 134.99662146391347 138.00136845931411 51.015575701370835 261.92330250144005 171.66377425938845 123.17388273775578 137.83696397021413 83.503959860652685 56.971296325325966 121.73672382161021 159.36434288322926 61.499933317303658 338.87330462038517 1528.8717543780804 4406.9087961092591 177.44010912254453
leaf_count=192489 1552 2076 1558 2077 849 852 11402 293 1169 562 569 425 529 273 750 289 965 600 440 466 289 206 447 564 337 1133 6064 20571 560
internal_value=0 0.209801 -0.00200758 0.183089 0.342793 0.414904 -0.00745092 0.473602 -0.0118618 0.390578 0.0641544 -0.0129243 0.0783491 0.498476 0.0413608 0.434903 0.0684537 0.0417837 0.0547148 0.0506705 0.0992364 0.128793 0.0884142 0.0565607 0.064519 0.0374891 -0.0132393 -0.0135158 0.0359208
internal_weight=0 3035.47 51010 1457.25 1508.9 1198.68 49552.7 1026.69 45446 590.368 310.215 45184.9 1526.58 968.866 4106.7 488.856 1431.41 866.879 695.215 907.275 524.135 140.475 383.66 769.438 171.995 3968.7 45103.8 43574.9 3629.82
internal_count=250356 10267 240089 5526 4725 3307 234563 2118 220718 2409 1418 219549 5542 1825 13845 1847 5013 3117 2517 3106 1907 495 1412 2640 1189 13095 219124 213060 11962
is_linear=0
shrinkage=0.82779


Tree=5
num_leaves=38
num_cat=0
split_feature=0 7 4 7 5 3 4 2 2 6 6 2 7 7 6 6 5 6 2 5 2 6 3 6 2 4 2 6 2 2 6 6 5 5 6 5 5
split_gain=18.5614 13.7582 7.39706 11.0543 7.05347 6.43749 4.88462 2.30817 2.02724 0.886828 0.760927 0.649202 0.575221 0.520745 0.442226 0.417668 0.344825 0.309398 0.286696 0.265808 0.199969 0.166234 0.157448 0.107131 0.10445 0.0790028 0.178393 0.0716161 0.880195 0.319185 0.027476 0.0166328 0.0133015 0.00923965 0.00899042 0.00117469 0.000857349
threshold=1.0000000180025095e-35 1.0000000180025095e-35 1.0000000180025095e-35 1.0000000180025095e-35 1.0000000180025095e-35 1.0000000180025095e-35 1.0000000180025095e-35 1.0000000180025095e-35 1.0000000180025095e-35 1.0000000180025095e-35 1.0000000180025095e-35 1.0000000180025095e-35 1.0000000180025095e-35 1.0000000180025095e-35 1.0000000180025095e-35 1.0000000180025095e-35 1.0000000180025095e-35 1.0000000180025095e-35 1.0000000180025095e-35 1.0000000180025095e-35 1.0000000180025095e-35 1.0000000180025095e-35 1.0000000180025095e-35 1.0000000180025095e-35 1.0000000180025095e-35 1.0000000180025095e-35 1.0000000180025095e-35 1.0000000180025095e-35 1.0000000180025095e-35 1.0000000180025095e-35 1.0000000180025095e-35 1.0000000180025095e-35 inf 1.0000000180025095e-35 1.0000000180025095e-35 1.0000000180025095e-35 1.0000000180025095e-35
decision_type=2 2 2 2 8 2 2 2 2 2 2 2 2 2 2 2 8 2 2 8 2 2 2 2 2 2 2 2 2 2 2 2 8 10 2 8 10
left_child=2 4 5 8 6 11 7 34 9 -4 20 12 14 -13 32 24 22 -15 -17 23 -8 -21 25 -14 -5 27 30 29 -29 -3 -27 -6 36 35 -2 -16 -1
right_child=1 16 3 15 31 -7 10 -9 -10 -11 -12 13 19 17 33 18 -18 -19 -20 21 -22 -23 -24 -25 -26 26 -28 28 -30 -31 -32 -33 -34 -35 -36 -37 -38
leaf_value=-0.0055014588849536155 0.16340329231473499 0.011267530333268362 0.1568163219989005 0.03054166141890401 0.3140322512625271 0.23115382940732471 0.027321891425566326 0.0030625129989937253 0.021420673129007368 0.23892908166815643 -0.044539204250417769 0.087023465638146252 0.0022689693163636111 0.038403239210741756 -0.00011885401778081559 -0.022403151421832863 0.071810106818182465 -0.028052620896123048 0.048115628001835761 0.078594369266378028 0.094733722175552454 0.014888089314256657 0.051919395281283587 0.011287339059989418 0.00080088983908293404 0.026352566516300305 -0.0028518416201058659 0.001030198608885045 0.11952166945667124 -0.045682084748627713 0.042460229454627539 0.33315806866614056 -0.0016910007445659209 -0.0019142628751358495 0.15757479667239849 0.00084695678874046427 -0.0060369328352439817
leaf_weight=17786.595253314823 396.92013763636351 365.99917427450418 188.53875506389886 382.83332728594542 76.191853166557848 81.572841494809836 83.733579184859991 69.681689219549298 52.113233270123601 172.66911987960339 99.17370743304491 96.161378338932991 1783.6374639719725 126.1342592779547 21227.643942855299 304.62284370139241 76.760772928595543 77.501835651695728 45.39168219640851 57.902788240462542 47.121986156329513 54.469916896894574 73.888071592897177 1827.3085374012589 102.60459183529019 176.08844812959433 139.45794025436044 336.53169514611363 49.244010489434004 82.669905751943588 123.43044479563832 52.714637100463733 626.86506390571594 2055.7074638754129 333.89745923317969 899.50201569497585 2315.6483373939991
leaf_count=95060 1138 1304 1032 1497 353 282 598 358 380 997 700 558 6050 417 98209 1079 529 276 183 363 300 343 295 6266 358 724 568 1216 176 273 457 238 2548 9331 1040 3526 11334
internal_value=0 0.0723516 0.00040609 0.0633197 0.1393 -0.00119673 0.116464 0.147015 0.174049 0.196069 0.0101495 -0.00158405 -0.00182077 0.0368186 -0.00264045 0.00853918 0.0178445 0.0131108 -0.0132579 0.00806653 0.0515974 0.0477143 0.0147699 0.00683269 0.0242555 0.0126143 0.0216038 0.00788524 0.0161556 0.00077423 0.0329905 0.321854 -0.00544605 -0.000235552 0.16074 -7.95923e-05 -0.00556314
internal_weight=0 2583.51 50265.4 1248.77 1159.44 49016.7 1030.53 800.499 413.321 361.208 230.029 48935.1 48635.3 299.797 44912 835.452 1424.07 203.636 350.015 3723.32 130.856 112.373 1347.31 3610.95 485.438 1273.42 438.977 834.445 385.776 448.669 299.519 128.906 20729.1 24182.9 730.818 22127.1 20102.2
internal_count=250356 10267 240089 5526 4725 234563 4134 2536 2409 2029 1598 234281 233030 1251 220008 3117 5542 693 1262 13022 898 706 5013 12316 1855 4718 1749 2969 1392 1577 1181 591 108942 111066 2178 101735 106394
is_linear=0
shrinkage=0.82779


Tree=6
num_leaves=39
num_cat=0
split_feature=0 1 7 2 7 4 4 6 2 4 1 7 7 3 1 2 6 4 6 7 6 6 6 2 4 4 6 6 2 6 2 6 6 7 6 6 6 6
split_gain=1.08912 2.3297 4.20661 2.60481 3.42927 3.33768 2.4212 1.70158 1.19006 0.45208 1.05216 2.00084 0.540065 0.498238 0.406503 0.711929 0.253018 0.224742 0.769648 0.203897 0.195617 0.188578 0.152567 0.0930474 0.682752 0.372062 0.744971 0.276501 0.084885 0.0492569 0.0489134 0.245268 0.039172 0.0244127 0.0154096 0.0117717 0.00754348 0.00193617
threshold=1.0000000180025095e-35 1.0000000180025095e-35 1.0000000180025095e-35 1.0000000180025095e-35 1.0000000180025095e-35 1.0000000180025095e-35 1.0000000180025095e-35 1.0000000180025095e-35 1.0000000180025095e-35 1.0000000180025095e-35 1.0000000180025095e-35 1.0000000180025095e-35 1.0000000180025095e-35 1.0000000180025095e-35 1.0000000180025095e-35 1.0000000180025095e-35 1.0000000180025095e-35 1.0000000180025095e-35 1.0000000180025095e-35 1.0000000180025095e-35 1.0000000180025095e-35 1.0000000180025095e-35 1.0000000180025095e-35 1.0000000180025095e-35 1.0000000180025095e-35 1.0000000180025095e-35 1.0000000180025095e-35 1.0000000180025095e-35 1.0000000180025095e-35 1.0000000180025095e-35 1.0000000180025095e-35 1.0000000180025095e-35 1.0000000180025095e-35 1.0000000180025095e-35 1.0000000180025095e-35 1.0000000180025095e-35 1.0000000180025095e-35 1.0000000180025095e-35
decision_type=2 2 2 2 2 2 2 2 2 2 2 2 2 2 2 2 2 2 2 2 2 2 2 2 2 2 2 2 2 2 2 2 2 2 2 2 2 2
left_child=9 2 6 4 5 20 8 -5 32 13 11 16 -12 14 28 19 -11 18 -6 21 -3 -16 -8 25 -25 27 -27 -4 33 -21 31 -13 -2 36 -14 -35 -1 -30
right_child=1 3 23 7 17 -7 22 -9 -10 10 12 30 34 -15 15 -17 -18 -19 -20 29 -22 -23 -24 24 -26 26 -28 -29 37 -31 -32 -33 -34 35 -36 -37 -38 -39
leaf_value=-0.00097026476267748907 0.12064450045255519 -0.22454667754796434 0.0308199914061335 0.0037000030136548645 -0.058671957944892862 0.034798252507310071 0.010317054373688848 0.19929688394851161 -0.015201493913630508 0.065649964857749196 -0.091546612505901639 0.023028277509301375 -0.014419590277222113 0.071508433943610922 0.0044127069656014067 0.11242893661250085 0.11595764773821898 0.049374434366964641 0.056219075738533235 0.0090931547296145034 -0.16583617633486963 0.057177390503644718 -0.041771097888595281 -0.061588814179316817 0.029760517639545379 -0.059380636076176774 0.033601083018215266 -0.0044987405638641726 -0.018180649576054555 -0.012304965531568965 -0.011055794780760464 -0.012664317113348188 0.10667013392073062 0.00014091077317152841 0.0012376444125816093 0.003220934639771651 -0.00028769624293785228 -0.013368497204709139
leaf_weight=20577.462380498648 307.60079731233418 81.583907093852758 324.0789352953434 83.818845154717565 86.766013944521546 58.860319750383496 89.158506713807583 47.889265669509768 53.194123717956245 156.05089403409511 73.232791969552636 300.65422155149281 87.2267498485744 66.366101376712322 83.852328084409237 54.105573398992419 122.11091786436737 73.933025037869811 74.054532861337066 152.18765647336841 74.307393882423639 103.95359869301319 67.858825534582138 111.56782998889685 112.69813751801848 153.74956937506795 95.857801213860512 285.87160164117813 137.85496549494565 142.96046971343458 121.07745748758316 235.0713150203228 248.49134344724007 1681.6447537243366 85.090363051742315 1719.9817035682499 24075.786897808313 98.039085011929274
leaf_count=108558 1006 354 1266 368 331 378 699 255 293 1003 562 1235 319 282 384 256 844 319 290 508 389 600 490 407 475 668 379 1081 570 548 440 842 819 5905 281 6061 110466 425
internal_value=0 0.0181598 0.0325218 -0.0275574 -0.0575545 -0.133149 0.0794641 0.0748193 0.103085 0.00021949 0.0162265 0.0288913 -0.0319963 -0.000166989 -0.000264409 0.0223841 0.0877347 0.0115992 -0.00576702 0.0122963 -0.196562 0.0336188 -0.0121941 -0.000668143 -0.0156839 0.00324961 -0.0236725 0.0142668 -0.000516292 -0.00127142 0.00397063 0.0073667 0.1144 -0.000439397 -0.00668803 0.00169828 -0.000602243 -0.0161807
internal_weight=0 2431.34 1850.13 581.213 449.505 214.752 766.304 131.708 609.286 50074.7 1180.51 934.965 245.55 48894.2 48827.8 537.06 278.162 234.754 160.821 482.954 155.891 187.806 157.017 1083.82 224.266 859.558 249.607 609.951 48290.8 295.148 656.803 535.726 556.092 48054.9 172.317 3401.63 44653.2 235.894
internal_count=250356 10267 7583 2684 2061 1121 3307 623 2118 240089 5526 4364 1162 234563 234281 2296 1847 940 621 2040 743 984 1189 4276 882 3394 1047 2347 231985 1056 2517 2077 1825 230990 600 11966 219024 995
is_linear=0
shrinkage=0.82779


end of trees

feature_importances:
Male=80
Sore_throat=68
Fever=47
Age_60+=47
Headache=20
Contact_with_confirmed=19
Shortness_of_breath=14
Cough=11

parameters:
[boosting: gbdt]
[objective: binary]
[metric: auc]
[tree_learner: serial]
[device_type: cpu]
[linear_tree: 0]
[data: ]
[valid: ]
[num_iterations: 604]
[learning_rate: 0.82779]
[num_leaves: 62]
[num_threads: 0]
[deterministic: 0]
[force_col_wise: 0]
[force_row_wise: 0]
[histogram_pool_size: -1]
[max_depth: 27]
[min_data_in_leaf: 55]
[min_sum_hessian_in_leaf: 45.0085]
[bagging_fraction: 0.819206]
[pos_bagging_fraction: 1]
[neg_bagging_fraction: 1]
[bagging_freq: 0]
[bagging_seed: 3]
[feature_fraction: 0.854793]
[feature_fraction_bynode: 1]
[feature_fraction_seed: 2]
[extra_trees: 0]
[extra_seed: 6]
[early_stopping_round: 50]
[first_metric_only: 0]
[max_delta_step: 0]
[lambda_l1: 0]
[lambda_l2: 0]
[linear_lambda: 0]
[min_gain_to_split: 0]
[drop_rate: 0.1]
[max_drop: 50]
[skip_drop: 0.5]
[xgboost_dart_mode: 0]
[uniform_drop: 0]
[drop_seed: 4]
[top_rate: 0.2]
[other_rate: 0.1]
[min_data_per_group: 100]
[max_cat_threshold: 32]
[cat_l2: 10]
[cat_smooth: 10]
[max_cat_to_onehot: 4]
[top_k: 20]
[monotone_constraints: ]
[monotone_constraints_method: basic]
[monotone_penalty: 0]
[feature_contri: ]
[forcedsplits_filename: ]
[refit_decay_rate: 0.9]
[cegb_tradeoff: 1]
[cegb_penalty_split: 0]
[cegb_penalty_feature_lazy: ]
[cegb_penalty_feature_coupled: ]
[path_smooth: 0]
[interaction_constraints: ]
[verbosity: -1]
[saved_feature_importance_type: 0]
[max_bin: 56]
[max_bin_by_feature: ]
[min_data_in_bin: 3]
[bin_construct_sample_cnt: 200000]
[data_random_seed: 1]
[is_enable_sparse: 1]
[enable_bundle: 1]
[use_missing: 1]
[zero_as_missing: 0]
[feature_pre_filter: 1]
[pre_partition: 0]
[two_round: 0]
[header: 0]
[label_column: ]
[weight_column: ]
[group_column: ]
[ignore_column: ]
[categorical_feature: ]
[forcedbins_filename: ]
[objective_seed: 5]
[num_class: 1]
[is_unbalance: 1]
[scale_pos_weight: 1]
[sigmoid: 1]
[boost_from_average: 0]
[reg_sqrt: 0]
[alpha: 0.9]
[fair_c: 1]
[poisson_max_delta_step: 0.7]
[tweedie_variance_power: 1.5]
[lambdarank_truncation_level: 30]
[lambdarank_norm: 1]
[label_gain: ]
[eval_at: ]
[multi_error_top_k: 1]
[auc_mu_weights: ]
[num_machines: 1]
[local_listen_port: 12400]
[time_out: 120]
[machine_list_filename: ]
[machines: ]
[gpu_platform_id: -1]
[gpu_device_id: -1]
[gpu_use_dp: 0]
[num_gpu: 1]

end of parameters

pandas_categorical:[]
