tree
version=v3
num_class=1
num_tree_per_iteration=1
label_index=0
max_feature_idx=9
objective=binary sigmoid:1
feature_names=Throat_Pain Shortness_of_Breath Fever Cough Headache Taste_Disorder Olfactory_Disorder Stuffed_Nose Male Health_Professional
feature_infos=[0:1] [0:1] [0:1] [0:1] [0:1] [0:1] [0:1] [0:1] [0:1] [0:1]
tree_sizes=2709 2793 2795 2797 2789 2807 2802 2802 2800 2812 2804

Tree=0
num_leaves=25
num_cat=0
split_feature=2 5 8 6 1 7 1 0 7 5 1 6 1 9 3 9 3 0 3 8 8 1 3 9
split_gain=3543.3 1355.15 1315.77 1200.68 756.606 522.358 514.632 359.26 341.112 248.329 218.047 114.476 191.854 107.286 94.7915 86.496 53.0454 51.4401 46.6182 202.075 93.817 98.8645 33.3196 43.8045
threshold=1.0000000180025095e-35 1.0000000180025095e-35 1.0000000180025095e-35 1.0000000180025095e-35 1.0000000180025095e-35 1.0000000180025095e-35 1.0000000180025095e-35 1.0000000180025095e-35 1.0000000180025095e-35 1.0000000180025095e-35 1.0000000180025095e-35 1.0000000180025095e-35 1.0000000180025095e-35 1.0000000180025095e-35 1.0000000180025095e-35 1.0000000180025095e-35 1.0000000180025095e-35 1.0000000180025095e-35 1.0000000180025095e-35 1.0000000180025095e-35 1.0000000180025095e-35 1.0000000180025095e-35 1.0000000180025095e-35 1.0000000180025095e-35
decision_type=2 2 2 2 2 2 2 2 2 2 2 2 2 2 2 2 2 2 2 2 2 2 2 2
left_child=1 7 3 4 5 9 22 8 11 13 -10 -1 -13 -2 -3 18 17 -6 19 -9 -20 -22 -4 -24
right_child=2 14 6 -5 16 -7 -8 15 10 -11 -12 12 -14 -15 -16 -17 -18 -19 20 -21 21 -23 23 -25
leaf_value=-1.9744066793030874 -2 0.16178544333761596 0.86966630661456323 1.4643011740448402 -0.62440014909160291 0.98988624122620239 1.7043577912008814 -1.8218348327129688 -1.1763083104537773 1.0708552987185445 1.5929963261395408 -2 1.3382442613960783 -0.70847509544196585 1.1473699145194172 -1.497209660760197 0.8189406682674103 0.93003989971689616 0.048646790065422725 -0.16673201106168006 -1.694720529045292 0.46001822975195583 0.51003110844401667 1.4607899219651543
leaf_weight=936.24037504196167 482.5 177.34600067138672 743.14337873458862 328.54281449317932 60.966312646865845 84.148937940597534 811.79206776618958 134.49037504196167 72.725937604904175 31.21150016784668 46.682625293731689 43 28.71150016784668 74.21150016784668 216.97568869590759 142.97112512588501 216.75456357002258 32.71150016784668 198.83637571334839 163.37968802452087 78.49037504196167 29.22112512588501 725.51850318908691 51.927812814712524
leaf_count=3723 1930 358 1018 271 167 106 491 516 236 37 33 172 27 209 242 506 307 43 422 379 292 51 1233 43
internal_value=0 -0.980955 0.610924 -0.190615 -0.744008 -1.34042 1.06147 -1.33538 -1.69181 -1.67395 -0.0936522 -1.88114 -0.66345 -1.82784 0.704104 -0.79774 0.547188 -0.0816028 -0.632285 -0.914022 -0.358522 -1.11016 0.71826 0.573535
internal_weight=0 2269.07 3643.43 1311.05 982.504 672.072 2332.38 1874.75 1127.36 587.923 119.409 1007.95 71.7115 556.712 394.322 747.389 310.432 93.6778 604.418 297.87 306.548 107.712 1520.59 777.446
internal_count=12812 6957 5855 3070 2799 2282 2785 6357 4191 2176 269 3922 199 2139 600 2166 517 210 1660 895 765 343 2294 1276
is_linear=0
shrinkage=1


Tree=1
num_leaves=25
num_cat=0
split_feature=2 6 0 0 5 6 3 8 7 8 5 7 3 4 4 7 4 7 8 6 3 5 4 8
split_gain=175.599 174.722 107.537 103.075 82.3345 103.132 79.0944 80.8588 130.495 72.0867 68.5576 55.4427 44.7892 43.4206 37.7875 37.2071 29.9496 24.2402 54.0426 50.1811 23.798 23.2302 20.3573 18.6629
threshold=1.0000000180025095e-35 1.0000000180025095e-35 1.0000000180025095e-35 1.0000000180025095e-35 1.0000000180025095e-35 1.0000000180025095e-35 1.0000000180025095e-35 1.0000000180025095e-35 1.0000000180025095e-35 1.0000000180025095e-35 1.0000000180025095e-35 1.0000000180025095e-35 1.0000000180025095e-35 1.0000000180025095e-35 1.0000000180025095e-35 1.0000000180025095e-35 1.0000000180025095e-35 1.0000000180025095e-35 1.0000000180025095e-35 1.0000000180025095e-35 1.0000000180025095e-35 1.0000000180025095e-35 1.0000000180025095e-35 1.0000000180025095e-35
decision_type=2 2 2 2 2 2 2 2 2 2 2 2 2 2 2 2 2 2 2 2 2 2 2 2
left_child=1 2 15 6 5 9 7 8 16 -5 14 12 -3 -12 17 21 -2 18 19 -8 -11 -1 -17 -4
right_child=3 11 23 4 -6 -7 10 -9 -10 20 13 -13 -14 -15 -16 22 -18 -19 -20 -21 -22 -23 -24 -25
leaf_value=-1.0790756392780934 -1.2718892139424409 -0.3595401654424295 -0.42623212331880678 -1.2220531255590585 0.55364758019343463 0.78261274777769585 -0.14394772125359115 0.10568506538369316 1.3279686233425321 -0.084148855072743098 -1.5264216349358259 1.2348676457738152 0.43159945230339075 0.098631469057936613 -0.15729780343247263 0.18948493819823248 -0.20583517369273241 1.0455922269836764 0.54982422854953306 1.1709992474875668 -0.64152035556953813 -0.30755216575910599 -0.87946805682082663 -0.062439024483268546
leaf_weight=400.90845830738544 117.11688594520092 126.06535722315311 319.31768181174994 138.07195042073727 95.95691254734993 59.233462646603584 230.58876302838326 563.19292037189007 27.729514881968498 159.40703456103802 30.779858231544495 49.430765025317669 165.50850769877434 35.297958880662918 114.3994367569685 44.454382687807083 34.004705041646957 63.730393067002296 728.31523182988167 33.200347512960434 147.47311621904373 43.234675139188766 29.730672687292099 252.54547679424286
leaf_count=3723 770 387 1338 774 116 58 975 906 31 284 96 73 272 58 312 138 121 47 935 20 352 95 124 807
internal_value=0 -0.36917 -0.564583 0.0676311 -0.295378 -0.456965 0.177752 -0.0803376 -0.666114 -0.621982 0.332659 0.255563 0.089541 -0.658338 0.388616 -0.894474 -1.03201 0.447765 0.409362 0.0215508 -0.351997 -1.00397 -0.238913 -0.265574
internal_weight=0 1431.2 1090.19 2578.5 600.142 504.186 1978.36 742.044 178.851 444.952 1236.31 341.005 291.574 66.0778 1170.23 518.328 151.122 1055.83 992.104 263.789 306.88 444.143 74.1851 571.863
internal_count=12812 6957 6225 5855 1584 1468 4271 1828 922 1410 2443 732 659 154 2289 4080 891 1977 1930 995 636 3818 262 2145
is_linear=0
shrinkage=1


Tree=2
num_leaves=25
num_cat=0
split_feature=1 0 4 6 3 8 3 4 0 3 8 7 3 9 6 4 4 5 6 8 9 4 4 7
split_gain=262.66 62.922 65.7595 61.5932 53.7265 56.9747 51.2218 71.2596 48.7975 33.3465 110.739 51.5454 32.1852 92.7856 31.5935 29.5982 27.3721 63.2586 25.6868 47.9698 34.6234 156.052 56.738 18.0813
threshold=1.0000000180025095e-35 1.0000000180025095e-35 1.0000000180025095e-35 1.0000000180025095e-35 1.0000000180025095e-35 1.0000000180025095e-35 1.0000000180025095e-35 1.0000000180025095e-35 1.0000000180025095e-35 1.0000000180025095e-35 1.0000000180025095e-35 1.0000000180025095e-35 1.0000000180025095e-35 1.0000000180025095e-35 1.0000000180025095e-35 1.0000000180025095e-35 1.0000000180025095e-35 1.0000000180025095e-35 1.0000000180025095e-35 1.0000000180025095e-35 1.0000000180025095e-35 1.0000000180025095e-35 1.0000000180025095e-35 1.0000000180025095e-35
decision_type=2 2 2 2 2 2 2 2 2 2 2 2 2 2 2 2 2 2 2 2 2 2 2 2
left_child=8 6 3 4 5 -3 7 -2 12 10 11 14 13 16 -10 -12 -1 -18 20 -20 22 -22 23 -14
right_child=1 2 -4 -5 -6 -7 -8 -9 9 -11 15 -13 18 -15 -16 -17 17 -19 19 -21 21 -23 -24 -25
leaf_value=0.059472809703181112 -0.2335107011183101 0.88617765048594344 0.83808189886700157 0.9974443125560648 -1.1937203703206094 -1.1149942546737617 0.78292215148775957 0.99992106839954709 -1.1626154495648247 0.17743675603133099 0.19739094313548647 0.41574021082462809 -0.52128778380977003 -1.5762913317444902 -2.9039430561773316 -0.71238509510382098 -1.1113585898526706 0.30385056251561182 0.3213315252092519 -0.84566732775390752 -0.8366261558816428 2.7831193343133531 -1.4431481422168013 0.24416372825688379
leaf_weight=511.65547217428684 137.85253287106752 35.306316412985325 64.898614794015884 27.967836312949657 75.321878701448441 23.829144060611725 459.41409831494093 70.945447932928801 78.054397247731686 469.14029727876186 286.91039258986712 19.043139435350895 533.4298232793808 42.10709173604846 12.024364925920962 40.851476952433586 68.520942963659763 58.593550309538841 105.77801793813705 52.807366982102394 40.374177787452936 16.893477968871593 68.094805274158716 32.754731565713882
leaf_count=1424 756 103 102 39 266 72 925 138 928 1551 564 73 3266 342 69 125 624 103 183 162 364 37 525 71
internal_value=0 0.441665 -0.0127934 -0.352769 -0.633621 0.0797882 0.596271 0.185585 -0.191642 -0.00769743 -0.206501 -1.07905 -0.300497 -0.138485 -1.39506 0.0839986 -0.043706 -0.459017 -0.430254 -0.0672676 -0.513494 0.231168 -0.580728 -0.477005
internal_weight=0 895.536 227.324 162.425 134.457 59.1355 668.212 208.798 2437.03 906.024 436.884 109.122 1531.01 680.877 90.0788 327.762 638.77 127.114 850.132 158.585 691.547 57.2677 634.279 566.185
internal_count=12812 2401 582 480 441 175 1819 894 10411 3310 1759 1070 7101 2493 997 689 2151 727 4608 345 4263 401 3862 3337
is_linear=0
shrinkage=1


Tree=3
num_leaves=25
num_cat=0
split_feature=2 8 6 4 7 0 3 1 0 5 7 5 1 3 1 4 0 5 5 6 4 3 6 4
split_gain=27.666 25.3077 26.0103 43.2232 25.9649 17.6194 18.775 34.4303 16.0368 55.3184 40.9411 20.2429 19.6022 47.4502 8.0904 47.4278 14.88 7.86039 5.68404 5.56286 7.18127 8.32356 4.94704 6.78126
threshold=1.0000000180025095e-35 1.0000000180025095e-35 1.0000000180025095e-35 1.0000000180025095e-35 1.0000000180025095e-35 1.0000000180025095e-35 1.0000000180025095e-35 1.0000000180025095e-35 1.0000000180025095e-35 1.0000000180025095e-35 1.0000000180025095e-35 1.0000000180025095e-35 1.0000000180025095e-35 1.0000000180025095e-35 1.0000000180025095e-35 1.0000000180025095e-35 1.0000000180025095e-35 1.0000000180025095e-35 1.0000000180025095e-35 1.0000000180025095e-35 1.0000000180025095e-35 1.0000000180025095e-35 1.0000000180025095e-35 1.0000000180025095e-35
decision_type=2 2 2 2 2 2 2 2 2 2 2 2 2 2 2 2 2 2 2 2 2 2 2 2
left_child=8 2 4 18 14 6 22 -8 9 10 -1 12 -10 -14 15 16 -2 -18 -4 -11 21 -21 23 -3
right_child=1 5 3 -5 -6 -7 7 -9 11 19 -12 -13 13 -15 -16 -17 17 -19 -20 20 -22 -23 -24 -25
leaf_value=-0.91452380088598861 -1.0981067675777527 -0.013090643560452999 0.8889682310734085 -0.55211350788393054 0.31616834570879693 -0.053906722347299624 0.21279304055818757 0.84586768992615402 -0.039862134245141956 -0.24328762551142702 0.039248802764686203 -0.69676086013378036 -0.57334695906623157 1.146478119969816 -0.23725416914540398 0.55551087776128694 -0.47798183515337161 0.97182710632175218 0.40011420801497527 0.0082095291298697592 -0.14150572633839165 0.53649421776499662 0.35996581274272949 0.37162784764969314
leaf_weight=151.73482415825129 78.530031591653824 430.55685041844845 44.834678843617439 45.792418964207172 64.877914734184742 362.66199639625847 546.35205441899598 101.93564552254975 432.89561780169606 41.771449163556099 63.984241576865315 40.346711929887533 24.980038367211819 44.837435640394688 171.20240689069033 29.3261210732162 19.874858360737566 4.6062760949134818 50.659740157425404 54.27017592638731 53.580320104956627 66.211314830929041 49.453193813562393 51.272860273718834
leaf_count=3922 1407 734 70 113 125 710 975 194 1927 110 269 142 123 116 498 271 494 4 88 143 117 88 70 102
internal_value=0 0.0750142 -0.118165 0.246617 -0.258057 0.13886 0.198126 0.312337 -0.129606 -0.273503 -0.631626 -0.0152566 0.0394395 0.531141 -0.380791 -0.566482 -0.885901 -0.205191 0.629631 0.0844315 0.163078 0.298531 0.0587627 0.0278483
internal_weight=0 2051.94 509.704 141.287 368.418 1542.23 1179.57 648.288 974.612 431.552 215.719 543.06 502.713 69.8175 303.54 132.337 103.011 24.4811 95.4944 215.833 174.062 120.481 531.283 481.83
internal_count=12812 5855 3070 271 2799 2785 2075 1169 6957 4649 4191 2308 2166 239 2674 2176 1905 498 158 458 348 231 906 836
is_linear=0
shrinkage=1


Tree=4
num_leaves=25
num_cat=0
split_feature=9 2 4 1 3 0 7 1 5 6 4 1 7 2 3 3 0 4 0 3 3 7 1 4
split_gain=15.0557 30.6349 43.5024 27.0682 18.9398 17.9845 5.35563 4.47638 3.1184 27.9744 28.7145 35.4185 25.454 34.1456 37.5133 34.3096 24.7963 12.9917 10.7608 14.1769 8.72687 8.45278 7.91004 3.65648
threshold=1.0000000180025095e-35 1.0000000180025095e-35 1.0000000180025095e-35 1.0000000180025095e-35 1.0000000180025095e-35 1.0000000180025095e-35 1.0000000180025095e-35 1.0000000180025095e-35 1.0000000180025095e-35 1.0000000180025095e-35 1.0000000180025095e-35 1.0000000180025095e-35 1.0000000180025095e-35 1.0000000180025095e-35 1.0000000180025095e-35 1.0000000180025095e-35 1.0000000180025095e-35 1.0000000180025095e-35 1.0000000180025095e-35 1.0000000180025095e-35 1.0000000180025095e-35 1.0000000180025095e-35 1.0000000180025095e-35 1.0000000180025095e-35
decision_type=2 2 2 2 2 2 2 2 2 2 2 2 2 2 2 2 2 2 2 2 2 2 2 2
left_child=8 2 3 6 -4 7 -2 -3 9 10 -1 18 13 14 17 -15 -17 -10 20 -20 21 -12 23 -11
right_child=1 5 4 -5 -6 -7 -8 -9 12 22 11 -13 -14 15 -16 16 -18 -19 19 -21 -22 -23 -24 -25
leaf_value=-0.0014478170387184116 -1.0650090463659621 0.01258771593107519 1.5930464989833211 0.62898086625228644 0.070347944797382031 0.97842101512789303 -0.18290508738288205 0.51682704443290972 0.11268613576002806 0.062642187518550357 0.04875017411282738 0.20221654586922047 0.46215968971908067 -1.3274175359578999 -0.49119679243916542 -0.72805792490693377 0.47157586292664466 0.81149062373149305 -1.5151383391470603 -0.59993259057484194 -0.75843743616799442 -1.0125272720252605 0.75746952427173764 0.42046364923961549
leaf_weight=1787.2283002254553 47.133712377399206 41.200588265433908 15.207701187347991 13.814858848229049 17.647988729178905 57.44712673779577 8.0598605871200544 30.742444861680269 62.005726058036089 53.212932522408664 44.492877827957273 75.421490460634232 63.607019724324346 46.248335223644972 79.597405876964331 40.617159351706505 29.924394048750401 46.598175367340446 25.067169800400734 52.112287506461143 37.689058212097734 9.0275678560137731 43.006165170110762 61.637926508672535
leaf_count=8198 755 195 236 113 68 149 36 50 154 186 506 253 101 145 192 127 47 92 211 212 500 69 68 149
internal_value=0 0.238266 -0.171941 -0.622862 0.77515 0.561207 -0.936196 0.228057 -0.0281768 -0.0138476 -0.0453643 -0.36729 -0.11327 -0.233278 0.0303036 -0.658027 -0.219162 0.412519 -0.622372 -0.897183 -0.389832 -0.130261 0.391657 0.254677
internal_weight=0 231.254 101.864 69.0084 32.8557 129.39 55.1936 71.943 2557.49 2188.9 2031.04 243.81 368.598 304.991 188.201 116.79 70.5416 108.604 168.389 77.1795 91.2095 53.5204 157.857 114.851
internal_count=12812 1602 1208 904 304 394 791 245 11210 10352 9949 1751 858 757 438 319 174 246 1498 423 1075 575 403 335
is_linear=0
shrinkage=1


Tree=5
num_leaves=25
num_cat=0
split_feature=8 7 0 4 3 9 7 5 1 4 7 5 5 1 0 2 0 7 7 7 1 4 1 5
split_gain=3.39938 11.1944 24.2763 10.7103 8.43273 9.98233 12.5715 11.6677 6.19368 4.72022 17.6543 24.4855 8.58947 4.24925 30.5846 14.9475 13.5365 9.51359 7.64669 4.03257 3.87078 14.3303 3.32332 42.7477
threshold=1.0000000180025095e-35 1.0000000180025095e-35 1.0000000180025095e-35 1.0000000180025095e-35 1.0000000180025095e-35 1.0000000180025095e-35 1.0000000180025095e-35 1.0000000180025095e-35 1.0000000180025095e-35 1.0000000180025095e-35 1.0000000180025095e-35 1.0000000180025095e-35 1.0000000180025095e-35 1.0000000180025095e-35 1.0000000180025095e-35 1.0000000180025095e-35 1.0000000180025095e-35 1.0000000180025095e-35 1.0000000180025095e-35 1.0000000180025095e-35 1.0000000180025095e-35 1.0000000180025095e-35 1.0000000180025095e-35 1.0000000180025095e-35
decision_type=2 2 2 2 2 2 2 2 2 2 2 2 2 2 2 2 2 2 2 2 2 2 2 2
left_child=4 20 3 -3 5 6 22 8 19 12 11 -11 13 15 -15 16 17 -6 -17 -7 -2 -22 23 -1
right_child=1 2 -4 -5 9 7 -8 -9 -10 10 -12 -13 -14 14 -16 18 -18 -19 -20 -21 21 -23 -24 -25
leaf_value=-1.2814732588885707 0.025384280744249754 -0.34519132188386836 -1.2077049375048048 0.48752641982936268 -0.077493027792322769 -1.1412361292461168 0.28239031191910535 0.052618121721620781 -0.42394671375917636 -0.089608507952710456 0.40308817162807875 -1.2421639237643365 0.37104774534868995 0.084715502797179668 -1.0942113821135453 -0.57542685200158594 0.34993548481790515 -1.6338932058579103 0.19876940798303708 -2.3328376874631744 0.039759036891182827 0.61335659677300003 -0.091683740090360788 0.10592055416296729
leaf_weight=33.622265572659671 1479.0332671599463 37.986757187172771 22.828599193133414 26.029135920107365 12.635977813974025 13.554355144500734 61.208328438922763 16.043120227754116 10.793966364115478 77.271839008899406 42.511240432038903 24.206902960315347 78.369718286208808 125.65039977058768 26.677464944310486 41.081794617697597 147.26002402603626 5.6985202282667151 18.50394269824028 3.5928011648356906 215.84415960498154 54.566239953041077 80.691848662681878 65.418524514883757
leaf_count=1470 4359 115 97 99 1159 490 188 76 58 477 111 77 142 405 155 1107 392 28 39 30 910 136 529 163
internal_value=0 0.028101 -0.322335 -0.00660473 -0.0473525 -0.189005 -0.109032 -0.627089 -1.01736 0.0199298 -0.137908 -0.364541 0.0697833 0.00724153 -0.121752 0.094502 0.249051 -0.561236 -0.335006 -1.39091 0.045497 0.155506 -0.242332 -0.36507
internal_weight=0 1836.29 86.8445 64.0159 884.793 284.925 240.941 43.9842 27.9411 599.868 143.99 101.479 455.878 377.508 152.328 225.18 165.595 18.3345 59.5857 17.1472 1749.44 270.41 179.733 99.0408
internal_count=12812 5716 311 214 7096 3004 2350 654 578 4092 665 554 3427 3285 560 2725 1579 1187 1146 520 5405 1046 2162 1633
is_linear=0
shrinkage=1


Tree=6
num_leaves=25
num_cat=0
split_feature=2 0 9 9 7 8 5 6 7 8 4 5 5 6 1 9 6 8 1 0 4 7 7 8
split_gain=8.38858 10.5167 13.2589 11.1104 28.9963 19.4616 19.3137 7.60037 7.35443 6.32157 6.1652 5.55344 4.86554 17.6841 8.66997 7.54629 9.71984 6.64039 17.0121 9.20812 10.8834 9.52446 7.0348 6.11108
threshold=1.0000000180025095e-35 1.0000000180025095e-35 1.0000000180025095e-35 1.0000000180025095e-35 1.0000000180025095e-35 1.0000000180025095e-35 1.0000000180025095e-35 1.0000000180025095e-35 1.0000000180025095e-35 1.0000000180025095e-35 1.0000000180025095e-35 1.0000000180025095e-35 1.0000000180025095e-35 1.0000000180025095e-35 1.0000000180025095e-35 1.0000000180025095e-35 1.0000000180025095e-35 1.0000000180025095e-35 1.0000000180025095e-35 1.0000000180025095e-35 1.0000000180025095e-35 1.0000000180025095e-35 1.0000000180025095e-35 1.0000000180025095e-35
decision_type=2 2 2 2 2 2 2 2 2 2 2 2 2 2 2 2 2 2 2 2 2 2 2 2
left_child=1 2 7 -3 5 6 -5 -1 9 11 -9 -4 15 -14 -15 16 17 18 19 21 22 -2 -21 -18
right_child=12 3 8 4 -6 -7 -8 10 -10 -11 -12 -13 13 14 -16 -17 23 -19 -20 20 -22 -23 -24 -25
leaf_value=-0.35630844467558992 -1.013221014480461 -0.04898705151664863 -1.0356073515906157 -1.1847639784077084 1.7773148515735349 0.81147661151153583 1.2715098958826634 0.10836067404463329 -2.1415575018374926 -1.6765802718535026 -0.30105821433068608 -0.063950458155825868 0.66321497753261782 0.12552460790110212 -0.51127888742590299 0.29080493211546982 0.5201426760868173 0.0050321737473496162 -0.01790721863409855 -1.0151943490777617 -0.43294003156198679 0.023527782317446566 -2.7529416517361782 0.010129555808343958
leaf_weight=118.91668021306396 14.506141101010142 448.92560329695698 9.7762130855117029 15.406447214656511 12.355571016669272 16.123059585690498 4.0408101333305231 112.44516856689006 3.7843453902751198 5.0794899053871623 54.658246947918087 14.767381727695465 54.275904262438416 89.193694654852152 28.120488250628114 92.999360392335802 55.688620485365391 1228.0260440204293 155.87687670439482 4.1535281084943563 8.547418313799426 22.771221797913313 5.3049842566251755 40.638447395525873
leaf_count=3520 1435 1777 432 405 18 89 19 286 47 136 166 62 95 224 73 369 107 2420 461 421 92 54 23 81
internal_value=0 -0.0911384 -0.232701 -0.000127583 0.457543 -0.00088804 -0.674392 -0.163071 -0.828836 -0.661135 -0.0255571 -0.450981 0.0310772 0.191242 -0.0271187 0.0142013 -0.00255136 -0.0231348 -0.186943 -0.663557 -1.25078 -0.379913 -1.98984 0.304978
internal_weight=0 816.279 319.428 496.851 47.9259 35.5703 19.4473 286.02 33.4074 29.6231 167.103 24.5436 1800.1 171.59 117.314 1628.51 1535.51 1439.19 211.16 55.2833 18.0059 37.2774 9.45851 96.3271
internal_count=12812 6957 4649 2308 531 513 424 3972 677 630 452 494 5855 392 297 5463 5094 4906 2486 2025 536 1489 444 188
is_linear=0
shrinkage=1


Tree=7
num_leaves=25
num_cat=0
split_feature=7 5 4 1 2 9 6 5 2 1 1 4 3 3 3 0 0 3 1 2 5 2 1 2
split_gain=1.57997 3.5065 8.2196 8.76024 8.33066 3.31866 15.6083 18.0761 5.75263 5.88576 4.26823 3.8313 4.67083 3.25258 2.82557 1.59207 0.909068 7.48412 13.0915 22.6753 18.4071 7.0223 21.7953 4.34612
threshold=1.0000000180025095e-35 1.0000000180025095e-35 1.0000000180025095e-35 1.0000000180025095e-35 1.0000000180025095e-35 1.0000000180025095e-35 1.0000000180025095e-35 1.0000000180025095e-35 1.0000000180025095e-35 1.0000000180025095e-35 1.0000000180025095e-35 1.0000000180025095e-35 1.0000000180025095e-35 1.0000000180025095e-35 1.0000000180025095e-35 1.0000000180025095e-35 1.0000000180025095e-35 1.0000000180025095e-35 1.0000000180025095e-35 1.0000000180025095e-35 1.0000000180025095e-35 1.0000000180025095e-35 1.0000000180025095e-35 1.0000000180025095e-35
decision_type=2 2 2 2 2 2 2 2 2 2 2 2 2 2 2 2 2 2 2 2 2 2 2 2
left_child=5 2 3 4 -2 16 7 8 9 11 13 -7 -13 -10 -4 -16 -1 21 20 -20 23 -18 -23 -19
right_child=1 -3 14 -5 -6 6 -8 -9 10 -11 -12 12 -14 -15 15 -17 17 18 19 -21 -22 22 -24 -25
leaf_value=0.012066911346820605 0.45528596769986562 -0.15968333939134755 -0.39576733182189006 0.7769359795480113 -0.24548339502603739 -1.1529914076505412 -0.86351718699637714 1.1591069599240222 -0.23673112989214873 0.28589035762683906 -0.36691793371044623 0.30158263490023107 -1.1908688701708825 0.31732835712246954 -0.16821665620469037 0.20516458997485718 0.21969459365171373 -0.073903101361867438 -0.0016917362485986257 -1.1323376728144943 -0.95551753845317022 -0.29103194052364195 0.45605897065965195 0.16366583035833515
leaf_weight=1411.6952481716871 36.744431021797936 48.716252983547747 23.987940319697373 30.426577048376203 31.512743886560202 12.16823635058245 25.848270755494013 11.981994263827799 14.768668365664778 6.719444057904183 21.690324913710356 5.3231425508856773 3.4599886834621429 37.495262199081481 21.742253398522735 24.053455878049135 173.89444517320953 200.74153500795364 39.423265866935253 32.246694065630436 20.688663125038147 126.75218426442007 56.436413653660566 124.9293463639915
leaf_count=7558 173 113 164 48 104 659 164 27 127 113 67 167 44 148 98 62 886 635 93 187 68 496 88 523
internal_value=0 0.076606 0.144934 0.330681 0.131757 -0.0125792 -0.162148 -0.00256959 -0.139536 -0.528495 0.00599745 -0.789681 -0.286347 0.160763 -0.117737 0.0278958 -0.00304101 -0.0305567 -0.121374 -0.510407 -0.0408741 0.0757613 -0.0608695 0.0172298
internal_weight=0 217.184 168.467 98.6838 68.2572 2326.26 139.455 113.607 101.625 27.6708 73.9543 20.9514 8.78313 52.2639 69.7836 45.7957 2186.81 775.113 418.03 71.67 346.36 357.083 183.189 325.671
internal_count=12812 762 649 325 277 12050 1516 1352 1325 983 342 870 211 275 324 160 10534 2976 1506 280 1226 1470 584 1158
is_linear=0
shrinkage=1


Tree=8
num_leaves=25
num_cat=0
split_feature=2 4 1 0 9 7 8 6 1 3 0 3 8 8 6 8 3 7 0 6 8 3 0 0
split_gain=4.22661 3.28689 8.38164 14.6252 8.5267 6.67893 20.5354 36.5806 5.59044 18.9185 5.95868 11.3494 11.016 8.84171 5.35209 5.32392 22.8377 21.8693 17.7088 5.14463 5.08764 4.38409 7.47854 5.11557
threshold=1.0000000180025095e-35 1.0000000180025095e-35 1.0000000180025095e-35 1.0000000180025095e-35 1.0000000180025095e-35 1.0000000180025095e-35 1.0000000180025095e-35 1.0000000180025095e-35 1.0000000180025095e-35 1.0000000180025095e-35 1.0000000180025095e-35 1.0000000180025095e-35 1.0000000180025095e-35 1.0000000180025095e-35 1.0000000180025095e-35 1.0000000180025095e-35 1.0000000180025095e-35 1.0000000180025095e-35 1.0000000180025095e-35 1.0000000180025095e-35 1.0000000180025095e-35 1.0000000180025095e-35 1.0000000180025095e-35 1.0000000180025095e-35
decision_type=2 2 2 2 2 2 2 2 2 2 2 2 2 2 2 2 2 2 2 2 2 2 2 2
left_child=1 2 15 4 5 6 7 -4 10 -10 11 13 -13 -3 -8 17 -17 21 -18 -15 -12 23 -23 -1
right_child=-2 8 3 -5 -6 -7 14 -9 9 -11 20 12 -14 19 -16 16 18 -19 -20 -21 -22 22 -24 -25
leaf_value=0.0047608816927917266 0.032551015181482859 0.30233386664182788 -1.1750472159841323 -0.0096347503560266796 0.24851626423059814 -0.10709391872251559 -1.1577324761744257 -5.2366298095951054 -0.42008953886319833 0.74555591304874835 -0.073007396402379493 -1.8899516594125743 -0.31946579357688293 0.0572994811176313 -0.099693418032906572 0.051556623289378309 -0.10213313350002004 -0.7945653345801269 -1.0969279525247204 -1.1972792713800069 0.46955384850845144 0.62178064520131715 0.12789389967945713 -1.0881448918911523
leaf_weight=29.026652505155653 1776.5240597805241 29.804163959459402 8.7509147720411438 55.806944966316223 6.9570454941131166 7.5286279665306202 8.1047888640314341 2.970108948647975 22.160538893193007 37.460501590743661 44.248015443561599 7.3266718997620055 11.4407677592244 5.603723934851585 11.658139653503895 177.44040296471212 34.555438114504796 26.225799563340843 37.114508341997862 7.8436836709734052 28.360375486314297 39.111593191220891 141.87042132671922 5.0240987525758092
leaf_count=120 5855 409 391 211 84 19 374 21 112 94 256 203 184 249 27 462 950 120 280 39 160 1203 389 600
internal_value=0 -0.0555047 -0.0925333 -0.353682 -0.771354 -0.953226 -1.15556 -2.20425 0.057373 0.312297 -0.0555227 -0.283158 -0.932572 -0.0013683 -0.533596 -0.0383316 -0.140873 0.0675471 -0.617291 -0.674479 0.138914 0.172692 0.234627 -0.156494
internal_weight=0 786.394 592.145 101.777 45.9696 39.0126 31.484 11.721 194.248 59.621 134.627 62.019 18.7674 43.2516 19.7629 490.369 249.11 241.259 71.6699 13.4474 72.6084 215.033 180.982 34.0508
internal_count=12812 6957 5251 1127 916 832 813 412 1706 206 1500 1084 387 697 401 4124 1692 2432 1230 288 416 2312 1592 720
is_linear=0
shrinkage=1


Tree=9
num_leaves=25
num_cat=0
split_feature=5 3 2 8 8 8 6 7 9 1 6 2 8 3 1 6 2 3 8 3 0 0 2 8
split_gain=4.35625 3.60477 7.27727 5.87138 5.23872 4.00823 3.81787 3.23605 5.6272 9.30488 2.62476 1.50127 4.84388 1.38162 0.94136 6.41098 6.89924 21.1009 6.73645 8.48552 9.74815 1.90023 6.80847 4.84845
threshold=1.0000000180025095e-35 1.0000000180025095e-35 1.0000000180025095e-35 1.0000000180025095e-35 1.0000000180025095e-35 1.0000000180025095e-35 1.0000000180025095e-35 1.0000000180025095e-35 1.0000000180025095e-35 1.0000000180025095e-35 1.0000000180025095e-35 1.0000000180025095e-35 1.0000000180025095e-35 1.0000000180025095e-35 1.0000000180025095e-35 1.0000000180025095e-35 1.0000000180025095e-35 1.0000000180025095e-35 1.0000000180025095e-35 1.0000000180025095e-35 1.0000000180025095e-35 1.0000000180025095e-35 1.0000000180025095e-35 1.0000000180025095e-35
decision_type=2 2 2 2 2 2 2 2 2 2 2 2 2 2 2 2 2 2 2 2 2 2 2 2
left_child=7 5 4 -4 -3 6 -2 14 9 10 11 12 13 -9 21 16 17 -16 -18 -20 -21 22 -1 -24
right_child=1 2 3 -5 -6 -7 -8 8 -10 -11 -12 -13 -14 -15 15 -17 18 -19 19 20 -22 -23 23 -25
leaf_value=-0.5801775249773452 0.14380653411319827 -0.3210442094884437 0.54520942248621052 0.057193789324051093 0.16980265750719808 0.1249977107547196 -0.28169510911417839 0.17608389896982007 0.58654336032021448 -0.47950513923421134 0.51783831536198766 -0.0021349992991967193 0.61728212414109029 -0.3772618805737652 -1.2351458659553378 0.48314735227527311 -0.11035968196864322 0.038207509508392593 -0.012607087040197631 0.81830685363081068 0.004805590095249313 -0.0062948242121014675 -0.43435148893760184 -0.048604540098810302
leaf_weight=26.245606114782277 30.446549620479345 35.803224381059408 65.999588092789054 39.352851452305913 55.371294423937798 112.4393544383347 68.59811101667583 8.7010610979050398 21.438969267415814 27.969440945889801 17.774982340633869 57.370770160108805 18.473346177488565 9.3729575304314494 18.274298735894263 26.236174163641408 156.40892092697322 45.207776966504753 86.803146705031395 34.952132377773523 25.459791496396065 614.66480036334542 33.87942150013987 851.83409520005807
leaf_count=2956 79 124 114 101 118 231 225 101 74 79 34 177 123 61 610 65 491 549 164 170 75 2909 1626 1556
internal_value=0 0.0863982 0.183904 0.362918 -0.0229475 -0.00421156 -0.150895 -0.0266065 0.109526 0.0363012 0.165466 0.0987758 0.257182 -0.110874 -0.0380292 0.00559344 -0.0285362 -0.328347 0.0341486 0.187682 0.475468 -0.0492688 -0.0782334 -0.0633597
internal_weight=0 408.011 196.527 105.352 91.1745 211.484 99.0447 2081.07 161.102 139.663 111.693 93.9181 36.5474 18.074 1919.97 393.342 367.106 63.4821 303.624 147.215 60.4119 1526.62 911.959 885.714
internal_count=12812 992 457 215 242 535 304 11820 649 575 496 462 285 162 11171 2124 2059 1159 900 409 245 9047 6138 3182
is_linear=0
shrinkage=1


Tree=10
num_leaves=25
num_cat=0
split_feature=8 2 7 1 5 4 1 5 0 2 1 5 3 4 4 9 1 5 9 7 4 7 9 4
split_gain=2.24917 2.49874 2.73983 2.66269 16.9876 15.7722 2.2357 3.06832 2.0919 4.97749 6.44824 8.21184 6.61052 7.21146 3.14026 19.079 2.73702 3.24593 3.02584 2.48859 2.33106 4.83091 2.35978 2.24576
threshold=1.0000000180025095e-35 1.0000000180025095e-35 1.0000000180025095e-35 1.0000000180025095e-35 1.0000000180025095e-35 1.0000000180025095e-35 1.0000000180025095e-35 1.0000000180025095e-35 1.0000000180025095e-35 1.0000000180025095e-35 1.0000000180025095e-35 1.0000000180025095e-35 1.0000000180025095e-35 1.0000000180025095e-35 1.0000000180025095e-35 1.0000000180025095e-35 1.0000000180025095e-35 1.0000000180025095e-35 1.0000000180025095e-35 1.0000000180025095e-35 1.0000000180025095e-35 1.0000000180025095e-35 1.0000000180025095e-35 1.0000000180025095e-35
decision_type=2 2 2 2 2 2 2 2 2 2 2 2 2 2 2 2 2 2 2 2 2 2 2 2
left_child=8 2 3 -2 5 -5 7 -3 9 16 11 12 13 -11 15 -14 18 20 19 23 21 22 -18 -1
right_child=1 6 -4 4 -6 -7 -8 -9 -10 10 -12 -13 14 -15 -16 -17 17 -19 -20 -21 -22 -23 -24 -25
leaf_value=0.41450206042189863 -0.10613051247984057 0.0048060122075253781 -0.33532637932976839 -0.050703363747606367 0.71145678261825795 -1.8790351104831793 -0.11126350207252403 0.21970925025701621 -0.013000608585402 -1.1762120580987157 0.13677853972372464 -0.53360486691064068 0.82832022008185269 0.12010373024786618 -0.028269924057553384 -1.8776169072917244 -1.0219948049270875 0.041931153040623219 -0.2934000576225958 -0.048962595398687608 1.0694524078014644 0.85927664881939469 0.23618296084405446 0.0032287589649341586
leaf_weight=55.461316192056984 253.64002035724116 1160.2895076316781 40.569085361436009 32.879530620761216 27.979751829057932 5.508775681257247 152.46644580224529 70.472996987402439 306.15182841367641 8.0596923781558871 166.78469387441874 40.325933992862701 20.938659786712382 9.1786457030102611 22.601918458007276 2.9760161079466334 2.4143396200379366 12.010744286701081 12.857781868166056 25.111301299417391 9.3730834536254424 10.63420070707798 3.8965304493904114 17.455945183872245
leaf_count=1051 2170 2150 175 480 41 65 491 144 2307 606 396 111 776 84 151 72 392 40 462 125 72 12 57 382
internal_value=0 -0.0163658 -0.0905069 -0.0594699 0.118854 -0.313072 0.00296118 0.0171113 0.0498675 0.0956853 0.0148933 -0.180422 0.0429712 -0.485982 0.238993 0.491585 0.242344 0.472705 0.162718 0.222544 0.669296 0.447952 -0.245156 0.316046
internal_weight=0 1743.81 360.577 320.008 66.3681 38.3883 1383.23 1230.76 726.233 420.081 270.866 104.081 63.7549 17.2383 46.5166 23.9147 149.215 38.3289 110.886 98.0286 26.3182 16.9451 6.31087 72.9173
internal_count=12812 5716 2931 2756 586 545 2785 2294 7096 4789 2196 1800 1689 690 999 848 2593 573 2020 1558 533 461 449 1433
is_linear=0
shrinkage=1


end of trees

feature_importances:
Cough=33
Shortness_of_Breath=32
Headache=31
Stuffed_Nose=30
Male=28
Throat_Pain=27
Taste_Disorder=26
Olfactory_Disorder=22
Fever=19
Health_Professional=16

parameters:
[boosting: gbdt]
[objective: binary]
[metric: auc]
[tree_learner: serial]
[device_type: cpu]
[linear_tree: 0]
[data: ]
[valid: ]
[num_iterations: 604]
[learning_rate: 1]
[num_leaves: 25]
[num_threads: 0]
[deterministic: 0]
[force_col_wise: 0]
[force_row_wise: 0]
[histogram_pool_size: -1]
[max_depth: 30]
[min_data_in_leaf: 69]
[min_sum_hessian_in_leaf: 0]
[bagging_fraction: 0.839174]
[pos_bagging_fraction: 1]
[neg_bagging_fraction: 1]
[bagging_freq: 0]
[bagging_seed: 3]
[feature_fraction: 0.9]
[feature_fraction_bynode: 1]
[feature_fraction_seed: 2]
[extra_trees: 0]
[extra_seed: 6]
[early_stopping_round: 50]
[first_metric_only: 0]
[max_delta_step: 0]
[lambda_l1: 0]
[lambda_l2: 0]
[linear_lambda: 0]
[min_gain_to_split: 0]
[drop_rate: 0.1]
[max_drop: 50]
[skip_drop: 0.5]
[xgboost_dart_mode: 0]
[uniform_drop: 0]
[drop_seed: 4]
[top_rate: 0.2]
[other_rate: 0.1]
[min_data_per_group: 100]
[max_cat_threshold: 32]
[cat_l2: 10]
[cat_smooth: 10]
[max_cat_to_onehot: 4]
[top_k: 20]
[monotone_constraints: ]
[monotone_constraints_method: basic]
[monotone_penalty: 0]
[feature_contri: ]
[forcedsplits_filename: ]
[refit_decay_rate: 0.9]
[cegb_tradeoff: 1]
[cegb_penalty_split: 0]
[cegb_penalty_feature_lazy: ]
[cegb_penalty_feature_coupled: ]
[path_smooth: 0]
[interaction_constraints: ]
[verbosity: -1]
[saved_feature_importance_type: 0]
[max_bin: 40]
[max_bin_by_feature: ]
[min_data_in_bin: 3]
[bin_construct_sample_cnt: 200000]
[data_random_seed: 1]
[is_enable_sparse: 1]
[enable_bundle: 1]
[use_missing: 1]
[zero_as_missing: 0]
[feature_pre_filter: 1]
[pre_partition: 0]
[two_round: 0]
[header: 0]
[label_column: ]
[weight_column: ]
[group_column: ]
[ignore_column: ]
[categorical_feature: ]
[forcedbins_filename: ]
[objective_seed: 5]
[num_class: 1]
[is_unbalance: 1]
[scale_pos_weight: 1]
[sigmoid: 1]
[boost_from_average: 0]
[reg_sqrt: 0]
[alpha: 0.9]
[fair_c: 1]
[poisson_max_delta_step: 0.7]
[tweedie_variance_power: 1.5]
[lambdarank_truncation_level: 30]
[lambdarank_norm: 1]
[label_gain: ]
[eval_at: ]
[multi_error_top_k: 1]
[auc_mu_weights: ]
[num_machines: 1]
[local_listen_port: 12400]
[time_out: 120]
[machine_list_filename: ]
[machines: ]
[gpu_platform_id: -1]
[gpu_device_id: -1]
[gpu_use_dp: 0]
[num_gpu: 1]

end of parameters

pandas_categorical:[]
