tree
version=v3
num_class=1
num_tree_per_iteration=1
label_index=0
max_feature_idx=7
objective=binary sigmoid:1
feature_names=Cough Fever Sore_throat Shortness_of_breath Headache Age_60+ Male Contact_with_confirmed
feature_infos=[0:1] [0:1] [0:1] [0:1] [0:1] [0:1] [0:1] [0:1]
tree_sizes=3362 3395

Tree=0
num_leaves=30
num_cat=0
split_feature=7 4 0 1 2 5 5 5 5 2 4 5 5 0 1 1 2 1 2 5 0 1 1 2 2 4 1 0 0
split_gain=263857 84547 56277.1 35077.5 12422 661.743 151.371 145.007 127.251 96.5241 31.2136 23.4002 18.9435 16.2891 13.8851 11.8808 6.23527 4.27582 3.43766 3.2316 3.1983 2.83305 2.35184 1.94318 1.35354 1.32793 1.81761 1.10592 1.00012
threshold=1.0000000180025095e-35 1.0000000180025095e-35 1.0000000180025095e-35 1.0000000180025095e-35 1.0000000180025095e-35 1.0000000180025095e-35 1.0000000180025095e-35 1.0000000180025095e-35 1.0000000180025095e-35 1.0000000180025095e-35 1.0000000180025095e-35 1.0000000180025095e-35 1.0000000180025095e-35 1.0000000180025095e-35 1.0000000180025095e-35 1.0000000180025095e-35 1.0000000180025095e-35 1.0000000180025095e-35 1.0000000180025095e-35 1.0000000180025095e-35 1.0000000180025095e-35 1.0000000180025095e-35 1.0000000180025095e-35 1.0000000180025095e-35 1.0000000180025095e-35 1.0000000180025095e-35 1.0000000180025095e-35 1.0000000180025095e-35 1.0000000180025095e-35
decision_type=2 2 2 2 2 8 8 10 8 2 2 8 8 2 2 2 2 2 2 10 2 2 2 2 2 2 2 2 2
left_child=1 2 3 4 5 -1 10 -7 9 14 13 22 16 15 -4 18 -5 -15 -2 -6 25 24 -3 -10 -12 26 -8 -26 -24
right_child=6 11 8 12 19 7 20 -9 23 -11 21 -13 -14 17 -16 -17 -18 -19 -20 -21 -22 -23 28 -25 27 -27 -28 -29 -30
leaf_value=-0.068264172453121677 0.1016730921847738 0.10717204286564165 0.08683496317014025 0.10271003056430922 0.10745119991877779 -0.046544949428685679 0.11084192694978889 -0.059269739486538554 0.10814965086338173 0.10789677153950623 0.10589119460895427 0.11534050333306742 0.11321442067416172 0.1059091956334143 0.093425020177301824 0.10567429149627716 0.11063621032412613 0.10258684185979725 0.10462680737468169 0.1154757640436585 0.11426270723479968 0.10747705351484449 0.10995034744977802 0.11379148018914255 0.10548432624987492 0.11417830965778078 0.11454203192156032 0.10285871760229158 0.10788228877151378
leaf_weight=123736.8202085495 28542.549956321716 8040.2527570724487 4042.6184644699097 3240.1083383560181 1297.8514556884766 4002.5805158615112 3775.6451063156128 19241.086023330688 1955.1312437057495 1176.275954246521 9046.3567686080933 1725.1395015716553 958.81213188171387 6634.1106996536255 1672.2035989761353 3289.2257194519043 414.13576507568359 1828.1325216293335 1536.2803783416748 216.67194271087646 2872.922435760498 3754.7567853927612 2001.2905044555664 255.36610317230225 1275.400315284729 699.94602870941162 564.64844703674316 1110.1585731506348 1524.0164184570312
leaf_count=392385 15206 3597 3085 1674 575 11343 1474 58329 845 513 4227 553 339 3098 1105 1548 163 948 748 69 969 1662 809 88 604 237 188 571 665
internal_value=0 -0.0387581 -0.0508427 -0.059578 -0.0647094 -0.0664953 0.10476 -0.0570785 0.0961027 0.0920293 0.103665 0.108732 0.105605 0.102808 0.0887633 0.102203 0.103608 0.105191 0.101824 0.108599 0.112643 0.106027 0.107746 0.108801 0.105551 0.11172 0.111323 0.104262 0.109056
internal_weight=0 175500 162210 153108 148495 146980 64930.1 23243.7 9101.6 6891.1 57017 13290.7 4613.06 41830.3 5714.82 33368.1 3654.24 8462.24 30078.8 1514.52 7913.16 15186.7 11565.6 2210.5 11431.9 5040.24 4340.29 2385.56 3525.31
internal_count=507617 476137 470513 464877 462701 462057 31480 69672 5636 4703 28612 5624 2176 21548 4190 17502 1837 4046 15954 644 2868 7064 5071 933 5402 1899 1662 1175 1474
is_linear=0
shrinkage=0.0608259


Tree=1
num_leaves=30
num_cat=0
split_feature=7 4 2 3 5 6 6 5 4 5 5 5 6 2 5 5 2 4 3 3 2 3 5 6 6 2 3 2 2
split_gain=233309 74730.9 21530.1 5193.64 1566.92 306.891 177.872 135.503 27.9164 25.2596 20.9675 5.9038 2.82239 2.40075 1.45618 1.21503 1.14196 0.902965 1.11772 0.633665 0.564801 0.429424 0.347999 0.250105 0.198249 0.165533 0.158626 1.39 0.623213
threshold=1.0000000180025095e-35 1.0000000180025095e-35 1.0000000180025095e-35 1.0000000180025095e-35 1.0000000180025095e-35 1.0000000180025095e-35 1.0000000180025095e-35 1.0000000180025095e-35 1.0000000180025095e-35 1.0000000180025095e-35 1.0000000180025095e-35 1.0000000180025095e-35 1.0000000180025095e-35 1.0000000180025095e-35 1.0000000180025095e-35 1.0000000180025095e-35 1.0000000180025095e-35 1.0000000180025095e-35 1.0000000180025095e-35 1.0000000180025095e-35 1.0000000180025095e-35 1.0000000180025095e-35 1.0000000180025095e-35 1.0000000180025095e-35 1.0000000180025095e-35 1.0000000180025095e-35 1.0000000180025095e-35 1.0000000180025095e-35 1.0000000180025095e-35
decision_type=2 2 2 2 8 2 2 8 2 10 8 8 2 2 10 10 2 2 2 2 2 2 8 2 2 2 2 2 2
left_child=1 2 3 4 5 -1 14 8 13 -8 12 -4 26 19 -6 -9 -10 18 25 -2 -19 -14 -5 -21 -15 -17 28 -28 -3
right_child=7 10 11 22 6 -7 9 15 16 -11 -12 -13 21 24 -16 17 -18 20 -20 23 -22 -23 -24 -25 -26 -27 27 -29 -30
leaf_value=-0.057471325887115204 0.096654952903251296 0.10093206131498561 0.10181795799029555 0.10616307376695497 -0.045014875125127675 -0.051605971241375968 -0.039116368053190541 0.10997905323700242 0.10014840230594024 -0.032096870176749039 0.1086932719244576 0.10868566463608512 0.10269100213760754 0.098776424412093847 -0.043130845508786542 0.10543195909248211 0.098881963405680076 0.10789160900870065 0.11028835590570721 0.099949290568403931 0.10472890787954729 0.099642244403010866 0.10889939072866971 0.09703104310400483 0.097781863538559888 0.10672883971830209 0.098426266965202874 0.10533022794066106 0.099503297941374497
leaf_weight=65529.049274966121 38043.115850880742 4615.5888534933329 2879.8427712917328 503.10904066264629 1772.6438223719597 66495.770011395216 2284.5134333819151 292.87281364202499 11748.405190750957 11171.935259371996 1719.4147548526525 551.8558561950922 4811.8860360682011 2040.4123704433441 10558.076191484928 5556.67684276402 3395.6613720953465 1208.97371083498 187.36595514416695 301.75143440067768 252.54824224114418 177.22530719637871 261.25101689994335 169.79838810861111 1164.8530918955803 389.67033420503139 221.53757879137993 210.32763592898846 1495.4897695183754
leaf_count=200625 19750 2070 1251 217 5058 197407 6309 89 5426 29583 553 178 2026 988 29788 2083 1638 405 56 141 97 83 97 87 582 138 108 80 704
internal_value=0 -0.0364509 -0.0478105 -0.0510724 -0.0518385 -0.0545172 -0.0381244 0.0986639 0.0976275 -0.0332886 0.102427 0.102922 0.101493 0.0968155 -0.0434017 0.106135 0.0998644 0.105986 0.105663 0.0966824 0.107345 0.102583 0.107098 0.0988985 0.098415 0.105517 0.100662 0.101789 0.100582
internal_weight=0 175260 162008 158576 157812 132025 25787.2 64752.1 56864 13456.4 13251.5 3431.7 11532.1 41719.9 12330.7 7888.11 15144.1 7595.24 6133.71 38514.7 1461.52 4989.11 764.36 471.55 3205.27 5946.35 6542.94 431.865 6111.08
internal_count=507617 476137 470513 469084 468770 398032 70738 31480 28612 35892 5624 1429 5071 21548 34846 2868 7064 2779 2277 19978 502 2109 314 228 1570 2221 2962 188 2774
is_linear=0
shrinkage=0.0608259


end of trees

feature_importances:
Age_60+=15
Sore_throat=13
Fever=7
Headache=6
Cough=5
Shortness_of_breath=5
Male=5
Contact_with_confirmed=2

parameters:
[boosting: gbdt]
[objective: binary]
[metric: auc]
[tree_learner: serial]
[device_type: cpu]
[linear_tree: 0]
[data: ]
[valid: ]
[num_iterations: 604]
[learning_rate: 0.0608259]
[num_leaves: 30]
[num_threads: 0]
[deterministic: 0]
[force_col_wise: 0]
[force_row_wise: 0]
[histogram_pool_size: -1]
[max_depth: 25]
[min_data_in_leaf: 63]
[min_sum_hessian_in_leaf: 32.903]
[bagging_fraction: 0.833313]
[pos_bagging_fraction: 1]
[neg_bagging_fraction: 1]
[bagging_freq: 0]
[bagging_seed: 3]
[feature_fraction: 0.717545]
[feature_fraction_bynode: 1]
[feature_fraction_seed: 2]
[extra_trees: 0]
[extra_seed: 6]
[early_stopping_round: 50]
[first_metric_only: 0]
[max_delta_step: 0]
[lambda_l1: 0]
[lambda_l2: 0]
[linear_lambda: 0]
[min_gain_to_split: 0]
[drop_rate: 0.1]
[max_drop: 50]
[skip_drop: 0.5]
[xgboost_dart_mode: 0]
[uniform_drop: 0]
[drop_seed: 4]
[top_rate: 0.2]
[other_rate: 0.1]
[min_data_per_group: 100]
[max_cat_threshold: 32]
[cat_l2: 10]
[cat_smooth: 10]
[max_cat_to_onehot: 4]
[top_k: 20]
[monotone_constraints: ]
[monotone_constraints_method: basic]
[monotone_penalty: 0]
[feature_contri: ]
[forcedsplits_filename: ]
[refit_decay_rate: 0.9]
[cegb_tradeoff: 1]
[cegb_penalty_split: 0]
[cegb_penalty_feature_lazy: ]
[cegb_penalty_feature_coupled: ]
[path_smooth: 0]
[interaction_constraints: ]
[verbosity: -1]
[saved_feature_importance_type: 0]
[max_bin: 87]
[max_bin_by_feature: ]
[min_data_in_bin: 3]
[bin_construct_sample_cnt: 200000]
[data_random_seed: 1]
[is_enable_sparse: 1]
[enable_bundle: 1]
[use_missing: 1]
[zero_as_missing: 0]
[feature_pre_filter: 1]
[pre_partition: 0]
[two_round: 0]
[header: 0]
[label_column: ]
[weight_column: ]
[group_column: ]
[ignore_column: ]
[categorical_feature: ]
[forcedbins_filename: ]
[objective_seed: 5]
[num_class: 1]
[is_unbalance: 1]
[scale_pos_weight: 1]
[sigmoid: 1]
[boost_from_average: 0]
[reg_sqrt: 0]
[alpha: 0.9]
[fair_c: 1]
[poisson_max_delta_step: 0.7]
[tweedie_variance_power: 1.5]
[lambdarank_truncation_level: 30]
[lambdarank_norm: 1]
[label_gain: ]
[eval_at: ]
[multi_error_top_k: 1]
[auc_mu_weights: ]
[num_machines: 1]
[local_listen_port: 12400]
[time_out: 120]
[machine_list_filename: ]
[machines: ]
[gpu_platform_id: -1]
[gpu_device_id: -1]
[gpu_use_dp: 0]
[num_gpu: 1]

end of parameters

pandas_categorical:[]
