tree
version=v3
num_class=1
num_tree_per_iteration=1
label_index=0
max_feature_idx=7
objective=binary sigmoid:1
feature_names=Cough Fever Sore_throat Shortness_of_breath Headache Age_60+ Male Contact_with_confirmed
feature_infos=[0:1] [0:1] [0:1] [0:1] [0:1] [0:1] [0:1] [0:1]
tree_sizes=2736 2771 2810 2701 2812 2822 2819 2811 2749 2844 2731 2841 2843 2730 2747 2808 2754 2854 2781 2806 2759 2857 2750 2761 2846 2841 2872 2779 2803 2820 2831 2828 2771 2797 2814 2669 2828 2785 2888 2774 2871 2785 2908 2889 2893 2923 2889 2890 2844 2904 2899 2875 2904 2908 2891 2904 2907 2893 2908 2907 2894 2902 2913 2896 2906 2927 2806 2934 2930 2908 2928 2941 2909 2925 2918 2924 2926 2932 2911 2946 2928 2952 2952 2945 2914 2917 2859 2915 2957 2963 2883 2933 2927 2948 2942 2953 2892 2926 2940 2953 2952 2963 2937 2937 2959 2962 2949 2937 2984 2928 2882 2926 2866 2942 2958 2948 2942 2971 2984 2957 2956 2956 2923 2961 2951 2933 2938 2970 2946 2980 2865 2964 2961 2948 2982 2974 2948 2970 2952 2944 2979 2901 2950 2892 2967 2957

Tree=0
num_leaves=25
num_cat=0
split_feature=1 4 0 5 2 5 2 2 5 4 2 4 2 5 5 0 0 5 5 0 2 0 2 0
split_gain=24094.8 12025.9 8489.39 5218.36 1990.44 1741.7 1034.98 978.394 877.94 452.478 295.977 237.983 240.269 138.358 137.398 118.445 58.8891 28.322 13.5617 9.42425 8.19727 7.86686 9.12002 6.81997
threshold=1.0000000180025095e-35 1.0000000180025095e-35 1.0000000180025095e-35 inf 1.0000000180025095e-35 inf 1.0000000180025095e-35 1.0000000180025095e-35 inf 1.0000000180025095e-35 1.0000000180025095e-35 1.0000000180025095e-35 1.0000000180025095e-35 inf 1.0000000180025095e-35 1.0000000180025095e-35 1.0000000180025095e-35 1.0000000180025095e-35 inf 1.0000000180025095e-35 1.0000000180025095e-35 1.0000000180025095e-35 1.0000000180025095e-35 1.0000000180025095e-35
decision_type=2 2 2 8 2 8 2 2 8 2 2 2 2 8 10 2 2 10 8 2 2 2 2 2
left_child=1 2 3 4 17 11 8 -5 -4 10 15 12 14 21 16 -7 -2 -1 -8 -13 -11 22 -3 -22
right_child=5 13 6 7 -6 9 18 -9 -10 20 -12 19 -14 -15 -16 -17 -18 -19 -20 -21 23 -23 -24 -25
leaf_value=-0.035159740465204876 0.15080305786523676 0.16091599196457784 0.067126377227060718 -0.11716187268558215 0.18662813165001491 0.064043568362581987 0.19580923523897575 0.12478032057249749 -0.015469723284975982 0.13459648236655058 0.16820922777894451 0.18389780615510046 0.20920431446651561 0.12937780415347991 0.17290805184872815 0.016792054764423924 0.12558161634669018 -0.045435421512316117 0.16194167582896798 0.19957802066648866 0.1778996768457573 0.17958176810004373 0.18399935080596028 0.14154934963081395
leaf_weight=14479.967025756836 1910.3282499313354 940.75145721435547 5256.4271383285522 19854.358072280884 532.10749626159668 1288.8176765441895 482.5081672668457 221.10509014129639 2476.9947471618652 623.14060592651367 251.23752880096436 790.37813472747803 824.71834754943848 1618.1842889785767 1624.0062694549561 1503.893012046814 3309.0763521194458 4631.5897722244263 227.67130947113037 1371.8589534759521 125.93954181671143 1141.9889860153198 293.86996746063232 145.58109664916992
leaf_count=34451 1571 694 8005 60868 278 1996 215 230 5485 597 170 431 275 1621 1035 2924 3420 11418 166 568 75 664 160 131
internal_value=0 -0.0355282 -0.0513458 -0.0734867 -0.0315748 0.134582 0.0528063 -0.114497 0.0406711 0.0703138 0.049296 0.160332 0.150882 0.155175 0.143853 0.0385983 0.134813 -0.03765 0.184952 0.193846 0.141824 0.172739 0.16641 0.15841
internal_weight=0 52157.5 48162.7 39719.1 19643.7 13769 8443.6 20075.5 7733.42 3938.61 3043.95 9830.37 7668.13 3994.79 6843.41 2792.71 5219.4 19111.6 710.179 2162.24 894.661 2376.61 1234.62 271.521
internal_count=137448 124255 121116 107245 46147 13193 13871 61098 13490 5893 5090 7300 6301 3139 6026 4920 4991 45869 381 999 803 1518 854 206
is_linear=0
shrinkage=0.11438


Tree=1
num_leaves=25
num_cat=0
split_feature=7 4 5 2 2 6 5 5 5 4 6 4 5 6 6 2 6 6 5 2 5 5 2 6
split_gain=69653.3 11591 6258.56 3493.67 1564.04 1179.27 217.833 181.081 169.89 91.335 73.9101 69.1636 64.3407 14.0669 12.1625 8.26688 13.8049 6.3744 5.22559 5.10667 4.69466 3.36516 2.31775 2.17032
threshold=1.0000000180025095e-35 1.0000000180025095e-35 inf 1.0000000180025095e-35 1.0000000180025095e-35 1.0000000180025095e-35 inf 1.0000000180025095e-35 inf 1.0000000180025095e-35 1.0000000180025095e-35 1.0000000180025095e-35 1.0000000180025095e-35 1.0000000180025095e-35 1.0000000180025095e-35 1.0000000180025095e-35 1.0000000180025095e-35 1.0000000180025095e-35 1.0000000180025095e-35 1.0000000180025095e-35 1.0000000180025095e-35 1.0000000180025095e-35 1.0000000180025095e-35 1.0000000180025095e-35
decision_type=2 2 8 2 2 2 8 10 8 2 2 2 10 2 2 2 2 2 10 2 10 10 2 2
left_child=1 2 3 5 10 12 13 -7 11 15 -4 19 -1 18 -8 -10 -17 -6 -3 21 22 -2 -15 -23
right_child=8 6 4 -5 17 7 14 -9 9 -11 -12 -13 -14 20 -16 16 -18 -19 -20 -21 -22 23 -24 -25
leaf_value=-0.096474179308095043 0.18876431274617211 0.143689856265869 -0.15044692696527867 0.17501106405629452 0.097894245401794214 -0.044209764258601035 0.081705699886664221 -0.010066300640278469 0.17086014932148202 0.13736341733368032 -0.13652837099001094 0.16774140212543387 -0.075529102356094419 0.16008236847919793 0.10633194938475674 0.16663206228029964 0.11772486910017299 0.13056423613539417 0.16922876604841611 0.18104604961961707 0.18447170243358321 0.19747616569293386 0.17278900390737506 0.18922663553510982
leaf_weight=6927.0279268473387 7989.8531887978315 770.56571242213249 10140.11568659544 854.44807556271553 155.88103531301022 9225.8654891699553 536.02882239222527 2606.2073159366846 5084.4734024256468 1451.5898181349039 9829.9206772744656 2469.2479535937309 2653.8691094815731 725.9154756218195 513.94252778589725 279.97206692397594 103.39064598083496 156.65678319334984 121.31889778375626 966.72545266151428 160.54176637530327 1080.0406976640224 253.34729215502739 679.84051659703255
leaf_count=19999 3803 558 34926 383 176 22512 687 5599 3686 1184 32661 1293 7225 424 553 156 100 134 61 385 61 449 120 313
internal_value=0 -0.0781453 -0.0936591 -0.0517929 -0.139622 -0.0608431 0.136062 -0.0366891 0.177382 0.162868 -0.143596 0.184999 -0.0906725 0.157923 0.0937598 0.169639 0.153442 0.11427 0.147164 0.188975 0.166342 0.189762 0.16337 0.194289
internal_weight=0 45631.7 42550 22267.4 20282.6 21413 3081.66 11832.1 20105.1 6919.43 19970 13185.7 9580.9 2031.69 1049.97 5467.84 383.363 312.538 891.885 10716.5 1139.8 9749.73 979.263 1759.88
internal_count=137448 126079 123615 55718 67897 55335 2464 28111 11369 5126 67587 6243 27224 1224 1240 3942 256 310 619 4950 605 4565 544 762
is_linear=0
shrinkage=0.11438


Tree=2
num_leaves=25
num_cat=0
split_feature=0 5 2 2 5 3 3 3 3 2 2 6 6 6 5 5 2 6 6 2 6 5 6 6
split_gain=12905.7 5075.85 2157.03 1556.48 1452.15 1435.98 763.814 659.8 615.443 568.508 484.591 168.911 114.562 89.884 88.7873 57.5131 17.4187 9.17943 7.41195 4.91577 3.51287 3.03217 2.96021 2.52729
threshold=1.0000000180025095e-35 inf 1.0000000180025095e-35 1.0000000180025095e-35 inf 1.0000000180025095e-35 1.0000000180025095e-35 1.0000000180025095e-35 1.0000000180025095e-35 1.0000000180025095e-35 1.0000000180025095e-35 1.0000000180025095e-35 1.0000000180025095e-35 1.0000000180025095e-35 1.0000000180025095e-35 1.0000000180025095e-35 1.0000000180025095e-35 1.0000000180025095e-35 1.0000000180025095e-35 1.0000000180025095e-35 1.0000000180025095e-35 1.0000000180025095e-35 1.0000000180025095e-35 1.0000000180025095e-35
decision_type=2 8 2 2 8 2 2 2 2 2 2 2 2 2 10 10 2 2 2 2 2 10 2 2
left_child=1 2 5 6 8 12 13 9 10 18 11 -2 -1 -3 -13 -14 -9 -5 -6 23 -12 -4 -8 -10
right_child=4 3 21 17 7 -7 22 16 19 -11 20 14 15 -15 -16 -17 -18 -19 -20 -21 -22 -23 -24 -25
leaf_value=-0.016090914288488214 0.069033408022053599 -0.08498846899375842 0.14994605577543638 0.12124448927508431 0.010261764110568406 0.18826673964639276 0.14854614844085789 0.17638743202147156 0.18098514557295833 0.12320736379244535 0.1523320457930307 0.092497163460689188 0.0040821188259724823 -0.070283339797246921 0.12974062169546061 -0.016012388679896138 0.12428236255359593 0.091917386987827601 0.00077390820728781258 0.1715224548815894 0.16374146173650597 0.16756997583083763 0.12040584463585556 0.19387507846285018
leaf_weight=10779.2434681952 4287.6440181136131 11138.471282601357 1086.8992501050234 383.51326693594456 2054.8722733557224 500.7707341760397 140.10277433693409 345.00730681419373 369.17166814208031 610.50094531476498 749.25637950003147 4927.5928192734718 9602.8249177783728 10625.798364698887 1008.8894405961037 2312.0731258839369 110.92358830571175 219.56958024203777 2264.044857352972 340.24290908873081 667.63685244321823 144.72226110100746 75.133145302534103 431.70984734594822
leaf_count=24125 5934 33439 590 323 4131 200 115 197 148 504 391 5767 19496 30382 854 5092 91 240 4764 122 282 57 77 127
internal_value=0 -0.0316254 0.00451296 -0.0707146 0.0818879 -0.00331932 -0.0756887 0.0320681 0.102878 0.0198922 0.0950199 0.0863324 -0.00754687 -0.0778091 0.0988266 0.000182801 0.163711 0.110567 0.00528808 0.18304 0.157708 0.152017 0.138723 0.187933
internal_weight=0 47009.1 24426.5 22582.6 18167.5 23194.9 21979.5 5385.35 12782.1 4929.42 11641 10224.1 22694.1 21764.3 5936.48 11914.9 455.931 603.083 4318.92 1141.12 1416.89 1231.62 215.236 800.882
internal_count=137448 114136 49560 64576 23312 48913 64013 9687 13625 9399 13228 12555 48713 63821 6621 24588 288 563 8895 397 673 647 192 275
is_linear=0
shrinkage=0.11438


Tree=3
num_leaves=25
num_cat=0
split_feature=7 1 2 3 5 5 3 2 3 5 2 2 5 5 1 5 5 5 1 1 5 3 3 1
split_gain=53849.2 16613.5 3356.02 2981.55 1288.8 962.677 358.118 196.068 153.349 145.288 131.482 69.014 67.5213 48.8075 26.306 24.4334 6.7334 6.34189 11.705 3.62112 2.39255 2.01146 1.62934 1.19508
threshold=1.0000000180025095e-35 1.0000000180025095e-35 1.0000000180025095e-35 1.0000000180025095e-35 inf inf 1.0000000180025095e-35 1.0000000180025095e-35 1.0000000180025095e-35 1.0000000180025095e-35 1.0000000180025095e-35 1.0000000180025095e-35 inf inf 1.0000000180025095e-35 inf inf 1.0000000180025095e-35 1.0000000180025095e-35 1.0000000180025095e-35 1.0000000180025095e-35 1.0000000180025095e-35 1.0000000180025095e-35 1.0000000180025095e-35
decision_type=2 2 2 2 8 8 2 2 2 10 2 2 8 8 2 8 8 10 2 2 10 2 2 2
left_child=1 2 3 5 8 -1 7 -6 9 10 -3 13 -4 17 -15 20 -5 23 -19 -17 22 -16 -13 -2
right_child=11 4 12 16 6 -7 -8 -9 -10 -11 -12 15 -14 14 21 19 -18 18 -20 -21 -22 -23 -24 -25
leaf_value=-0.091684116822932579 0.16406180317466462 0.085418346411082521 0.13030499795872477 0.18294660137969801 -0.018489281872187048 -0.12934407392644973 0.14557756572218125 0.10398593664743933 0.16811556497364549 0.13877037177320309 0.14937890724354019 0.14404339441167321 0.065687172869447669 0.15575872978955432 0.13898835389878259 0.1160667073985589 0.1541429272765619 0.17637602555833326 0.15628378606837884 0.13276869638916283 0.16058763885870059 0.12300083641622427 0.15525310705667086 0.16118924830208325
leaf_weight=17404.530294522643 6820.852687522769 3562.5837714523077 649.77400048077106 331.97549888491631 1872.9618885666132 18130.856909796596 222.03920377790928 188.18728788197041 524.71767005324364 1168.0119156092405 476.74346543848515 1217.9945218265057 313.69764149188995 4785.0652295351028 1232.5515791922808 483.63238057494164 156.10792827606201 1316.7672781944275 532.81463070213795 261.73352380096912 154.6717367619276 112.3384510576725 197.08695822954178 2623.5937279164791
leaf_count=50772 3527 4376 404 130 4373 63928 158 172 192 852 216 610 393 3547 936 389 113 591 244 170 55 84 79 1137
internal_value=0 -0.0690562 -0.101408 -0.107042 0.080233 -0.110899 0.00756093 -0.00730703 0.10918 0.103241 0.0929673 0.157538 0.109266 0.160003 0.151786 0.138984 0.173734 0.164463 0.170588 0.121932 0.147081 0.137653 0.145605 0.163264
internal_weight=0 45002.2 36986.9 36023.5 8015.25 35535.4 2283.19 2061.15 5732.06 5207.34 4039.33 19739.1 963.472 17424 6129.96 2315.12 488.083 11294 1849.58 745.366 1569.75 1344.89 1415.08 9444.45
internal_count=137448 126079 115740 114943 10339 114700 4703 4545 5636 5444 4592 11369 797 10066 4567 1303 243 5499 835 559 744 1020 689 4664
is_linear=0
shrinkage=0.11438


Tree=4
num_leaves=25
num_cat=0
split_feature=7 1 4 3 2 4 3 2 4 2 1 2 3 1 3 2 1 3 2 3 3 2 3 3
split_gain=43264.5 13254.5 4319.69 2303.44 1676.34 460.907 361.779 269.462 126.896 16.9103 9.85547 8.43233 5.21763 4.50096 3.79851 3.2112 3.05338 2.91178 1.66375 1.03826 0.682988 0.475156 0.440213 0.0193596
threshold=1.0000000180025095e-35 1.0000000180025095e-35 1.0000000180025095e-35 1.0000000180025095e-35 1.0000000180025095e-35 1.0000000180025095e-35 1.0000000180025095e-35 1.0000000180025095e-35 1.0000000180025095e-35 1.0000000180025095e-35 1.0000000180025095e-35 1.0000000180025095e-35 1.0000000180025095e-35 1.0000000180025095e-35 1.0000000180025095e-35 1.0000000180025095e-35 1.0000000180025095e-35 1.0000000180025095e-35 1.0000000180025095e-35 1.0000000180025095e-35 1.0000000180025095e-35 1.0000000180025095e-35 1.0000000180025095e-35 1.0000000180025095e-35
decision_type=2 2 2 2 2 2 2 2 2 2 2 2 2 2 2 2 2 2 2 2 2 2 2 2
left_child=1 2 3 4 -1 6 7 -3 9 10 20 23 16 18 -13 17 -11 -4 -10 -12 -2 22 -15 -7
right_child=8 5 15 -5 -6 11 -8 -9 13 12 19 14 -14 21 -16 -17 -18 -19 -20 -21 -22 -23 -24 -25
leaf_value=-0.10571260964844705 0.15032040337707367 0.044607632661581346 0.10225667855234637 0.16276439754891778 0.10169102483447452 0.13473224503210932 0.15691063436488129 0.13927941701219609 0.12281465771544424 0.12738397112783387 0.14398918431685537 0.10742032518079865 0.15423411934326431 0.12980701834177991 0.13316197909518843 0.091719026423573727 0.14011027235354256 0.12315540510302683 0.11578298648049509 0.1362247959685928 0.15564011189271781 0.12605716514667781 0.13737144859379063 0.13337348298599078
leaf_weight=34018.934634268284 10615.601539507508 5543.0255977362394 1004.9886364042759 433.30215474963188 517.59005036950111 952.52780167758465 457.08237172663212 423.36958087980747 1730.3762367516756 685.61724685132504 3168.5323354452848 267.46315820515156 157.90339501202106 835.19600616395473 104.21882574260235 367.28859828412533 385.23029333353043 95.509298071265221 590.42694826424122 242.56493327021599 325.42357052862644 409.42814765870571 114.43982331454754 160.26713986694813
leaf_count=113611 6301 8951 1089 208 429 627 210 206 1232 406 1693 205 54 526 56 343 181 60 415 125 132 247 57 84
internal_value=0 -0.0621163 -0.0912478 -0.0993162 -0.102604 0.0721134 0.0588387 0.0513255 0.143191 0.147702 0.148805 0.129554 0.134824 0.124087 0.114638 0.10098 0.131962 0.10407 0.121026 0.143437 0.150479 0.129314 0.130719 0.134537
internal_weight=0 44345.6 36437.6 34969.8 34536.5 7907.95 6423.48 5966.4 19260.7 15580.9 14352.1 1484.48 1228.75 3679.87 371.682 1467.79 1070.85 1100.5 2320.8 3411.1 10941 1359.06 949.636 1112.79
internal_count=137448 126079 115740 114248 114040 10339 9367 9157 11369 8892 8251 972 641 2477 261 1492 587 1149 1647 1818 6433 830 583 711
is_linear=0
shrinkage=0.11438


Tree=5
num_leaves=25
num_cat=0
split_feature=0 4 5 2 5 4 2 4 2 2 6 6 5 6 5 5 6 5 5 6 6 6 2 6
split_gain=7140.67 4419.76 2732.82 962.565 959.863 470.829 447.545 376.305 313.836 265.677 161.258 102.046 101.044 80.2579 41.083 20.6942 12.8235 12.6909 12.5378 12.1772 9.66772 5.49504 4.5759 3.24758
threshold=1.0000000180025095e-35 1.0000000180025095e-35 inf 1.0000000180025095e-35 inf 1.0000000180025095e-35 1.0000000180025095e-35 1.0000000180025095e-35 1.0000000180025095e-35 1.0000000180025095e-35 1.0000000180025095e-35 1.0000000180025095e-35 1.0000000180025095e-35 1.0000000180025095e-35 inf 1.0000000180025095e-35 1.0000000180025095e-35 1.0000000180025095e-35 1.0000000180025095e-35 1.0000000180025095e-35 1.0000000180025095e-35 1.0000000180025095e-35 1.0000000180025095e-35 1.0000000180025095e-35
decision_type=2 2 8 2 8 2 2 2 2 2 2 2 10 2 8 10 2 10 10 2 2 2 2 2
left_child=1 2 3 11 5 8 13 9 10 16 17 15 -12 -4 -3 -1 -6 -2 -13 -9 22 -8 -7 -16
right_child=4 14 6 -5 7 20 21 19 -10 -11 12 18 -14 -15 23 -17 -18 -19 -20 -21 -22 -23 -24 -25
leaf_value=-0.021970105566603282 0.042194065729388934 0.11661320175971378 -0.073528915716508506 0.1239968622246559 0.0048880015006589356 0.12570516961439543 0.087006507613142062 0.073013634316987347 0.13635722133527692 0.10368164242875012 0.068943660236046103 -0.00069341125529670002 0.11035130510025147 -0.058944223528836152 0.095295163368922672 -0.010544524071933769 -0.0083417651593918497 0.059831731663282803 -0.010293087556646629 0.098324583017229794 0.13535927826829594 0.054143407595278213 0.11001360823897015 0.084040215113016209
leaf_weight=7017.0629238188267 3082.3853790611029 1841.7884018272161 10057.233485937119 723.3692325502634 1828.2149728685617 699.32724986970425 192.91312961280346 547.18612042069435 844.75229713320732 338.29518175125122 4296.2593941837549 8822.4235441535711 939.60346756875515 9694.1865155547857 778.20554645359516 2944.0291054993868 2014.9165941029787 645.47898752987385 2229.8229907751083 455.83043396472931 1146.5160577148199 101.63634844124317 372.71119244396687 589.46520981192589
leaf_count=16946 4769 1285 32929 398 3848 417 178 601 370 263 5523 19076 835 29935 770 6778 4561 896 5077 414 562 125 253 639
internal_value=0 -0.0238872 -0.0338228 -0.00573145 0.062739 0.0804734 -0.0642836 0.0215982 0.0697104 0.00650576 0.0634295 -0.0101973 0.0763745 -0.0663706 0.105462 -0.0185932 -0.00204824 0.045248 -0.00263017 0.0845164 0.128058 0.0756669 0.12025 0.0904443
internal_weight=0 44992.1 41782.7 21736.7 17211.5 12027 20046 5184.44 9808.48 4181.43 8963.73 21013.3 5235.86 19751.4 3209.46 9961.09 3843.13 3727.86 11052.2 1003.02 2218.55 294.549 1072.04 1367.67
internal_count=137448 114136 111442 48275 23312 13625 63167 9687 12393 8672 12023 47877 6358 62864 2694 23724 8409 5665 24153 1015 1232 303 670 1409
is_linear=0
shrinkage=0.11438


Tree=6
num_leaves=25
num_cat=0
split_feature=7 1 4 0 3 3 4 3 0 4 0 0 1 1 3 0 0 1 0 3 3 0 3 3
split_gain=34070 9706.18 2929.55 1887.48 797.986 570.911 314.207 303.716 237.961 192.491 120.18 24.0082 13.9111 12.0605 7.5992 7.36008 7.20574 4.5867 3.92071 1.76005 0.914734 0.353739 0.814524 0.269843
threshold=1.0000000180025095e-35 1.0000000180025095e-35 1.0000000180025095e-35 1.0000000180025095e-35 1.0000000180025095e-35 1.0000000180025095e-35 1.0000000180025095e-35 1.0000000180025095e-35 1.0000000180025095e-35 1.0000000180025095e-35 1.0000000180025095e-35 1.0000000180025095e-35 1.0000000180025095e-35 1.0000000180025095e-35 1.0000000180025095e-35 1.0000000180025095e-35 1.0000000180025095e-35 1.0000000180025095e-35 1.0000000180025095e-35 1.0000000180025095e-35 1.0000000180025095e-35 1.0000000180025095e-35 1.0000000180025095e-35 1.0000000180025095e-35
decision_type=2 2 2 2 2 2 2 2 2 2 2 2 2 2 2 2 2 2 2 2 2 2 2 2
left_child=1 2 3 4 -1 -5 7 8 -3 10 13 -4 14 -2 -12 -9 -8 18 -11 -13 -14 -19 -23 -18
right_child=9 6 11 5 -6 -7 16 15 -10 17 12 19 20 -15 -16 -17 23 21 -20 -21 -22 22 -24 -25
leaf_value=-0.10023156391408367 0.14474542014816796 0.072176090719711053 0.066310362867242942 -0.031106801690412751 0.1459368921456258 0.14893984973042487 0.10010468715487081 0.12110547325503336 0.024918595616771549 0.10648305764629988 0.11481646663724841 0.094035426960191015 0.12784686793000047 0.1341414121806008 0.1381906625750339 0.15288480183760236 0.11583882752274376 0.10896736555439875 0.096560962703113859 0.11186099477143369 0.13611391798896819 0.114427755713976 0.10345754337545295 0.12073267650134299
leaf_weight=28852.659032151103 8336.9044270664454 2274.0130818784237 728.76781263947487 4696.8200071901083 173.31241276860237 242.29336000978947 551.82766303420067 141.77253514528275 3602.1870592236519 1296.8592684417963 2808.4593131095171 596.79469935595989 1802.6501578092575 1687.1941503286362 194.57400918006897 291.13474476337433 638.50800107419491 538.44124609231949 870.92115139961243 82.481842577457428 193.94118042290211 614.12719804048538 103.46444061398506 191.64634031057358
leaf_count=102275 4872 3157 894 11765 98 110 460 99 6000 964 1913 545 1001 941 83 111 408 376 683 53 82 382 72 104
internal_value=0 -0.0556166 -0.0809371 -0.0876391 -0.0987617 -0.0222744 0.0608383 0.0500182 0.0432066 0.130158 0.135736 0.0807298 0.12125 0.142961 0.116331 0.142477 0.110235 0.105683 0.102497 0.0961999 0.12865 0.111183 0.112846 0.116969
internal_weight=0 43064.2 35373.1 33965.1 29026 4939.11 7691.09 6309.11 5876.2 18447.5 15023.7 1408.04 4999.62 10024.1 3003.03 432.907 1381.98 3423.81 2167.78 679.277 1996.59 1256.03 717.592 830.154
internal_count=137448 126079 115740 114248 102373 11875 10339 9367 9157 11369 8892 1492 3079 5813 1996 210 972 2477 1647 598 1083 830 454 512
is_linear=0
shrinkage=0.11438


Tree=7
num_leaves=25
num_cat=0
split_feature=0 4 5 5 3 4 3 3 3 4 6 5 6 6 5 6 6 4 6 5 5 5 6 3
split_gain=4598.93 2878.44 2014.8 793.347 663.87 364.974 353.203 301.638 262.965 227.957 113.433 87.2055 86.1348 55.6184 41.6177 15.7683 11.491 9.82088 9.53014 6.45716 4.11497 3.40429 2.95212 6.31489
threshold=1.0000000180025095e-35 1.0000000180025095e-35 inf inf 1.0000000180025095e-35 1.0000000180025095e-35 1.0000000180025095e-35 1.0000000180025095e-35 1.0000000180025095e-35 1.0000000180025095e-35 1.0000000180025095e-35 1.0000000180025095e-35 1.0000000180025095e-35 1.0000000180025095e-35 inf 1.0000000180025095e-35 1.0000000180025095e-35 1.0000000180025095e-35 1.0000000180025095e-35 1.0000000180025095e-35 1.0000000180025095e-35 1.0000000180025095e-35 1.0000000180025095e-35 1.0000000180025095e-35
decision_type=2 2 8 8 2 2 2 2 2 2 2 10 2 2 8 2 2 2 2 10 10 10 2 2
left_child=1 2 4 5 12 6 10 9 13 16 -2 -12 21 -4 -3 -11 -5 -9 20 -14 -7 -1 23 -16
right_child=3 14 8 7 -6 18 -8 17 -10 15 11 -13 19 -15 22 -17 -18 -19 -20 -21 -22 -23 -24 -25
leaf_value=-0.015140811679722853 0.037523357990163833 0.10002798069589303 -0.061677528454841722 0.00063951203061081939 0.14045284878371123 0.10101561608620084 0.14008768124593654 0.1244933125183635 0.087542510918663288 0.046900275808842262 0.056884243959916092 0.096437242956282865 0.0023483374560192378 -0.049306718062299318 0.074542597816485923 0.079654387847485922 -0.011812001357532204 0.08848985197213273 0.11973857547805364 -0.004587596298474347 0.12213188052092966 -0.010432879943180389 0.066687451494206865 0.11333046896482835
leaf_weight=7030.3435874581337 3743.2899992316961 1711.9785734564066 9681.7485802620649 1872.3814408183098 412.7899571210146 842.61526784300804 648.49412021040916 225.79994897544384 169.39308187365532 410.80323445796967 4184.12554217875 883.19586691260338 8735.6453667730093 9342.9805280566216 682.62243826687336 361.49692368507385 2011.1571892797947 176.67528657615185 1042.1379569172859 2197.8257145434618 140.9272096157074 2813.5584503561258 564.38350856304169 59.716496735811234
leaf_count=17100 5741 1285 33007 3933 176 597 244 142 167 514 5575 833 19167 29993 733 355 4597 146 562 5081 73 6751 639 37
internal_value=0 -0.0194421 -0.0274953 0.0514324 -0.00318023 0.0680556 0.0586198 0.0136899 -0.054339 0.00547769 0.0526234 0.063778 -0.00603383 -0.0556023 0.0882947 0.0622318 -0.00580872 0.108689 0.112117 0.000954089 0.104041 -0.0137952 0.0729225 0.0776628
internal_weight=0 43403 40384.3 16543.1 21190.2 11484.8 9459.11 5058.31 19194.1 4655.84 8810.61 5067.32 20777.4 19024.7 3018.7 772.3 3883.54 402.475 2025.68 10933.5 983.542 9843.9 1306.72 742.339
internal_count=137448 114136 111442 23312 48275 13625 12393 9687 63167 9399 12149 6408 48099 63000 2694 869 8530 288 1232 24248 670 23851 1409 770
is_linear=0
shrinkage=0.11438


Tree=8
num_leaves=25
num_cat=0
split_feature=7 2 3 5 6 5 5 2 6 5 5 5 6 5 6 5 3 6 6 5 6 6 3 6
split_gain=27167.7 2488.23 2170.38 1813.69 630.593 79.0202 78.6924 65.1142 57.9998 28.44 21.9035 13.3108 13.2411 9.84341 8.42806 7.14471 6.7904 4.94613 4.11788 2.77702 1.44784 1.02508 0.899028 0.695112
threshold=1.0000000180025095e-35 1.0000000180025095e-35 1.0000000180025095e-35 inf 1.0000000180025095e-35 1.0000000180025095e-35 inf 1.0000000180025095e-35 1.0000000180025095e-35 inf inf inf 1.0000000180025095e-35 1.0000000180025095e-35 1.0000000180025095e-35 1.0000000180025095e-35 1.0000000180025095e-35 1.0000000180025095e-35 1.0000000180025095e-35 1.0000000180025095e-35 1.0000000180025095e-35 1.0000000180025095e-35 1.0000000180025095e-35 1.0000000180025095e-35
decision_type=2 2 2 8 2 10 8 2 2 8 8 8 2 10 2 10 2 2 2 10 2 2 2 2
left_child=1 2 3 4 13 -6 17 9 -5 15 19 -4 -12 -1 -8 20 -11 -3 -17 21 -2 -9 -22 -13
right_child=7 6 11 8 5 -7 14 10 -10 16 12 23 -14 -15 -16 18 -18 -19 -20 -21 22 -23 -24 -25
leaf_value=-0.061413239942089477 0.12576001961846522 0.099264786456907186 0.13118924328200737 -0.092915743704586023 -0.024336850353175236 -0.0014524405449146459 0.038163541051091994 0.10340260123165629 -0.079931935271325583 0.11614968553481606 0.093210688893617319 0.10614220769165021 0.057757151951606148 -0.053025548252650261 0.067814845116862713 0.13694275661368296 0.094466891824873542 0.1146176502134514 0.12512895398222493 0.12456389597851833 0.12237918422169249 0.1103773679508061 0.13043496121007381 0.094872463181741681
leaf_weight=6903.1526080816984 3854.8993074148893 558.52464559674263 591.82924537360668 9016.7060083895922 9308.725187599659 2505.336997166276 265.12996233999729 648.64017371833324 8987.8339455723763 5600.06142359972 441.33989500999451 170.72679206728935 200.39457367360592 2490.9637230485678 237.98227050900459 1008.0909335166216 195.55564239621162 539.90006442368031 625.52149619162083 121.53939877450466 4219.371408328414 479.44129279255867 189.37558472156525 123.32295446097851
leaf_count=20296 2165 394 267 35310 22843 5613 347 414 32991 4415 342 132 217 7225 252 488 152 304 347 55 2420 275 79 105
internal_value=0 -0.0501528 -0.0557366 -0.0597363 -0.0370712 -0.0194839 0.089652 0.119365 -0.0864342 0.121781 0.099316 0.121307 0.0821396 -0.0591891 0.0521892 0.125507 0.115418 0.106811 0.132419 0.108137 0.124141 0.106367 0.122725 0.101416
internal_weight=0 41700.1 40098.6 39212.7 21208.2 11814.1 1601.54 17584.2 18004.5 15692.9 1891.36 885.879 641.734 9394.12 503.112 9897.26 5795.62 1098.42 1633.61 1249.62 8263.65 1128.08 4408.75 294.05
internal_count=137448 126079 124782 124278 55977 28456 1297 11369 68301 10066 1303 504 559 27521 599 5499 4567 698 835 744 4664 689 2499 237
is_linear=0
shrinkage=0.11438


Tree=9
num_leaves=25
num_cat=0
split_feature=1 4 2 3 6 3 4 2 6 6 4 2 6 2 3 6 6 2 6 3 3 6 6 6
split_gain=6212.31 2295.84 1208.86 1034.43 92.7249 80.4681 82.9927 111.041 53.829 17.6307 6.89303 4.09132 3.83206 3.70425 2.48898 2.54844 1.82387 1.35684 1.0566 0.742913 0.182635 0.129986 0.0494648 0.0305059
threshold=1.0000000180025095e-35 1.0000000180025095e-35 1.0000000180025095e-35 1.0000000180025095e-35 1.0000000180025095e-35 1.0000000180025095e-35 1.0000000180025095e-35 1.0000000180025095e-35 1.0000000180025095e-35 1.0000000180025095e-35 1.0000000180025095e-35 1.0000000180025095e-35 1.0000000180025095e-35 1.0000000180025095e-35 1.0000000180025095e-35 1.0000000180025095e-35 1.0000000180025095e-35 1.0000000180025095e-35 1.0000000180025095e-35 1.0000000180025095e-35 1.0000000180025095e-35 1.0000000180025095e-35 1.0000000180025095e-35 1.0000000180025095e-35
decision_type=2 2 2 2 2 2 2 2 2 2 2 2 2 2 2 2 2 2 2 2 2 2 2 2
left_child=1 2 3 4 -1 6 7 8 -2 13 12 20 -7 -8 15 -4 -12 -11 -9 21 22 -13 -3 -5
right_child=5 11 14 23 -6 10 9 18 -10 17 16 19 -14 -15 -16 -17 -18 -19 -20 -21 -22 -23 -24 -25
leaf_value=-0.036813171773901761 0.051618693559968468 0.075507356967520117 0.083969859671145744 0.12067023469419205 -0.025934836294673497 0.10286119110528542 0.084379707700885043 0.11532851285789439 0.070475083009229417 0.10329845752831862 0.099761468584547014 0.06425482196841463 0.12087564472177403 0.067611018388338995 0.1081713340913503 0.095405327597057776 0.082899091290184898 0.09381119333345167 0.10619849399812521 0.076478153826896419 0.080394534231670992 0.067460642008209254 0.076569688455058377 0.12232258900950577
leaf_weight=19998.153668507934 3342.9132818430662 1295.8758198022842 594.55187359452248 319.69317050278187 21032.262484237552 280.63999682664871 597.10044300556183 368.44301004707813 4860.122568577528 919.16045346856117 197.71076495945454 431.1819222420454 343.66573268175125 242.27539654076099 95.458394303917885 446.36739255487919 145.80398307740688 251.09242728352547 301.55835482478142 90.871550902724266 129.27478384971619 268.51394106447697 1028.5544603765011 269.31821063160896
leaf_count=61065 4765 1287 501 177 58847 187 512 201 5879 641 130 424 173 227 54 334 114 178 186 79 106 255 988 138
internal_value=0 -0.0188595 -0.0258984 -0.0290764 -0.0312369 0.0740119 0.0712011 0.0664475 0.0627907 0.0921896 0.105617 0.0739046 0.112778 0.0795396 0.0904947 0.0888736 0.0926043 0.101263 0.111219 0.0667487 0.0762102 0.0654851 0.0759774 0.121426
internal_weight=0 46000.1 42755.8 41619.4 41030.4 11850.5 10882.7 8873.04 8203.04 2009.63 967.82 3244.27 624.306 839.376 1136.38 1040.92 343.515 1170.25 670.001 790.567 2453.71 699.696 2324.43 589.011
internal_count=137448 124255 121116 120227 119912 13193 12589 11031 10644 1558 604 3139 360 739 889 835 244 819 387 758 2381 679 2275 315
is_linear=0
shrinkage=0.11438


Tree=10
num_leaves=24
num_cat=0
split_feature=7 1 4 3 2 4 4 3 2 2 1 2 2 1 3 1 3 3 3 3 2 3 2
split_gain=21726.7 5777.29 1626.48 884.956 776.691 300.035 190.47 146.642 143.021 34.6271 25.7068 12.0161 6.48103 4.36296 4.32228 3.74739 3.14818 1.21226 1.0146 0.27771 0.103275 0.00556691 0.689164
threshold=1.0000000180025095e-35 1.0000000180025095e-35 1.0000000180025095e-35 1.0000000180025095e-35 1.0000000180025095e-35 1.0000000180025095e-35 1.0000000180025095e-35 1.0000000180025095e-35 1.0000000180025095e-35 1.0000000180025095e-35 1.0000000180025095e-35 1.0000000180025095e-35 1.0000000180025095e-35 1.0000000180025095e-35 1.0000000180025095e-35 1.0000000180025095e-35 1.0000000180025095e-35 1.0000000180025095e-35 1.0000000180025095e-35 1.0000000180025095e-35 1.0000000180025095e-35 1.0000000180025095e-35 1.0000000180025095e-35
decision_type=2 2 2 2 2 2 2 2 2 2 2 2 2 2 2 2 2 2 2 2 2 2 2
left_child=1 2 3 4 -1 9 7 8 -3 10 18 19 17 20 -13 -11 -12 -4 -2 -8 -7 22 -15
right_child=5 6 12 -5 -6 13 11 -9 -10 15 16 14 -14 21 -16 -17 -18 -19 -20 -21 -22 -23 -24
leaf_value=-0.074640321195360404 0.12151080544721833 0.029814628498098929 0.063164417342371534 0.11160799897255613 0.075132470972717913 0.073613822669842954 0.095415420679533999 0.11021859295697102 0.10636835391829516 0.090341031898361693 0.1100254151734894 0.059118449019735599 0.045123653048638905 0.080455090644500918 0.090725817481846882 0.10529605103487756 0.094461700843132643 0.078485463561441163 0.11408389819580658 0.089448473297253431 0.071641709897198314 0.081690028298489217 0.087377015811824651
leaf_weight=31081.554859608412 9748.0708825588226 5406.5121500045061 930.8331395983696 345.46667957305908 459.68143510818481 1377.579994276166 811.80270501971245 353.67900805175304 339.31351320445538 593.76492495834827 2684.6124282777309 206.29753735661507 300.2964064925909 641.31046105921268 78.004695475101471 347.49475736916065 181.52979217469692 72.852040037512779 246.73628063499928 116.71451286971569 464.55343250930309 131.55955864489079 266.323735460639
leaf_count=113611 6301 8951 1089 208 429 1232 627 210 206 435 1693 205 343 526 56 206 125 60 132 84 415 104 200
internal_value=0 -0.0450668 -0.065343 -0.0704633 -0.0724575 0.110031 0.0469671 0.0387355 0.0343354 0.117039 0.118589 0.0883656 0.0598657 0.0764595 0.0677906 0.0958621 0.10904 0.0642765 0.121327 0.0946654 0.0731165 0.0823854 0.0824862
internal_weight=0 40503 33190.7 31886.7 31541.2 16683.5 7312.32 6099.5 5745.83 13802.2 12860.9 1212.82 1303.98 2881.33 284.302 941.26 2866.14 1003.69 9994.81 928.517 1842.13 1039.19 907.634
internal_count=137448 126079 115740 114248 114040 11369 10339 9367 9157 8892 8251 972 1492 2477 261 641 1818 1149 6433 711 1647 830 726
is_linear=0
shrinkage=0.11438


Tree=11
num_leaves=25
num_cat=0
split_feature=5 4 4 2 3 2 3 6 6 6 2 5 5 2 3 3 6 6 5 5 6 3 3 6
split_gain=2336.78 1087.6 914.109 711.258 591.685 353.73 308.205 145.279 26.0696 5.83668 5.96342 4.64176 3.46161 3.45584 3.29697 3.14394 3.81173 2.49512 2.44693 2.33831 1.69216 0.991481 0.896127 0.374931
threshold=inf 1.0000000180025095e-35 1.0000000180025095e-35 1.0000000180025095e-35 1.0000000180025095e-35 1.0000000180025095e-35 1.0000000180025095e-35 1.0000000180025095e-35 1.0000000180025095e-35 1.0000000180025095e-35 1.0000000180025095e-35 1.0000000180025095e-35 1.0000000180025095e-35 1.0000000180025095e-35 1.0000000180025095e-35 1.0000000180025095e-35 1.0000000180025095e-35 1.0000000180025095e-35 1.0000000180025095e-35 1.0000000180025095e-35 1.0000000180025095e-35 1.0000000180025095e-35 1.0000000180025095e-35 1.0000000180025095e-35
decision_type=8 2 2 2 2 2 2 2 2 2 2 10 10 2 2 2 2 2 10 10 2 2 2 2
left_child=1 3 5 4 7 6 8 12 -2 10 21 -9 -1 15 19 16 -4 -6 -11 23 -7 -3 -15 -5
right_child=2 9 13 14 17 20 -8 11 -10 18 -12 -13 -14 22 -16 -17 -18 -19 -20 -21 -22 -23 -24 -25
leaf_value=-0.0034121159959449947 -0.042215964736439363 0.082283159521569407 0.041593028493967253 0.093149500147459124 0.108036012883111 0.062449062375520115 0.077629619952026455 0.013583204837358242 -0.034089409087651741 0.087248610699339035 0.067730746034049868 0.018716070587667635 0.00097419686315175383 0.035709035461845964 0.11518577360092626 0.066079665948208272 0.053487467643378431 0.12193050957043637 0.10221371718913548 0.11162504755371878 0.04927266183243828 0.094203929926308563 0.049110099669359655 0.097808613448648093
leaf_weight=9078.4387139081955 10281.797282457352 1035.8838014006615 740.77825886011124 517.70148850977421 328.28142675757408 332.07700654864311 305.32724356651306 11874.049623563886 10376.242847129703 1433.1788251101971 446.40258078277111 2860.1510052829981 3177.770348533988 416.99431295692921 152.94455170631409 126.42136208713055 672.44092236459255 348.67269712686539 158.77802665531635 129.05692408978939 206.98974213004112 100.10027645528316 77.398232012987137 400.98964242637157
leaf_count=21592 36630 859 940 361 189 332 272 24480 34371 1087 403 5875 7608 508 75 117 775 156 101 70 234 67 84 262
internal_value=0 0.020303 -0.0271627 0.0133152 0.00957509 -0.0340955 -0.036448 0.00692607 -0.0381341 0.0838513 0.0789319 0.0145796 -0.00227484 0.046127 0.0994983 0.0487986 0.0472527 0.115193 0.0887412 0.0972084 0.0573896 0.0833336 0.037807 0.0951831
internal_weight=0 32042.4 23536.5 28868.1 27667.4 21502.4 20963.4 26990.4 20658 3174.34 1582.39 14734.2 12256.2 2034.03 1200.69 1539.64 1413.22 676.954 1591.96 1047.75 539.067 1135.98 494.393 918.691
internal_count=137448 63185 74263 60668 59900 71839 71273 59555 71001 2517 1329 30355 29200 2424 768 1832 1715 345 1188 693 566 926 592 623
is_linear=0
shrinkage=0.11438


Tree=12
num_leaves=25
num_cat=0
split_feature=7 4 3 2 6 4 2 6 3 2 3 6 6 3 2 6 6 3 6 6 3 3 2 2
split_gain=17504.8 2006.57 1028.77 901.938 407.456 320.346 41.1336 22.5263 9.98295 12.0664 8.4051 7.87457 5.1195 3.87022 3.15228 2.69372 1.3615 0.394451 0.293435 0.172435 0.6891 0.530172 0.241961 0.0224753
threshold=1.0000000180025095e-35 1.0000000180025095e-35 1.0000000180025095e-35 1.0000000180025095e-35 1.0000000180025095e-35 1.0000000180025095e-35 1.0000000180025095e-35 1.0000000180025095e-35 1.0000000180025095e-35 1.0000000180025095e-35 1.0000000180025095e-35 1.0000000180025095e-35 1.0000000180025095e-35 1.0000000180025095e-35 1.0000000180025095e-35 1.0000000180025095e-35 1.0000000180025095e-35 1.0000000180025095e-35 1.0000000180025095e-35 1.0000000180025095e-35 1.0000000180025095e-35 1.0000000180025095e-35 1.0000000180025095e-35 1.0000000180025095e-35
decision_type=2 2 2 2 2 2 2 2 2 2 2 2 2 2 2 2 2 2 2 2 2 2 2 2
left_child=1 2 3 4 -1 6 10 8 9 -3 11 -2 -5 16 17 -12 -8 -9 -4 20 23 22 -21 -7
right_child=5 7 18 12 -6 19 13 14 -10 -11 15 -13 -14 -15 -16 -17 -18 -19 -20 21 -22 -23 -24 -25
leaf_value=-0.065574924017522185 0.11420811660341151 0.052518243596441652 0.095680131697890247 0.066617476896798214 -0.041005167405887381 0.065252958055468574 0.085800181456095442 0.075668661456628802 0.076727031900860151 0.022601396445459845 0.084073168692926192 0.10833394740647699 0.085759847241196646 0.10637024084598359 0.060838888092415958 0.10337149632631143 0.075829886571817884 0.066949677696039017 0.10063618876558221 0.064229487606288757 0.073828698223738026 0.055430070827202686 0.068349671390095165 0.066290148065887275
leaf_weight=16518.705602154136 5899.988302975893 740.2920598089695 319.69353544712067 381.27369338274002 18972.253048673272 982.64271853864193 455.64882560074329 904.15883356332779 154.0879819393158 231.54501052200794 185.3242222070694 6044.1774263083935 351.09873536229134 95.107143670320511 259.78618527948856 193.35125191509724 295.31849682331085 73.39310459792614 305.78604996204376 838.19616417586803 145.27753795683384 78.849003121256828 239.82318849861622 378.65554267168045
leaf_count=61955 3875 876 223 361 60607 923 341 840 127 303 141 4119 274 54 252 116 246 66 195 789 123 79 215 348
internal_value=0 -0.0407842 -0.0473367 -0.0498481 -0.0524408 0.101712 0.109029 0.0613855 0.049679 0.0453904 0.110704 0.111236 0.0757943 0.0846324 0.0720379 0.0939269 0.0818794 0.0750141 0.0981031 0.0655341 0.0663406 0.0644839 0.0651461 0.0655415
internal_weight=0 39212.1 36848.8 36223.3 35491 15832.4 13168.9 2363.26 1125.93 971.837 12322.8 11944.2 732.372 846.074 1237.34 378.675 750.967 977.552 625.48 2663.44 1506.58 1156.87 1078.02 1361.3
internal_count=137448 126079 123615 123197 122562 11369 8892 2464 1306 1179 8251 7994 635 641 1158 257 587 906 418 2477 1394 1083 1004 1271
is_linear=0
shrinkage=0.11438


Tree=13
num_leaves=25
num_cat=0
split_feature=7 1 0 5 2 5 0 5 0 0 5 2 2 2 2 5 5 5 5 1 2 1 0 5
split_gain=14303.5 4276.68 1484.69 720.796 329.866 162.932 141.774 135.641 114.449 97.6352 95.387 65.1226 59.5007 56.7992 54.228 49.301 39.142 34.5718 34.1193 31.0986 25.6218 14.795 9.94519 8.91291
threshold=1.0000000180025095e-35 1.0000000180025095e-35 1.0000000180025095e-35 inf 1.0000000180025095e-35 inf 1.0000000180025095e-35 1.0000000180025095e-35 1.0000000180025095e-35 1.0000000180025095e-35 inf 1.0000000180025095e-35 1.0000000180025095e-35 1.0000000180025095e-35 1.0000000180025095e-35 inf 1.0000000180025095e-35 inf inf 1.0000000180025095e-35 1.0000000180025095e-35 1.0000000180025095e-35 1.0000000180025095e-35 inf
decision_type=2 2 2 8 2 8 2 10 2 2 8 2 2 2 2 8 10 8 8 2 2 2 2 8
left_child=1 2 4 7 5 -1 12 9 -5 -3 14 -10 18 -11 16 -6 -4 21 -2 -20 -12 -8 -9 -14
right_child=6 3 10 8 15 -7 17 22 11 13 20 -13 23 -15 -16 -17 -18 -19 19 -21 -22 -23 -24 -25
leaf_value=-0.05844391232011114 0.11051727780475031 0.081414225473769739 0.0023110436017735659 0.017870616665989436 0.072153181774360073 -0.07659657413630154 0.079100059198391651 0.11572848058231713 -0.044282189849876585 0.037480246218753475 -0.024779902404396929 0.04642305009521161 0.079998469371833109 0.095076445444105762 0.067537489201815459 -0.016555380164220389 0.035080867178226373 0.065009123983669079 0.10066245937758041 0.071466010429341503 0.026489181674503526 0.094284412202308196 0.093740704358333926 0.053143109845239941
leaf_weight=13038.25638513267 5443.3210248500109 1390.3408771529794 2663.9250525832176 935.80297151207924 241.15204477310181 12838.535778254271 2066.5185439959168 443.77831947803497 1077.88103954494 2178.2148326337337 1633.1765968352556 114.55949772894382 422.26776655763388 249.67915827035904 214.65870894491673 124.16613572835922 580.83631503582001 1612.5199617743492 3372.6774606257677 555.96449676156044 138.32679484784603 1413.866491034627 683.80242630839348 261.99305938184261
leaf_count=43892 3280 1503 5950 1871 211 58952 1681 342 2706 3061 5089 126 332 165 193 212 1060 1585 2735 535 181 950 565 271
internal_value=0 -0.0367728 -0.0548351 0.0435875 -0.0659265 -0.0674502 0.0944025 0.0675379 -0.0120707 0.0572443 0.000807583 -0.035568 0.102277 0.0434033 0.0118604 0.0420025 0.00817708 0.078854 0.104654 0.0965307 -0.0207766 0.0852685 0.102394 0.069716
internal_weight=0 38547.1 31473 7074.06 26242.1 25876.8 15149.1 4945.82 2128.24 3818.23 5230.92 1192.44 10056.2 2427.89 3459.42 365.318 3244.76 5092.9 9371.96 3928.64 1771.5 3480.39 1127.58 684.261
internal_count=137448 126079 115740 10339 103267 102844 11369 5636 4703 4729 12473 2832 7153 3226 7203 423 7010 4216 6550 3270 5270 2631 907 603
is_linear=0
shrinkage=0.11438


Tree=14
num_leaves=25
num_cat=0
split_feature=7 1 5 3 2 5 5 3 2 5 3 5 2 2 1 5 5 5 1 3 1 5 3 5
split_gain=11721.8 3443.31 584.01 539.818 443.967 313.478 116.358 68.4169 60.4965 43.0856 33.2973 31.4047 27.9155 27.0974 27.024 22.5924 15.1641 6.61191 6.87859 4.26099 3.66318 3.42029 2.11072 2.11037
threshold=1.0000000180025095e-35 1.0000000180025095e-35 inf 1.0000000180025095e-35 1.0000000180025095e-35 inf 1.0000000180025095e-35 1.0000000180025095e-35 1.0000000180025095e-35 inf 1.0000000180025095e-35 inf 1.0000000180025095e-35 1.0000000180025095e-35 1.0000000180025095e-35 inf inf 1.0000000180025095e-35 1.0000000180025095e-35 1.0000000180025095e-35 1.0000000180025095e-35 1.0000000180025095e-35 1.0000000180025095e-35 1.0000000180025095e-35
decision_type=2 2 8 2 2 8 10 2 2 8 2 8 2 2 2 8 8 10 2 2 2 10 2 10
left_child=1 3 6 4 5 23 10 13 9 17 12 -6 -3 -4 22 21 -5 -2 -19 -16 -17 -10 -11 -1
right_child=8 2 7 16 11 -7 -8 -9 15 14 -12 -13 -14 -15 19 20 -18 18 -20 -21 -22 -23 -24 -25
leaf_value=-0.043277035929511105 0.093958304231859982 0.04605514695170472 -0.020307037912722571 0.10116123201538711 0.062133600190973366 -0.066089157844850269 0.09415871755776084 0.061040907169316233 0.073929471377058117 0.086546771894946709 0.096032262834252868 0.010575448438646964 0.083375742965599201 0.031801753988138462 0.06758143352968396 0.039287850746506099 0.052801540516270389 0.10769485696321612 0.088773763900956884 0.039119075623705236 0.059610889580689719 0.097919434902457053 0.067239100317029246 -0.040168864222680907
leaf_weight=12108.985322296619 6638.2152965739369 3256.5850933045149 1823.3521946668625 256.22360517084599 396.53974197804928 13871.692247435451 1088.336382240057 160.73642741143703 822.2492865100503 3979.780413582921 209.09180767089128 253.28340856730938 285.1693454682827 140.62731520831585 971.74915955960751 339.83346837759018 126.81503684818745 978.05733289569616 338.31373570859432 74.05656835436821 176.19104300439358 85.870111800730228 75.479626789689064 3740.7765639871359
leaf_count=38763 4664 4376 4373 159 375 63928 907 158 689 3479 137 370 216 172 936 389 136 591 244 84 170 55 68 12009
internal_value=0 -0.0333411 0.0392842 -0.0497862 -0.051488 -0.0535328 0.0612324 -0.0107041 0.0877231 0.0901649 0.0516785 0.0420376 0.0490601 -0.0165759 0.0819596 0.0653382 0.0851505 0.0954268 0.102832 0.0655659 0.0462269 0.0761979 0.0861874 -0.0425435
internal_weight=0 37718.2 6963.9 30754.3 30371.3 29721.5 4839.18 2124.72 14479.8 13055.7 3750.85 649.823 3541.75 1963.98 5101.07 1424.14 383.039 7954.59 1316.37 1045.81 516.025 908.119 4055.26 15849.8
internal_count=137448 126079 10339 115740 115445 114700 5636 4703 11369 10066 4729 745 4592 4545 4567 1303 295 5499 835 1020 559 744 3547 50772
is_linear=0
shrinkage=0.11438


Tree=15
num_leaves=25
num_cat=0
split_feature=0 4 5 5 2 3 4 3 2 3 5 2 2 3 4 5 2 2 4 2 4 5 3 2
split_gain=1377.87 611.377 566.165 329.892 203.459 171.553 121.388 127.894 83.2227 79.964 64.221 55.3547 48.6696 35.2716 30.2663 20.263 12.2422 10.5278 10.0866 1.98997 1.7092 1.27416 0.850842 0.285065
threshold=1.0000000180025095e-35 1.0000000180025095e-35 inf inf 1.0000000180025095e-35 1.0000000180025095e-35 1.0000000180025095e-35 1.0000000180025095e-35 1.0000000180025095e-35 1.0000000180025095e-35 1.0000000180025095e-35 1.0000000180025095e-35 1.0000000180025095e-35 1.0000000180025095e-35 1.0000000180025095e-35 inf 1.0000000180025095e-35 1.0000000180025095e-35 1.0000000180025095e-35 1.0000000180025095e-35 1.0000000180025095e-35 1.0000000180025095e-35 1.0000000180025095e-35 1.0000000180025095e-35
decision_type=2 2 8 8 2 2 2 2 2 2 10 2 2 2 2 8 2 2 2 2 2 10 2 2
left_child=1 2 4 6 5 -1 7 8 10 12 -2 13 14 -4 -5 21 20 -8 -14 -17 -11 23 -19 -3
right_child=3 15 11 9 -6 -7 17 -9 -10 16 -12 -13 18 -15 -16 19 -18 22 -20 -21 -22 -23 -24 -25
leaf_value=-0.004821890095820517 0.026413927128172941 0.055005739278599128 -0.032370730835315734 -0.0072145155743498814 0.072892021055176781 0.095685166454849438 0.079974210138210072 0.10114399011393557 0.083481884019235592 0.081831736246654782 0.054945053177411662 0.024382103464437244 0.053434526700623729 0.0295984898324263 0.024557545676502812 0.0361530502114931 0.020052936297027184 0.056293060466134782 0.018265056751386389 0.023560690957054681 0.061247100411906355 0.068032568986360592 0.069101042638147231 0.050474045797004742
leaf_weight=17963.902466505766 6020.7627259790897 933.30388598889112 15494.719903171062 3238.0052225738764 466.86418607085943 224.9619754254818 999.19672036916018 392.1235762834549 423.22323925048113 150.00127160549164 1245.6857470571995 232.09801341593266 232.70871326327324 121.10244530439377 446.32044722139835 887.80251452326775 70.179346352815628 355.8502259850502 197.00532965362072 201.43625947833061 81.414519235491753 93.09222386777401 83.843333624303341 225.47530189156532
leaf_count=47728 10138 967 62712 8289 398 149 807 244 322 120 1689 303 241 152 606 1149 91 351 263 260 77 85 74 233
internal_value=0 -0.0113314 -0.0151693 0.0308909 -0.00166511 -0.00357881 0.0428755 0.0374259 0.0341767 0.00505057 0.031305 -0.031066 0.000883047 -0.0318902 -0.00336564 0.0452323 0.0618994 0.0734841 0.0373108 0.0338243 0.0745898 0.0551582 0.0587354 0.054124
internal_weight=0 36844.8 34503.6 13936.3 18655.7 18188.9 9520.69 8081.8 7689.67 4415.63 7266.45 15847.9 4114.04 15615.8 3684.33 2341.11 301.595 1438.89 429.714 1089.24 231.416 1251.87 439.694 1158.78
internal_count=137448 114136 111442 23312 48275 47877 13625 12393 12149 9687 11827 63167 9399 62864 8895 2694 288 1232 504 1409 197 1285 425 1200
is_linear=0
shrinkage=0.11438


Tree=16
num_leaves=25
num_cat=0
split_feature=7 1 5 3 2 5 5 2 3 5 3 1 5 2 5 2 5 5 1 3 5 1 3 5
split_gain=9464.06 2577.84 426.118 378.314 301.037 212.394 97.5111 67.5248 45.9611 31.8411 27.0041 24.883 23.7184 22.1285 17.4711 17.1195 13.8607 6.38766 6.49842 5.14436 3.37785 3.24896 2.80143 1.60076
threshold=1.0000000180025095e-35 1.0000000180025095e-35 inf 1.0000000180025095e-35 1.0000000180025095e-35 inf 1.0000000180025095e-35 1.0000000180025095e-35 1.0000000180025095e-35 inf 1.0000000180025095e-35 1.0000000180025095e-35 inf 1.0000000180025095e-35 inf 1.0000000180025095e-35 inf 1.0000000180025095e-35 1.0000000180025095e-35 1.0000000180025095e-35 1.0000000180025095e-35 1.0000000180025095e-35 1.0000000180025095e-35 1.0000000180025095e-35
decision_type=2 2 8 2 2 8 10 2 2 8 2 2 8 2 8 2 8 10 2 2 10 2 2 10
left_child=1 3 6 4 5 23 10 9 15 17 13 22 -6 -3 20 -4 -5 -2 -19 -13 -9 -16 -11 -1
right_child=7 2 8 16 12 -7 -8 14 -10 11 -12 19 -14 -15 21 -17 -18 18 -20 -21 -22 -23 -24 -25
leaf_value=-0.039311536319988773 0.08707198554865124 0.039222284054930986 -0.016773469953144084 0.09090879980584228 0.051727092598141365 -0.05836297245099472 0.084000899769285181 0.064457361043328734 0.051619251639574697 0.081256150809728006 0.086797028870224405 0.062983836586040967 0.0059458074841728078 0.074124250783978524 0.03293366078304328 0.025340287268532786 0.042787329612472606 0.10093797046683589 0.081863336728566313 0.030863300903225296 0.089782709269771693 0.052548578292950121 0.058171344477187484 -0.036587142941788345
leaf_weight=11952.390394434333 6223.4029868990183 3190.5963062494993 1814.8444967418909 226.49251898378134 366.03150254487991 13214.508818849921 1028.1957148984075 744.60096572339535 151.19157148897648 3872.7481780052185 183.97771736234426 945.36488419771194 248.60321028530598 256.78458201140165 326.64923860132694 135.72591586410999 119.68986794352531 918.66210735589266 313.37265019118786 70.067366242408752 75.927380479872227 166.93639442324638 70.017695501446724 3693.4056757986546
leaf_count=38763 4664 4376 4373 159 375 63928 907 689 158 3479 137 936 370 216 389 172 136 591 244 84 55 170 68 12009
internal_value=0 -0.0301455 0.0336202 -0.044603 -0.0459992 -0.0476861 0.0529052 0.0812275 -0.00913401 0.0838375 0.0441006 0.0767341 0.0332098 0.041822 0.056572 -0.0138431 0.0742712 0.0885616 0.0960863 0.0607674 0.0668008 0.0395677 0.0808462 -0.0386684
internal_weight=0 36582.4 6761.32 29821.1 29474.9 28860.3 4659.55 13727.7 2101.76 12413.6 3631.36 4958.2 614.635 3447.38 1314.11 1950.57 346.182 7455.44 1232.03 1015.43 820.528 493.586 3942.77 15645.8
internal_count=137448 126079 10339 115740 115445 114700 5636 11369 4703 10066 4729 4567 745 4592 1303 4545 295 5499 835 1020 744 559 3547 50772
is_linear=0
shrinkage=0.11438


Tree=17
num_leaves=25
num_cat=0
split_feature=1 0 4 0 2 4 2 6 4 2 6 6 4 6 6 2 6 6 2 2 6 2 2 2
split_gain=1747.03 790.888 347.565 162.554 129.776 70.0036 75.3212 46.0477 33.152 42.5122 32.1883 22.1479 20.1728 16.6895 15.301 11.2566 7.43427 7.19826 6.28247 5.92561 5.64932 2.23721 1.53598 1.47016
threshold=1.0000000180025095e-35 1.0000000180025095e-35 1.0000000180025095e-35 1.0000000180025095e-35 1.0000000180025095e-35 1.0000000180025095e-35 1.0000000180025095e-35 1.0000000180025095e-35 1.0000000180025095e-35 1.0000000180025095e-35 1.0000000180025095e-35 1.0000000180025095e-35 1.0000000180025095e-35 1.0000000180025095e-35 1.0000000180025095e-35 1.0000000180025095e-35 1.0000000180025095e-35 1.0000000180025095e-35 1.0000000180025095e-35 1.0000000180025095e-35 1.0000000180025095e-35 1.0000000180025095e-35 1.0000000180025095e-35 1.0000000180025095e-35
decision_type=2 2 2 2 2 2 2 2 2 2 2 2 2 2 2 2 2 2 2 2 2 2 2 2
left_child=1 2 4 12 10 6 7 -5 9 14 -1 -10 20 18 -3 -7 -14 -17 -4 -13 21 -2 -22 -18
right_child=3 8 13 5 -6 15 -8 -9 11 -11 -12 19 16 -15 -16 17 23 -19 -20 -21 22 -23 -24 -25
leaf_value=-0.026096070939180142 0.057606958261878033 0.010776546424052168 0.049902990210235143 0.0070213764259106541 0.040174459261503384 0.066879647231245523 0.079588814101203872 0.030790608049844282 0.025955635487142241 0.056400926895339772 -0.018541994378513192 0.06599775818855054 0.029593764919650722 0.020528325503087384 0.022178035304459252 0.023366275347773809 0.055640545244524289 0.058603856356367695 0.025067686641071861 0.037429540559219078 0.06901688173501834 0.074112689271456506 0.053837055231100432 0.037002321419415889
leaf_weight=14351.419506534934 1366.8340031057596 2832.3443788513541 729.03030114620924 1788.0611240342259 442.76987837255001 673.16224158555269 309.16941548883915 2641.5621303468943 600.40318783372641 379.70151165127754 15190.90919996798 367.80070903897285 302.31084306538105 586.90336615592241 3374.670590929687 157.31556002795696 375.16629976779222 146.44411823153496 163.06261821091175 128.05956315994263 1834.6896351724863 116.59693773090839 91.559075050055981 64.953079596161842
leaf_count=54806 1847 6436 849 3077 508 622 252 3865 776 381 51931 357 374 803 7054 200 387 144 206 148 2157 99 94 75
internal_value=0 -0.0105869 -0.0186206 0.0432653 -0.0212905 0.030753 0.0250056 0.0211959 0.0223134 0.0192481 -0.0222117 0.0407302 0.0604894 0.0355082 0.0169754 0.058632 0.0434039 0.0403545 0.0453634 0.0586198 0.0642096 0.0589043 0.0682953 0.0528899
internal_weight=0 39147.1 31464.1 9867.82 29985.1 5715.71 4738.79 4429.62 7682.98 6586.72 29542.3 1096.26 4152.11 1479 6207.01 976.922 742.43 303.76 892.093 495.86 3409.68 1483.43 1926.25 440.119
internal_count=137448 124255 109103 13193 107245 8160 7194 6942 15152 13871 106737 1281 5033 1858 13490 966 836 344 1055 505 4197 1946 2251 462
is_linear=0
shrinkage=0.11438


Tree=18
num_leaves=25
num_cat=0
split_feature=7 0 5 5 0 2 3 3 3 5 2 2 2 5 5 3 2 2 5 5 2 5 3 5
split_gain=7622.32 1120.4 251.886 239.246 160.71 126.621 126.221 107.638 83.7575 81.8421 57.1115 40.9351 39.4174 33.1472 25.067 23.6763 17.6073 6.57586 6.50122 5.43437 5.19307 1.70819 1.03256 0.746053
threshold=1.0000000180025095e-35 1.0000000180025095e-35 inf inf 1.0000000180025095e-35 1.0000000180025095e-35 1.0000000180025095e-35 1.0000000180025095e-35 1.0000000180025095e-35 1.0000000180025095e-35 1.0000000180025095e-35 1.0000000180025095e-35 1.0000000180025095e-35 inf inf 1.0000000180025095e-35 1.0000000180025095e-35 1.0000000180025095e-35 1.0000000180025095e-35 inf 1.0000000180025095e-35 1.0000000180025095e-35 1.0000000180025095e-35 1.0000000180025095e-35
decision_type=2 2 8 8 2 2 2 2 2 10 2 2 2 8 8 2 2 2 10 8 2 10 2 10
left_child=1 2 5 7 10 6 18 9 12 11 13 -3 -5 21 22 16 -4 -11 -1 -12 -16 -2 23 -6
right_child=4 3 15 8 14 -7 -8 -9 -10 17 19 -13 -14 -15 20 -17 -18 -19 -20 -21 -22 -23 -24 -25
leaf_value=-0.032807807829811471 0.091512846463673192 0.0077737497876078799 -0.052017589793950679 -0.028777409295867844 0.061716120834332838 0.045852801839804364 0.077446035087419776 0.088845438886338446 0.058148618610734157 0.042946860805370045 0.058056399752591296 0.052993140559356992 0.023326091970425782 0.077972525078073979 0.047406074825513102 0.0076042028725649448 -0.014624738778519789 0.085307946827952452 -0.027074131085047939 0.035320136286314904 0.028847942004556364 0.097031751790236487 0.070827373834128723 0.068299176151789528
leaf_weight=10341.911298274994 3743.1126426011324 4517.8080023527145 12018.343632042408 2476.5134513676167 2350.3791678398848 291.8374612852931 140.8741265013814 284.96442642062902 169.3946485966444 1059.5587111636996 336.32438219338655 278.023338124156 205.73647537827492 3593.9803698807955 1187.6858901828527 89.3043073117733 167.03565703332424 50.214129313826561 3450.3347744345665 232.68686664104462 236.55758289992809 912.60475715994835 202.4646397382021 249.09228141605854
leaf_count=34247 2673 8892 60631 7670 2223 315 115 212 166 1567 332 285 266 3270 1297 128 276 38 11271 271 288 607 185 223
internal_value=0 -0.0272075 -0.0390702 0.00755802 0.0750185 -0.0287114 -0.0302732 0.0201855 -0.0198547 0.0168725 0.0838071 0.0103952 -0.0247809 0.0862245 0.0566793 -0.051075 -0.051505 0.0448636 -0.0313734 0.0487588 0.0443237 0.0925947 0.0629597 0.0623469
internal_weight=0 35541.9 26499.6 9042.21 13044.9 14225 13933.1 6190.57 2851.64 5905.6 8818.71 4795.83 2682.25 8249.7 4226.18 12274.7 12185.4 1109.77 13792.2 569.011 1424.24 4655.72 2801.94 2599.47
internal_count=137448 126079 106983 19096 11369 45948 45633 10994 8102 10782 7153 9177 7936 6550 4216 61035 60907 1605 45518 603 1585 3280 2631 2446
is_linear=0
shrinkage=0.11438


Tree=19
num_leaves=25
num_cat=0
split_feature=1 4 5 3 5 6 5 6 5 5 6 3 4 4 3 5 3 5 5 6 4 3 3 6
split_gain=1281.66 331.441 293.106 250.649 200.674 54.2589 51.3536 29.6192 24.2871 15.3007 13.564 12.6422 11.5288 8.17174 8.66012 7.12664 7.86815 5.04788 4.92083 4.76456 2.57598 1.91393 1.73396 0.879389
threshold=1.0000000180025095e-35 1.0000000180025095e-35 inf 1.0000000180025095e-35 inf 1.0000000180025095e-35 1.0000000180025095e-35 1.0000000180025095e-35 inf inf 1.0000000180025095e-35 1.0000000180025095e-35 1.0000000180025095e-35 1.0000000180025095e-35 1.0000000180025095e-35 1.0000000180025095e-35 1.0000000180025095e-35 1.0000000180025095e-35 1.0000000180025095e-35 1.0000000180025095e-35 1.0000000180025095e-35 1.0000000180025095e-35 1.0000000180025095e-35 1.0000000180025095e-35
decision_type=2 2 8 2 8 2 10 2 8 8 2 2 2 2 2 10 2 10 10 2 2 2 2 2
left_child=1 3 5 4 7 15 11 -1 18 -5 -6 12 -7 14 19 16 20 -9 22 -4 -2 -10 -3 -15
right_child=2 8 13 9 10 6 -8 17 21 -11 -12 -13 -14 23 -16 -17 -18 -19 -20 -21 -22 -23 -24 -25
leaf_value=-0.010115155028178884 0.032176402608887052 0.040924049913089573 0.010319673184002679 0.089663183258054321 -0.026215251749055909 0.049358390992001754 0.088265683927455443 6.204490616560823e-07 0.017945266445884015 0.043334197418273802 -0.019430662813165415 0.085884173853981019 0.068807322922781647 0.016834714190220958 0.034926761924858413 0.050649232758342974 0.064306808219224285 -0.006384114546916661 0.064907507324539676 0.0001684277745714346 0.043413218012970364 0.036504136131534685 0.022004028406672843 0.025578239267511377
leaf_weight=9195.2998316213489 1570.5982922166586 1140.2765874937177 1141.1127880811691 292.440085478127 7668.7759345769882 2460.6224220991135 712.1517144665122 8474.5063956826925 1062.8584652990103 136.92983216792345 7752.2283288091421 156.40028093010187 475.85403268039227 294.56425447762012 132.87935125827789 543.30287127941847 119.84767677634954 2002.9101496040821 112.26846890896559 1287.2817617356777 321.54606082290411 78.035420276224613 67.100497640669346 307.67974044382572
leaf_count=26882 2193 1324 2256 216 34684 2912 553 21830 1531 153 31912 125 427 402 156 618 116 5439 107 2678 356 90 87 401
internal_value=0 -0.00916074 0.0377651 -0.0119727 -0.0130355 0.0519165 0.0605739 -0.00537767 0.0314363 0.0748885 -0.0228046 0.0541977 0.0525101 0.00931323 0.00649433 0.039025 0.0358861 -0.00121991 0.0420024 0.00493854 0.034086 0.0192147 0.0398726 0.0213017
internal_weight=0 37983.6 9523.84 35523.1 35093.7 6360.32 3805.03 19672.7 2460.54 429.37 15421 3092.88 2936.48 3163.52 2561.27 2555.29 2011.99 10477.4 1319.65 2428.39 1892.14 1140.89 1207.38 602.244
internal_count=137448 124255 13193 121116 120747 7300 4017 54151 3139 369 66596 3464 3339 5893 5090 3283 2665 27269 1518 4934 2549 1621 1411 803
is_linear=0
shrinkage=0.11438


Tree=20
num_leaves=25
num_cat=0
split_feature=7 1 0 5 0 0 0 5 6 5 6 1 6 5 6 6 5 5 1 5 5 5 6 6
split_gain=6171.75 1351.68 715.643 259.753 150.936 120.575 101.563 65.7603 59.3497 53.0627 45.6419 38.4516 29.8018 25.837 24.4416 23.5165 21.6012 18.2935 13.1653 12.8627 10.6402 10.1741 8.84545 7.92543
threshold=1.0000000180025095e-35 1.0000000180025095e-35 1.0000000180025095e-35 inf 1.0000000180025095e-35 1.0000000180025095e-35 1.0000000180025095e-35 inf 1.0000000180025095e-35 1.0000000180025095e-35 1.0000000180025095e-35 1.0000000180025095e-35 1.0000000180025095e-35 inf 1.0000000180025095e-35 1.0000000180025095e-35 inf inf 1.0000000180025095e-35 inf 1.0000000180025095e-35 1.0000000180025095e-35 1.0000000180025095e-35 1.0000000180025095e-35
decision_type=2 2 2 8 2 2 2 8 2 10 2 2 2 8 2 2 8 8 2 8 10 10 2 2
left_child=1 2 7 5 11 15 -5 10 -4 14 -1 16 -11 20 -7 -3 -2 18 -6 -13 -10 -17 -19 -8
right_child=4 3 8 6 17 9 23 -9 13 12 -12 19 -14 -15 -16 21 -18 22 -20 -21 -22 -23 -24 -25
leaf_value=-0.04557216810522198 0.087161957294940653 0.045356337419114164 -0.010030708493154836 0.01782258154328498 0.050273397896018424 0.00029121988851871092 -0.043997856137969395 -0.050270439920061506 0.018658066931811611 0.022265236168427731 -0.031633545111649265 0.069666619958104831 0.077238793474009276 -0.0010006152432671888 0.025292248655666705 0.067580749235913506 0.074438592571142562 0.048435143730277727 0.066858003982503328 0.047015987121177709 0.041269610945299705 0.095211199510717992 0.030001935575083283 -0.02487649002417126
leaf_weight=5715.7032794356346 3892.1865298002958 620.74344222247601 2226.8438845798373 919.0945003926754 1608.0105529800057 828.07493104040623 498.26759582012892 10877.327295601368 1558.1086378842592 211.77404144406319 6648.334227271378 805.516835257411 330.12493576854467 893.30859506130219 1338.4830113053322 809.60327453911304 3165.469979070127 792.33228396624327 1025.6159173846245 553.28872576355934 329.91080474108458 222.19871531426907 597.3400435000658 658.18786904215813
leaf_count=22014 2898 821 6031 1871 1681 1388 1266 59164 3138 289 22089 714 276 2783 1838 857 2938 850 950 603 521 167 735 1566
internal_value=0 -0.0245552 -0.035333 0.0227477 0.0693521 0.0385994 -0.0105589 -0.0437838 0.00388483 0.0237434 -0.0380772 0.0780631 0.0557551 0.0150262 0.0157367 0.0629478 0.0814553 0.0511294 0.056732 0.0604436 0.0226092 0.073531 0.0405118 -0.0331151
internal_weight=0 34686.1 28249.5 6436.55 12439.8 4361 2075.55 23241.4 5008.17 2708.46 12364 8416.46 541.899 2781.33 2166.56 1652.55 7057.66 4023.3 2633.63 1358.81 1888.02 1031.8 1389.67 1156.46
internal_count=137448 126079 115740 10339 11369 5636 4703 103267 12473 3791 44103 7153 565 6442 3226 1845 5836 4216 2631 1317 3659 1024 1585 2832
is_linear=0
shrinkage=0.11438


Tree=21
num_leaves=25
num_cat=0
split_feature=7 4 0 4 2 0 6 6 2 2 2 2 0 0 6 2 6 6 6 6 0 6 0 6
split_gain=5033.41 751.814 483.91 387.954 126.142 103.365 92.4548 88.5946 54.4323 45.9509 40.6663 32.6171 9.20818 8.99024 12.0116 5.19534 4.628 4.45661 3.57834 2.81435 2.77368 2.67063 1.60997 5.80489
threshold=1.0000000180025095e-35 1.0000000180025095e-35 1.0000000180025095e-35 1.0000000180025095e-35 1.0000000180025095e-35 1.0000000180025095e-35 1.0000000180025095e-35 1.0000000180025095e-35 1.0000000180025095e-35 1.0000000180025095e-35 1.0000000180025095e-35 1.0000000180025095e-35 1.0000000180025095e-35 1.0000000180025095e-35 1.0000000180025095e-35 1.0000000180025095e-35 1.0000000180025095e-35 1.0000000180025095e-35 1.0000000180025095e-35 1.0000000180025095e-35 1.0000000180025095e-35 1.0000000180025095e-35 1.0000000180025095e-35 1.0000000180025095e-35
decision_type=2 2 2 2 2 2 2 2 2 2 2 2 2 2 2 2 2 2 2 2 2 2 2 2
left_child=1 2 4 5 6 10 -1 8 -4 13 19 -9 -11 -3 -15 22 -14 -7 -6 -2 -17 -12 23 -5
right_child=3 9 7 15 18 17 -8 11 -10 12 21 -13 16 14 -16 20 -18 -19 -20 -21 -22 -23 -24 -25
leaf_value=-0.042872986476489135 0.084639072738809135 0.045915997736208164 -0.019471856050108403 0.017320103269029871 0.026386388604233042 0.059594345161767155 -0.028635530312306496 0.0068840448818613892 0.04735595879898586 -0.010734978469848045 0.04685892403018669 0.061747491214635228 0.010437415463181707 0.04719581643439251 0.07641998778370733 0.035001534796464139 0.039828774671818286 0.050831867070604518 0.051029879385357531 0.079977874311096431 0.018200811760272738 0.024041545371401983 0.016708546490173719 -0.002777151515802395
leaf_weight=11282.583734154701 3388.0788553655148 883.15120902657509 3101.579463340342 433.18250888586044 160.4033061414957 1546.3848106265068 12665.673521675169 4398.0577311217785 168.09803703427315 153.09118612110615 181.5838970541954 146.48998384922743 150.61017488688231 340.20490100234747 400.73545898497105 226.29631320387125 131.09861830621958 1492.0350433960557 148.4070442840457 3390.5455260872841 297.65402133017778 106.450289927423 550.17453867197037 332.23680566996336
leaf_count=53965 2688 1112 8185 575 205 1506 51299 9473 184 242 198 144 210 395 353 267 152 1573 160 2789 395 138 742 498
internal_value=0 -0.0221309 -0.0264321 0.0641385 -0.0344065 0.0729336 -0.0353431 -0.00167787 -0.0160362 0.0448694 0.080519 0.00865253 0.0118446 0.0537108 0.0630016 0.0158251 0.0241153 0.0552915 0.0382295 0.0823076 0.0254571 0.0384262 0.011989 0.00859672
internal_weight=0 34130.2 32071.3 11944.6 24257.1 10105.1 23948.3 7814.23 3269.68 2058.89 7066.66 4544.55 434.8 1624.09 740.94 1839.54 281.709 3038.42 308.81 6778.62 523.95 288.034 1315.59 765.419
internal_count=137448 126079 123615 11369 105629 8892 105264 17986 8369 2464 5813 9617 604 1860 748 2477 362 3079 365 5477 662 336 1815 1073
is_linear=0
shrinkage=0.11438


Tree=22
num_leaves=24
num_cat=0
split_feature=1 4 3 2 6 6 2 4 3 2 4 3 3 2 6 3 4 4 2 6 6 3 6
split_gain=757.001 178.267 184.384 103.886 27.3906 24.0811 11.8401 20.9151 10.7106 5.78127 5.57276 18.1148 7.73805 3.41181 2.79286 1.60243 1.56829 1.36602 0.979775 0.206647 0.195988 0.0634458 0.0590936
threshold=1.0000000180025095e-35 1.0000000180025095e-35 1.0000000180025095e-35 1.0000000180025095e-35 1.0000000180025095e-35 1.0000000180025095e-35 1.0000000180025095e-35 1.0000000180025095e-35 1.0000000180025095e-35 1.0000000180025095e-35 1.0000000180025095e-35 1.0000000180025095e-35 1.0000000180025095e-35 1.0000000180025095e-35 1.0000000180025095e-35 1.0000000180025095e-35 1.0000000180025095e-35 1.0000000180025095e-35 1.0000000180025095e-35 1.0000000180025095e-35 1.0000000180025095e-35 1.0000000180025095e-35 1.0000000180025095e-35
decision_type=2 2 2 2 2 2 2 2 2 2 2 2 2 2 2 2 2 2 2 2 2 2 2
left_child=1 2 3 4 -1 6 8 -8 17 20 11 13 18 -7 -5 -9 -10 -2 -12 -11 21 -3 -4
right_child=5 9 22 14 -6 10 7 15 16 19 12 -13 -14 -15 -16 -17 -18 -19 -20 -21 -22 -23 -24
leaf_value=-0.014601653951305176 0.018284440975879748 0.027394469716738423 0.069621196871753235 0.027422955013483956 -0.0079751815960676965 0.031128442008991005 0.064048183881852627 0.0090119301836848534 0.039090239011433082 0.011446653445704032 0.049332055016910341 0.068834362025708265 0.009354416393771478 0.047799166806654671 0.042123726773273369 0.032253132239821986 0.060360056233425177 0.025446297333904928 0.0390389039667072 0.015990221643385247 0.025197322738860828 0.031234010792492273 0.066782073225011535
leaf_weight=15528.719056740403 2833.3786482661963 955.38312277942896 230.49233206361532 399.3031734675169 17200.000332117081 3983.0835811719298 235.21623217314482 162.06719465553761 135.52203869819641 340.55595336854458 590.40433671325445 180.30386877059937 78.01185155659914 167.35917177051306 293.22527108341455 51.032601773738861 68.162356242537498 397.27539244294167 152.1652729138732 212.78290514647961 765.99492195248604 59.830508813261986 164.26439155638218
leaf_count=61065 4765 1287 212 501 58847 5879 229 227 159 471 641 173 114 186 334 62 68 512 178 287 1021 73 157
internal_value=0 -0.00716328 -0.00927369 -0.0101916 -0.0111192 0.0298532 0.0230511 0.0405332 0.020769 0.0234061 0.0349801 0.0333425 0.0436227 0.0318007 0.0336474 0.0145777 0.0462081 0.0191651 0.0472228 0.0131939 0.0265786 0.0276207 0.0684398
internal_weight=0 36150.6 33816 33421.2 32728.7 9033.98 3882.65 448.316 3434.34 2334.55 5151.33 4330.75 820.581 4150.44 692.528 213.1 203.684 3230.65 742.57 553.339 1781.21 1015.21 394.757
internal_count=137448 124255 121116 120747 119912 13193 6022 518 5504 3139 7171 6238 933 6065 835 289 227 5277 819 758 2381 1360 369
is_linear=0
shrinkage=0.11438


Tree=23
num_leaves=24
num_cat=0
split_feature=7 4 4 0 3 0 2 3 2 2 2 3 0 0 2 3 0 3 3 0 3 3 2
split_gain=4047.34 538.384 364.192 349.746 127.42 95.6987 85.4158 80.1446 55.2854 41.6196 35.5008 13.2577 8.46945 7.29923 5.33845 2.49847 2.33552 1.53205 0.894643 0.860501 0.60577 0.529567 0.218383
threshold=1.0000000180025095e-35 1.0000000180025095e-35 1.0000000180025095e-35 1.0000000180025095e-35 1.0000000180025095e-35 1.0000000180025095e-35 1.0000000180025095e-35 1.0000000180025095e-35 1.0000000180025095e-35 1.0000000180025095e-35 1.0000000180025095e-35 1.0000000180025095e-35 1.0000000180025095e-35 1.0000000180025095e-35 1.0000000180025095e-35 1.0000000180025095e-35 1.0000000180025095e-35 1.0000000180025095e-35 1.0000000180025095e-35 1.0000000180025095e-35 1.0000000180025095e-35 1.0000000180025095e-35 1.0000000180025095e-35
decision_type=2 2 2 2 2 2 2 2 2 2 2 2 2 2 2 2 2 2 2 2 2 2 2
left_child=1 3 5 6 8 9 7 -1 -5 11 12 -2 -3 -12 15 19 -16 -15 -14 -4 -18 22 -7
right_child=2 10 14 4 -6 21 -8 -9 -10 -11 13 -13 18 17 16 -17 20 -19 -20 -21 -22 -23 -24
leaf_value=-0.031739042301328499 0.077601159587538687 0.038266111882521235 0.003629742267605738 -0.0070108349208763306 0.076948498780159136 0.050261137408961085 0.030858397274713033 0.048827205951005981 0.046217198437859298 0.031220189298526314 -0.011401860152760823 0.036112551640639208 0.056674050460793837 0.015563962371962781 0.030263676887156189 0.026996181715241204 0.017089669640904886 0.037023901188209959 0.04381547354611829 0.00988977105500039 0.0036395732512111939 0.056947114932309847 0.046663972658117649
leaf_weight=23263.529054656625 6390.1309376135468 856.13731027394533 715.21150407195091 7226.8294626921415 255.89328483492136 2518.1769065931439 293.99319835752249 162.66442526131868 264.63480009883642 271.29023794829845 152.5552539601922 102.37957402318716 622.57368796318769 219.07182484865189 218.03106936812401 80.220687106251717 236.42915530502796 54.31284486502409 79.869920529425144 480.12200117856264 53.771607801318169 148.96330749243498 242.01938913017511
leaf_count=105089 5351 1112 1034 17473 221 2643 365 175 292 336 242 126 656 297 267 103 317 65 92 678 78 165 271
internal_value=0 -0.0198752 0.0588942 -0.0235192 -0.00241951 0.0676516 -0.0304107 -0.0311796 -0.00513056 0.0751129 0.0379061 0.0769469 0.0459035 0.00864226 0.0114053 0.00745557 0.0213183 0.0198274 0.055212 0.00614417 0.0145975 0.0503042 0.0499457
internal_weight=0 33452.1 11456.7 31467.5 7747.36 9672.96 23720.2 23426.2 7491.46 6763.8 1984.52 6492.51 1558.58 425.94 1783.79 1275.55 508.232 273.385 702.444 1195.33 290.201 2909.16 2760.2
internal_count=137448 126079 11369 123615 17986 8892 105629 105264 17765 5813 2464 5477 1860 604 2477 1815 662 362 748 1712 395 3079 2914
is_linear=0
shrinkage=0.11438


Tree=24
num_leaves=25
num_cat=0
split_feature=1 5 5 3 4 4 5 6 4 6 3 6 3 4 6 5 3 6 3 4 3 5 4 4
split_gain=554.966 220.182 151.364 90.8582 84.3709 43.8121 42.209 25.5558 19.5213 18.5404 16.027 14.5354 10.8713 6.69442 6.38097 4.63494 4.5431 2.94558 8.2624 3.88056 3.19291 2.72514 2.32703 1.74066
threshold=1.0000000180025095e-35 inf inf 1.0000000180025095e-35 1.0000000180025095e-35 1.0000000180025095e-35 1.0000000180025095e-35 1.0000000180025095e-35 1.0000000180025095e-35 1.0000000180025095e-35 1.0000000180025095e-35 1.0000000180025095e-35 1.0000000180025095e-35 1.0000000180025095e-35 1.0000000180025095e-35 1.0000000180025095e-35 1.0000000180025095e-35 1.0000000180025095e-35 1.0000000180025095e-35 1.0000000180025095e-35 1.0000000180025095e-35 1.0000000180025095e-35 1.0000000180025095e-35 1.0000000180025095e-35
decision_type=2 8 8 2 2 2 10 2 2 2 2 2 2 2 2 10 2 2 2 2 2 10 2 2
left_child=2 6 3 4 11 10 9 -8 -5 16 14 21 13 -11 -4 -6 -2 18 23 20 -19 -1 -20 -3
right_child=1 17 5 8 15 -7 7 -9 -10 12 -12 -13 -14 -15 -16 -17 -18 19 22 -21 -22 -23 -24 -25
leaf_value=-0.0070991514739138966 0.023995562457739383 0.0038277435196620892 -0.019218321447890162 0.077299242374992944 0.027504860297041838 0.0074990964646992697 0.039607725174062768 0.074335614597728486 0.0068952963061760649 0.036107972035771985 0.02516879668781314 0.00053942693664212201 0.072804873688118249 0.052147927905140862 -0.0143603820186246 0.05397151056054892 0.049000835713497823 -0.0064190983417147483 0.017671905872521425 0.009557085309837671 0.021005709097971392 -0.0024393124473411618 0.049448901723941674 -0.0073878438388106961
leaf_weight=6332.6997837871313 1765.5190806537867 1085.246384344995 6975.338107213378 240.56977287679911 1039.5800303667784 1079.2943743243814 499.5752904266119 622.86130134761333 65.567483521997929 2275.522329851985 120.31302174180746 9952.5399273410439 126.63055563718081 400.29508896172047 7177.019452393055 94.428465574979782 100.46699207276106 1245.5450668334961 61.51816938072443 284.07033421099186 58.131004013121128 2216.5968324318528 59.125601425766945 217.28415387868881
leaf_count=19760 2549 2256 34684 216 1324 1621 618 553 95 2912 153 27269 125 427 31912 99 116 2678 81 401 75 7122 62 340
internal_value=0 0.0259191 -0.0061839 0.000388267 -0.00057574 -0.0147211 0.0389637 0.0588789 0.0622204 0.0341755 -0.0164013 -0.00243193 0.0400573 0.0385075 -0.0167547 0.0297087 0.0253419 0.000830415 0.00460915 -0.00255665 -0.00519622 -0.00589098 0.0332453 0.00195679
internal_weight=0 8801.79 35293.9 19942 19635.8 15352 5790.87 1122.44 306.137 4668.43 14272.7 18501.8 2802.45 2675.82 14152.4 1134.01 1865.99 3010.92 1423.17 1587.75 1303.68 8549.3 120.644 1302.53
internal_count=137448 13193 124255 55885 55574 68370 7300 1171 311 6129 66749 54151 3464 3339 66596 1423 2665 5893 2739 3154 2753 26882 143 2596
is_linear=0
shrinkage=0.11438


Tree=25
num_leaves=25
num_cat=0
split_feature=1 5 5 3 4 2 5 4 4 3 3 2 2 5 2 4 2 2 5 3 4 3 3 4
split_gain=441.929 179.465 119.803 75.3646 67.5161 51.6344 36.2331 34.6281 17.3178 12.9865 12.6947 14.8032 7.81147 6.72038 6.16073 5.76405 21.8757 12.9917 3.95294 2.83098 2.61477 1.51583 1.16554 1.07777
threshold=1.0000000180025095e-35 inf inf 1.0000000180025095e-35 1.0000000180025095e-35 1.0000000180025095e-35 1.0000000180025095e-35 1.0000000180025095e-35 1.0000000180025095e-35 1.0000000180025095e-35 1.0000000180025095e-35 1.0000000180025095e-35 1.0000000180025095e-35 1.0000000180025095e-35 1.0000000180025095e-35 1.0000000180025095e-35 1.0000000180025095e-35 1.0000000180025095e-35 1.0000000180025095e-35 1.0000000180025095e-35 1.0000000180025095e-35 1.0000000180025095e-35 1.0000000180025095e-35 1.0000000180025095e-35
decision_type=2 8 8 2 2 2 10 2 2 2 2 2 2 10 2 2 2 2 10 2 2 2 2 2
left_child=2 6 3 4 5 -1 9 10 -5 15 11 -4 22 -7 19 16 -2 -17 -6 23 -11 -8 -9 -3
right_child=1 14 7 8 18 13 21 12 -10 20 -12 -13 -14 -15 -16 17 -18 -19 -20 -21 -22 -23 -24 -25
leaf_value=-0.0030487657200177361 0.025604613048017463 -0.0027827870162495027 -0.015452759323767263 0.073035707353749063 0.024825449703088569 0.032497656667159022 0.055261293006871194 0.010971692725840722 0.0061414120775039041 0.069000009016169386 0.022677156204737758 0.011701484410630857 -0.011283890786054927 0.074515846587142429 0.016767664945507452 0.048284086224898208 0.063858638421392985 0.010942150969916234 0.049700731242856074 0.014108586776742659 0.043495532376586016 0.038198806265551818 0.030508172912952547 0.0039689707439726834
leaf_weight=18099.440311387181 3494.8621571063995 2208.7013208419085 13797.905071079731 226.35708785802126 1021.2069761604071 337.79439236223698 1011.2129812464118 788.31881727278233 65.218391969799995 124.85584902763367 118.38165072351694 267.74779766798019 244.89973196387291 58.409535683691502 284.09040480107069 506.44239239394665 207.1648655757308 160.52625770121813 91.025814056396484 154.41742983460426 90.859537437558174 73.038682457059622 42.084229372441769 359.67696790397167
leaf_count=53689 4893 4778 66223 216 1324 411 1075 1184 95 130 153 373 386 51 376 554 212 229 99 208 111 96 51 531
internal_value=0 0.0233274 -0.00549708 0.000349641 -0.000508725 -0.00215461 0.0353083 -0.0131217 0.0580731 0.0308614 -0.0146219 -0.0149359 0.00666759 0.0386921 0.000739418 0.0295087 0.0277453 0.0392966 0.0268613 -0.000932933 0.0582575 0.0541119 0.0119618 -0.00183727
internal_weight=0 8675.85 35158.8 19899.5 19607.9 18495.6 5668.96 15259.3 291.575 4584.71 14184 14065.7 1075.3 396.204 3006.89 4369 3702.03 666.969 1112.23 2722.8 215.715 1084.25 830.403 2568.38
internal_count=137448 13193 124255 55885 55574 54151 7300 68370 311 6129 66749 66596 1621 462 5893 5888 5105 783 1423 5517 241 1171 1235 5309
is_linear=0
shrinkage=0.11438


Tree=26
num_leaves=25
num_cat=0
split_feature=5 0 6 4 5 4 3 3 0 4 3 4 3 6 6 5 6 0 6 6 3 5 5 6
split_gain=230.976 102.006 39.8864 32.5369 32.4505 31.5207 31.493 31.2727 24.0964 22.0417 22.0133 18.5308 15.2973 8.92725 6.9934 5.85146 5.61977 3.80168 10.2628 4.25702 3.80509 3.49413 1.19911 1.1321
threshold=inf 1.0000000180025095e-35 1.0000000180025095e-35 1.0000000180025095e-35 1.0000000180025095e-35 1.0000000180025095e-35 1.0000000180025095e-35 1.0000000180025095e-35 1.0000000180025095e-35 1.0000000180025095e-35 1.0000000180025095e-35 1.0000000180025095e-35 1.0000000180025095e-35 1.0000000180025095e-35 1.0000000180025095e-35 1.0000000180025095e-35 1.0000000180025095e-35 1.0000000180025095e-35 1.0000000180025095e-35 1.0000000180025095e-35 1.0000000180025095e-35 1.0000000180025095e-35 1.0000000180025095e-35 1.0000000180025095e-35
decision_type=8 2 2 2 10 2 2 2 2 2 2 2 2 2 2 10 2 2 2 2 2 10 10 2
left_child=1 7 11 8 5 6 -4 9 14 13 16 12 -3 15 -2 -1 -10 19 20 -5 -19 -13 -15 -12
right_child=3 2 4 17 -6 -7 -8 -9 10 -11 23 21 -14 22 -16 -17 -18 18 -20 -21 -22 -23 -24 -25
leaf_value=-0.0041675292046614541 -0.016031960989692947 0.0037997851489932123 0.015107232942383536 0.017140554162344106 0.047612332786996774 0.049063358415864393 0.081712493018043925 0.045927091752761148 0.0007321572849958225 0.019198709952811786 0.054012466528496048 0.025000351514236262 0.04762625369103686 0.0039314508615947005 -0.010765668261328907 0.0029103269218142174 -0.008844853068618895 -0.018842648006564811 0.014856806858262711 0.0017422515606985401 0.011895376849152577 0.052895044499716805 0.00060793399491653572 0.032546384307921929
leaf_weight=5307.6317309215665 6523.9748916924 2926.8829803690314 3262.3219346702099 538.1474694237113 700.84454043582082 455.6486564874649 95.595732491463423 212.19436764344573 1507.4959975108504 897.04198827594519 67.831185579299927 462.4905760884285 108.0394731760025 6979.8316105976701 6673.5436164662242 2145.9779262170196 1711.8751154541969 306.79693561792374 301.54844442754984 416.81487280130386 63.612435199320316 67.296494781970978 1783.0427226498723 61.090215533971786
leaf_count=17100 33107 5741 5575 770 905 508 94 251 3933 1210 69 597 132 19167 30060 6751 4597 514 414 639 87 73 5081 73
internal_value=0 0.00723594 0.0178497 -0.00965274 0.0249912 0.020834 0.0170034 0.00228667 -0.0111704 0.00174556 -0.00250443 0.00880552 0.00535995 0.000780109 -0.013369 -0.00212973 -0.00436034 0.00578161 -0.000809762 0.0104196 -0.0135638 0.0285437 0.00325519 0.0438406
internal_weight=0 25404.8 8079.12 18172.7 4514.41 3813.57 3357.92 17325.7 16545.8 17113.5 3348.29 3564.71 3034.92 16216.5 13197.5 7453.61 3219.37 1626.92 671.958 954.962 370.409 529.787 8762.87 128.921
internal_count=137448 63185 13625 74263 7082 6177 5669 49560 71839 49309 8672 6543 5873 48099 63167 23851 8530 2424 1015 1409 601 670 24248 142
is_linear=0
shrinkage=0.11438


Tree=27
num_leaves=25
num_cat=0
split_feature=7 1 0 0 0 5 1 5 3 3 5 3 5 3 5 5 5 5 5 5 1 5 5 3
split_gain=3230.28 526.303 352.572 226.353 129.018 104.592 52.548 51.5516 39.3828 36.3672 32.8216 28.7937 27.6317 20.5327 17.9359 13.5307 11.0906 8.47051 7.93393 5.61375 5.04192 3.62694 2.24617 2.08848
threshold=1.0000000180025095e-35 1.0000000180025095e-35 1.0000000180025095e-35 1.0000000180025095e-35 1.0000000180025095e-35 inf 1.0000000180025095e-35 inf 1.0000000180025095e-35 1.0000000180025095e-35 1.0000000180025095e-35 1.0000000180025095e-35 inf 1.0000000180025095e-35 inf 1.0000000180025095e-35 1.0000000180025095e-35 inf inf 1.0000000180025095e-35 1.0000000180025095e-35 1.0000000180025095e-35 1.0000000180025095e-35 1.0000000180025095e-35
decision_type=2 2 2 2 2 8 2 8 2 2 10 2 8 2 8 10 10 8 8 10 2 8 10 2
left_child=1 2 8 7 6 9 14 16 12 10 -5 -7 22 15 19 21 -3 20 -8 -2 -6 -4 -1 -19
right_child=4 3 13 5 17 11 18 -9 -10 -11 -12 -13 -14 -15 -16 -17 -18 23 -20 -21 -22 -23 -24 -25
leaf_value=-0.028734563495306242 0.069992188314090764 0.046646831149229559 0.0019022919068207311 -0.0020966522868471676 0.036009374503732892 -0.039471215912039073 0.048189513154665894 0.017465716093142691 0.036687372856650496 0.069884380360782067 0.032562609564388612 0.032784804558361254 -0.036071301375975896 0.045641914770265947 0.059982873368876893 0.018330031765502661 0.06971826466718288 0.029749332475339001 0.028902009578987517 0.081957478384995938 0.047246170732659423 -0.005095394043705871 -0.025067545921912744 0.011502356622822622
leaf_weight=8758.8550191968679 2734.8697673901916 1198.8225852660835 2641.5026446059346 1931.2962837964296 1421.9002727456391 1056.5836068689823 642.47971515357494 898.5748952254653 111.15046532452106 116.09658209607005 438.63867153972387 77.440001599490643 9740.022613286972 142.46044987440109 2916.8473169282079 556.01508393883705 352.80768274515867 1198.3821438699961 493.21581538766623 631.42244520038366 825.81173414364457 1530.4458652734756 2911.808872371912 88.095655642449856
leaf_count=33055 2408 1503 6045 3132 1681 2740 714 1871 132 123 536 92 59102 163 2938 1069 342 1463 603 490 950 5196 10978 122
internal_value=0 -0.0179474 -0.024932 0.0124203 0.0538873 -0.00575087 0.0624553 0.0392672 -0.0312209 0.00738016 0.00431825 -0.034537 -0.0315734 0.0028582 0.066548 0.00156906 0.0518928 0.0359015 0.0398132 0.0722365 0.0401378 -0.000664753 -0.0278196 0.0284998
internal_weight=0 32462.5 26392.3 6070.26 10953 3620.06 7418.84 2450.21 21521.8 2486.03 2369.93 1134.02 21410.7 4870.42 6283.14 4727.96 1551.63 3534.19 1135.7 3366.29 2247.71 4171.95 11670.7 1286.48
internal_count=137448 126079 115740 10339 11369 6623 7153 3716 103267 3791 3668 2832 103135 12473 5836 12310 1845 4216 1317 2898 2631 11241 44033 1585
is_linear=0
shrinkage=0.11438


Tree=28
num_leaves=25
num_cat=0
split_feature=7 4 4 5 0 0 2 2 5 2 0 2 5 2 5 2 5 0 5 0 5 2 0 0
split_gain=2618.69 385.737 300.631 155.175 96.4339 86.7103 58.2213 42.9117 34.2929 28.7691 26.3869 26.1181 14.6502 14.5619 14.0993 9.54616 7.71669 16.6836 7.44294 4.38587 5.54529 2.85933 2.72946 1.30647
threshold=1.0000000180025095e-35 1.0000000180025095e-35 1.0000000180025095e-35 inf 1.0000000180025095e-35 1.0000000180025095e-35 1.0000000180025095e-35 1.0000000180025095e-35 1.0000000180025095e-35 1.0000000180025095e-35 1.0000000180025095e-35 1.0000000180025095e-35 inf 1.0000000180025095e-35 1.0000000180025095e-35 1.0000000180025095e-35 inf 1.0000000180025095e-35 1.0000000180025095e-35 1.0000000180025095e-35 inf 1.0000000180025095e-35 1.0000000180025095e-35 1.0000000180025095e-35
decision_type=2 2 2 8 2 2 2 2 10 2 2 2 8 2 8 2 8 2 10 2 8 2 2 2
left_child=2 5 3 4 6 7 18 12 11 16 21 -6 -2 -12 23 -16 17 -4 -1 -11 -21 -5 -18 -3
right_child=1 14 9 10 8 -7 -8 -9 -10 19 13 -13 -14 -15 15 -17 22 -19 -20 20 -22 -23 -24 -25
leaf_value=-0.020003078281934508 0.073350962500776731 0.0044767466239794308 0.026725505468966976 -0.031515557394411892 -0.004932217990169744 0.041655259507269733 0.046604458129620857 0.019389889265027882 0.020675776931698846 -0.014044153448163768 -0.019921210500196129 0.047029837292029794 0.062029713567372448 0.021943781391609858 -0.020140062664987711 0.0074710922486015728 0.032383639206409014 0.059927597279196755 -0.013600088960047021 0.024387508761660209 -0.0100325899012789 -0.011976492052354095 0.017136569846032006 0.013615492586424362
leaf_weight=9300.0486940443516 3235.194929510355 422.45664542168379 389.77454842627048 9851.48705111444 4104.8842230439186 2691.813270419836 183.08119374513626 246.10928861796856 953.82489489391446 149.70917613059282 2264.6496958434582 130.57738062739372 2780.6776364818215 114.17629624903202 582.40967241674662 227.92646303027868 426.36450363695621 402.41500855609775 3189.6583680137992 153.05950348079205 102.07021862268448 98.968515865504742 240.10559830069542 396.95890454947948
leaf_count=33852 2751 631 507 60138 8659 3079 202 336 1578 242 7449 153 2726 147 954 320 605 402 11274 202 160 163 346 572
internal_value=0 0.0495069 -0.0161121 -0.018864 -0.0120513 0.058823 -0.0174292 0.0662029 0.00108221 0.0284737 -0.028734 -0.00333025 0.068118 -0.0179118 -0.00167565 -0.0123738 0.0359608 0.0435914 -0.0183679 0.00149732 0.010617 -0.0313212 0.0268907 0.00890393
internal_weight=0 10583.5 32054.9 30191.4 17862.1 8953.8 12672.8 6261.98 5189.29 1863.5 12329.3 4235.46 6015.87 2378.83 1629.75 810.336 1458.66 792.19 12489.7 404.839 255.13 9950.46 666.47 819.416
internal_count=137448 11369 126079 123615 55718 8892 45328 5813 10390 2464 67897 8812 5477 7596 2477 1274 1860 909 45126 604 362 60301 951 1203
is_linear=0
shrinkage=0.11438


Tree=29
num_leaves=25
num_cat=0
split_feature=1 0 0 5 5 4 4 3 4 3 5 5 3 3 4 5 4 3 4 5 4 5 4 5
split_gain=241.885 145.805 138.929 66.7509 45.4288 30.8256 30.6912 31.7581 25.307 27.9375 22.9833 14.4781 11.247 7.08109 9.69166 5.96002 5.93952 6.53233 5.44108 3.9377 3.38826 3.17013 2.65232 2.22028
threshold=1.0000000180025095e-35 1.0000000180025095e-35 1.0000000180025095e-35 inf inf 1.0000000180025095e-35 1.0000000180025095e-35 1.0000000180025095e-35 1.0000000180025095e-35 1.0000000180025095e-35 inf 1.0000000180025095e-35 1.0000000180025095e-35 1.0000000180025095e-35 1.0000000180025095e-35 1.0000000180025095e-35 1.0000000180025095e-35 1.0000000180025095e-35 1.0000000180025095e-35 1.0000000180025095e-35 1.0000000180025095e-35 1.0000000180025095e-35 1.0000000180025095e-35 1.0000000180025095e-35
decision_type=2 2 2 8 8 2 2 2 2 2 8 10 2 2 2 8 2 2 2 10 2 10 2 8
left_child=2 4 6 8 5 21 7 10 9 11 -1 -3 19 14 -5 -9 17 -6 -15 23 -14 -2 -21 -4
right_child=1 3 12 13 16 -7 -8 15 -10 -11 -12 -13 20 18 -16 -17 -18 -19 -20 22 -22 -23 -24 -25
leaf_value=-0.0059299816198914064 0.048978693114409555 0.0039614268713589517 0.010131968980184192 -0.02039498009422103 0.025109203769434225 0.012281278763834566 0.0095760887137027427 0.068219549660386986 0.039126371154636463 0.067268080725193247 -0.012857486979309215 0.026343248292719019 0.044379812329737992 0.037581688903441775 0.0057507759744811785 0.022242417252833394 0.00431635912926595 -0.015106117972069949 -0.01321528375411433 0.015630224439189645 0.016585067482622607 0.060223783088813938 0.042558546926775298 0.0056002886714214767
leaf_weight=13890.073601558805 1382.7224743999541 2209.1093838214874 3814.2758798748255 1257.2299081683159 1031.8809152916074 303.88183749467134 1255.0730516090989 70.317611739039421 457.77736673504114 107.49214532598853 11414.281048819423 456.19154316186905 156.74455895647407 58.108209393918514 217.57783165574074 77.58353079855442 278.02198495715857 55.694626569747925 52.522587284445763 609.97808255255222 90.511503979563713 429.97102457657456 51.926146134734154 2248.1149611547589
leaf_count=46049 1681 3463 7509 2954 1980 431 1858 73 568 126 61020 584 193 67 315 103 405 89 83 1137 123 447 60 6130
internal_value=0 0.0176701 -0.00413161 0.00477792 0.0355005 0.0459943 -0.00788493 -0.00874595 0.0142113 0.010098 -0.00905484 0.00779229 0.010247 -0.0144441 -0.0165377 0.0441016 0.0192358 0.0230498 0.0134655 0.00936607 0.0342052 0.051646 0.0177427 0.00845149
internal_weight=0 8298.18 33678.9 4816.01 3482.17 2116.58 26707.3 25452.3 3230.57 2772.79 25304.4 2665.3 6971.55 1585.44 1474.81 147.901 1365.6 1087.58 110.631 6724.3 247.256 1812.69 661.904 6062.39
internal_count=137448 13193 124255 8160 5033 2559 109103 107245 4741 4173 107069 4047 15152 3419 3269 176 2474 2069 150 14836 316 2128 1197 13639
is_linear=0
shrinkage=0.11438


Tree=30
num_leaves=25
num_cat=0
split_feature=7 6 5 3 2 2 2 3 3 2 5 5 6 5 5 5 5 5 3 5 5 6 2 6
split_gain=2100.82 113.75 102.671 77.7896 63.6794 30.5974 29.8688 25.5487 22.4519 14.8046 11.0651 10.7969 14.7283 10.4957 9.63244 5.75686 5.28426 4.49278 4.30359 3.46083 3.38159 18.0793 2.8542 1.19306
threshold=1.0000000180025095e-35 1.0000000180025095e-35 inf 1.0000000180025095e-35 1.0000000180025095e-35 1.0000000180025095e-35 1.0000000180025095e-35 1.0000000180025095e-35 1.0000000180025095e-35 1.0000000180025095e-35 1.0000000180025095e-35 inf 1.0000000180025095e-35 inf 1.0000000180025095e-35 1.0000000180025095e-35 1.0000000180025095e-35 1.0000000180025095e-35 1.0000000180025095e-35 1.0000000180025095e-35 1.0000000180025095e-35 1.0000000180025095e-35 1.0000000180025095e-35 1.0000000180025095e-35
decision_type=2 2 8 2 2 2 2 2 2 2 10 8 2 8 10 10 10 8 2 8 8 2 2 2
left_child=1 3 5 6 8 7 14 10 11 18 -3 12 15 -8 19 -2 20 23 -4 -1 -6 -22 -5 -10
right_child=4 2 9 22 16 -7 13 -9 17 -11 -12 -13 -14 -15 -16 -17 -18 -19 -20 -21 21 -23 -24 -25
leaf_value=-0.023354472405080737 0.055852573186824316 -0.0045378494532058496 -0.020477075380566246 0.042391283955118916 0.021158805629828737 0.038744663661060066 0.020218276706702027 0.054175334912742297 0.018177002373585667 0.012981076671320502 0.0048574181682212074 0.044522173866367906 0.046217483328879448 -0.014973299686468452 -0.016823399841706638 0.069402798844223942 0.054541112682931665 -0.0015737301724692209 0.0071328508009134897 -0.027300738574985106 0.023761054633650715 -0.028447114044554668 0.012738286814306953 0.042067109569402239
leaf_weight=5726.8604549765587 2067.6010677069426 8086.556356690824 6399.4711920171976 235.06722399219871 492.03048612549901 246.28515270352364 267.64725039899349 104.642742164433 54.672126390039921 181.3005049675703 2057.1730348840356 3980.8378589600325 2497.22751211375 189.28809434175491 2032.4145862385631 511.71644729375839 46.082774486392736 125.69025272130966 74.720517233014107 5905.5074484497309 269.92690335214138 127.89151518791914 51.829753436148167 54.71997381746769
leaf_count=20296 2080 22843 32991 273 689 304 353 126 85 252 5613 4415 2753 311 7225 458 55 196 105 35310 342 217 77 79
internal_value=0 -0.0144369 -0.00814265 -0.0219287 0.0452118 -0.00109501 -0.0231266 -0.00205242 0.048076 -0.0192557 -0.00263247 0.0489818 0.0524788 0.00563996 -0.0240885 0.0585408 0.0167745 0.0131779 -0.0201584 -0.0253579 0.0148187 0.00697706 0.0370343 0.0301273
internal_weight=0 31558.8 17150.1 14408.6 10228.4 10494.7 14121.7 10248.4 9292.47 6655.49 10143.7 9057.38 5076.55 456.935 13664.8 2579.32 935.932 235.082 6474.19 11632.4 889.849 397.818 286.897 109.392
internal_count=137448 126079 62234 63845 11369 28886 63495 28582 10066 33348 28456 9706 5291 664 62831 2538 1303 360 33096 55606 1248 559 350 164
is_linear=0
shrinkage=0.11438


Tree=31
num_leaves=25
num_cat=0
split_feature=1 0 0 5 5 6 5 3 5 3 3 6 3 5 5 3 3 6 6 3 5 6 6 3
split_gain=183.764 116.848 100.661 49.2468 35.607 21.7787 18.1202 14.3045 13.5793 26.4287 11.221 9.89407 8.87495 6.54181 6.42459 4.86974 4.63833 12.2259 4.0252 3.82002 3.47806 3.1827 2.48042 3.62209
threshold=1.0000000180025095e-35 1.0000000180025095e-35 1.0000000180025095e-35 inf inf 1.0000000180025095e-35 1.0000000180025095e-35 1.0000000180025095e-35 inf 1.0000000180025095e-35 1.0000000180025095e-35 1.0000000180025095e-35 1.0000000180025095e-35 1.0000000180025095e-35 1.0000000180025095e-35 1.0000000180025095e-35 1.0000000180025095e-35 1.0000000180025095e-35 1.0000000180025095e-35 1.0000000180025095e-35 1.0000000180025095e-35 1.0000000180025095e-35 1.0000000180025095e-35 1.0000000180025095e-35
decision_type=2 2 2 8 8 2 10 2 8 2 2 2 2 10 10 2 2 2 2 2 8 2 2 2
left_child=2 4 8 5 10 19 7 -7 9 -1 13 -4 14 21 20 -6 -5 -18 -15 -3 -13 -2 23 -10
right_child=1 3 11 16 15 6 -8 -9 22 -11 -12 12 -14 18 -16 -17 17 -19 -20 -21 -22 -23 -24 -25
leaf_value=-0.0049253861959061753 0.033081508779016403 -0.00066259950707897076 0.0040989417664125984 -0.014299510775468057 0.018983143099590687 0.012905316095349366 0.046474465722386685 0.065373066394347867 -0.011628415024933253 0.050627143300500443 -0.0043860918928429315 0.013033357137811865 0.046203877217680843 0.043557415725587564 0.026287094884095807 -0.011034764480656059 0.042357956836942982 -0.035716376162719943 0.066152504968066156 0.026214641754812952 0.0051436030086216807 0.043617544974676604 -0.0080609132459554741 0.019627589292648209
leaf_weight=14276.378196038306 622.14578895270824 1234.5669599547982 3232.4057458490133 1462.2331802472472 1274.9750316813588 1504.656704030931 288.07274578884244 71.197502613067627 5883.8661106973886 112.92452014237642 68.160950765013695 2031.6287334561348 101.13988367468119 193.6204137057066 361.53762473165989 74.854992888867855 63.759873025119305 44.59109515696764 220.74452613294125 73.289284057915211 1141.8125477880239 944.58909855037928 5915.9733814895153 48.908709853887558
leaf_count=46868 854 2022 7444 3269 2357 2196 325 89 32644 133 118 3830 122 233 573 117 71 79 211 109 3183 1143 29393 65
internal_value=0 0.0155573 -0.00362374 0.00395638 0.0317428 0.0121584 0.0200976 0.0152758 -0.00685066 -0.00448942 0.041244 0.00870321 0.0127963 0.0428139 0.0118405 0.0173185 -0.0126075 0.010227 0.0555945 0.00084354 0.0101946 0.0394337 -0.00971818 -0.0113707
internal_weight=0 8141.46 33106.6 4742.37 3399.09 3171.78 1863.93 1575.85 26238.1 14389.3 2049.26 6868.52 3636.12 1981.1 3534.98 1349.83 1570.58 108.351 414.365 1307.86 3173.44 1566.73 11848.7 5932.77
internal_count=137448 13193 124255 8160 5033 4741 2610 2285 109103 47001 2559 15152 7708 2441 7586 2474 3419 150 444 2131 7013 1997 62102 32709
is_linear=0
shrinkage=0.11438


Tree=32
num_leaves=25
num_cat=0
split_feature=7 4 4 3 2 5 2 2 3 5 5 5 5 2 3 3 5 5 5 5 5 5 3 5
split_gain=1690.73 343.043 206.866 75.5826 76.4117 66.2089 28.6153 27.0082 22.4466 11.3838 9.18096 9.14356 8.08813 9.70125 10.0614 7.12194 5.2208 4.43503 3.46424 3.41832 2.80997 1.59181 1.4564 1.31889
threshold=1.0000000180025095e-35 1.0000000180025095e-35 1.0000000180025095e-35 1.0000000180025095e-35 1.0000000180025095e-35 inf 1.0000000180025095e-35 1.0000000180025095e-35 1.0000000180025095e-35 inf 1.0000000180025095e-35 inf 1.0000000180025095e-35 1.0000000180025095e-35 1.0000000180025095e-35 1.0000000180025095e-35 1.0000000180025095e-35 1.0000000180025095e-35 inf 1.0000000180025095e-35 1.0000000180025095e-35 inf 1.0000000180025095e-35 1.0000000180025095e-35
decision_type=2 2 2 2 2 8 2 2 2 8 10 8 8 2 2 2 10 8 8 10 10 8 2 8
left_child=2 7 3 4 5 10 15 8 20 -10 -1 -6 22 14 -14 16 -4 -17 -9 23 -2 -8 -3 -5
right_child=1 12 6 19 11 -7 21 18 9 -11 -12 -13 13 -15 -16 17 -18 -19 -20 -21 -22 -23 -24 -25
leaf_value=-0.013583697122669033 0.052276470400867935 0.0018966560080172724 0.0324833925015134 0.04198234665033846 0.041559710075009478 -0.023358626501159677 0.00403046399259426 0.0318372663627772 0.033249841215133365 -0.030090934507117171 -0.0073096479221696469 0.010018292668693356 -0.02824596337309539 0.0042615887249672071 0.028766383146328615 0.027867554282599859 0.062775738972084744 -0.022750219778821097 0.011745540224551107 0.062239884178219865 0.059730230105861586 -0.010574511730342932 -0.017205193132782719 0.025895768623945242
leaf_weight=13105.478439211845 6987.2691501006484 713.98439858853817 1247.5227468982339 120.55283617973328 292.83770503848791 11467.308176055551 211.23615586012602 282.25296270847321 98.897413317114115 59.426196910440922 3977.3964207172394 204.00688709318638 526.66941302642226 223.25521998479962 43.869770310819149 42.964344665408134 79.156601626425982 47.885686572641134 186.42746611684561 65.359734918922186 730.89716129750013 181.53327348828316 56.339651804417372 149.1995594650507
leaf_count=42385 7269 1104 1636 158 344 67419 315 385 153 104 12758 291 899 320 55 62 80 82 256 73 725 289 99 187
internal_value=0 0.0413071 -0.0129267 -0.0152388 -0.0158619 -0.0166358 0.0245996 0.0505205 0.0521078 0.00947511 -0.0121229 0.0286086 -0.00784981 -0.0159524 -0.0238622 0.0321692 0.0342908 0.00118769 0.0238454 0.0387712 0.0529823 -0.00271978 0.000499593 0.0330849
internal_weight=0 9909.29 31192.4 29382.1 29047 28550.2 1810.3 8345.17 7876.49 158.324 17082.9 496.845 1564.12 793.794 570.539 1417.53 1326.68 90.85 468.68 335.112 7718.17 392.769 770.324 269.752
internal_count=137448 11369 126079 123615 123197 122562 2464 8892 8251 257 55143 635 2477 1274 954 1860 1716 144 641 418 7994 604 1203 345
is_linear=0
shrinkage=0.11438


Tree=33
num_leaves=25
num_cat=0
split_feature=7 4 1 4 5 3 1 5 5 4 3 5 5 5 3 5 3 1 4 3 3 5 5 5
split_gain=1361.64 285.467 268.311 133.006 53.5199 39.2874 37.7307 28.507 14.1635 7.4953 12.931 7.4055 6.96522 6.56254 22.4238 6.22034 5.9463 5.76797 4.74301 4.68985 3.414 1.78278 1.55642 1.11959
threshold=1.0000000180025095e-35 1.0000000180025095e-35 1.0000000180025095e-35 1.0000000180025095e-35 inf 1.0000000180025095e-35 1.0000000180025095e-35 1.0000000180025095e-35 inf 1.0000000180025095e-35 1.0000000180025095e-35 inf 1.0000000180025095e-35 1.0000000180025095e-35 1.0000000180025095e-35 1.0000000180025095e-35 1.0000000180025095e-35 1.0000000180025095e-35 1.0000000180025095e-35 1.0000000180025095e-35 1.0000000180025095e-35 1.0000000180025095e-35 inf 1.0000000180025095e-35
decision_type=2 2 2 2 8 2 2 10 8 2 2 8 10 8 2 8 2 2 2 2 2 8 8 10
left_child=2 6 3 5 7 8 12 18 23 10 -6 -7 16 -8 -15 17 -2 -3 -4 -17 22 -18 -5 -1
right_child=1 15 4 20 9 11 13 -9 -10 -11 -12 -13 -14 14 -16 19 21 -19 -20 -21 -22 -23 -24 -25
leaf_value=-0.017082095956535665 0.049499558279012083 -0.0071519582496089099 0.011845627599289608 0.028634186416748215 -0.010031865964522688 0.056112109789201524 0.038054155136695508 0.038181633899964693 -0.022166071064188976 0.01157153145869781 0.036531695035421134 0.0066366558867018456 0.061990712935969979 0.028016615819246044 -0.053532255714757247 -0.016752688503821209 0.034120626459979563 0.013345285851718002 0.025909944458508454 0.013278445964058579 -0.0048239952149267198 0.0029514622889701648 0.019681011430545497 -0.014677772941510542
leaf_weight=10579.829308114946 5799.1998460441828 484.67951191961765 2778.5474174395204 515.00776763260365 1609.0721839517355 101.83270799741149 768.37970847263932 755.87582730129361 9901.7613227963448 310.05663876235485 82.00187274813652 64.744129292666912 596.91799610480666 760.63942639529705 46.829299297183752 727.77365037426353 58.032482925802469 285.35548047721386 353.62543487548828 75.047483913600445 55.865753658115864 40.94649949669838 501.26248627901077 3331.7041231244802
leaf_count=38504 6141 776 4262 648 4169 116 973 907 63541 439 95 92 575 954 97 1171 91 427 467 103 87 61 757 11995
internal_value=0 0.0376773 -0.011546 -0.0167102 0.0104222 -0.0184725 0.0463646 0.0182448 -0.0188597 -0.00477655 -0.00777395 0.0368823 0.0502167 0.0304875 0.0232872 -0.00690076 0.0490251 0.000443802 0.0134335 -0.0139454 0.0227048 0.0212263 0.0242181 -0.0165063
internal_weight=0 9643.8 30941.2 25052 5889.18 23979.9 8070.95 3888.05 23813.3 2001.13 1691.07 166.577 6495.1 1575.85 807.469 1572.86 5898.18 770.035 3132.17 802.821 1072.14 98.979 1016.27 13911.5
internal_count=137448 11369 126079 115740 10339 114248 8892 5636 114040 4703 4264 208 6868 2024 1051 2477 6293 1203 4729 1274 1492 152 1405 50499
is_linear=0
shrinkage=0.11438


Tree=34
num_leaves=25
num_cat=0
split_feature=7 4 1 4 5 1 3 5 5 5 5 4 3 5 3 3 5 1 4 3 3 5 5 3
split_gain=1095.26 236.651 212.888 105.51 42.4848 31.9324 31.4515 23.4419 11.9169 6.4184 6.35126 5.90287 10.3269 5.64207 17.4902 4.99875 4.80478 4.55267 3.92241 3.63317 2.73623 1.47952 1.43165 1.07031
threshold=1.0000000180025095e-35 1.0000000180025095e-35 1.0000000180025095e-35 1.0000000180025095e-35 inf 1.0000000180025095e-35 1.0000000180025095e-35 1.0000000180025095e-35 inf 1.0000000180025095e-35 inf 1.0000000180025095e-35 1.0000000180025095e-35 1.0000000180025095e-35 1.0000000180025095e-35 1.0000000180025095e-35 1.0000000180025095e-35 1.0000000180025095e-35 1.0000000180025095e-35 1.0000000180025095e-35 1.0000000180025095e-35 1.0000000180025095e-35 1.0000000180025095e-35 1.0000000180025095e-35
decision_type=2 2 2 2 8 2 2 10 8 10 8 2 2 8 2 2 8 2 2 2 2 8 10 2
left_child=2 5 3 6 7 9 8 18 -1 15 -8 12 -6 -7 -15 -2 17 -3 23 -18 22 -17 -5 -4
right_child=1 16 4 20 11 13 10 -9 -10 -11 -12 -13 -14 14 -16 21 19 -19 -20 -21 -22 -23 -24 -25
leaf_value=-0.014715771513829225 0.045359733783341391 -0.0062953392874418972 0.010232829426316837 0.020767194101232102 -0.0088995485160731393 0.034843052013386444 0.052200459700274905 0.034637102739818598 -0.019936165316428604 0.057641367587279793 0.0059037999538106975 0.010312791228433532 0.03319432287776064 0.025329823005346006 -0.045303157825164322 0.031215463082150521 -0.014652802767192896 0.011959783271049089 0.023448250384259715 0.011882228553895383 -0.0042556301366118996 0.0026202809601603154 0.041538495134752405 0.027059306208216654
leaf_weight=13824.955761581659 5616.0726942569017 487.46838615834713 2716.1638645455241 959.46354092657566 1606.5025005936623 744.69162911176682 97.227901145815849 738.98806501552463 9759.1343046873808 570.18323820829391 64.473720952868462 308.22557534277439 80.047229543328285 746.01820470765233 48.869194645434618 56.287520281970501 736.33903132379055 282.19494496658444 346.50740465149283 74.319898597896099 56.070370726287365 40.852484107017517 45.468955114483833 50.373694337904453
leaf_count=50499 6141 776 4185 1353 4169 973 116 907 63541 575 92 439 95 954 97 91 1171 427 467 103 87 61 52 77
internal_value=0 0.0342969 -0.0103269 -0.0149545 0.00930715 0.0424524 -0.0165313 0.0163235 -0.016876 0.0460696 0.033741 -0.00424176 -0.00690168 0.0276893 0.0209874 0.0449148 -0.00607479 0.000397851 0.0119761 -0.0122201 0.020335 0.0191897 0.021707 0.0105392
internal_weight=0 9403.3 30653.6 24806.8 5846.81 7822.97 23745.8 3852.03 23584.1 6283.4 161.702 1994.78 1686.55 1539.58 794.887 5713.21 1580.32 769.663 3113.04 810.659 1061 97.14 1004.93 2766.54
internal_count=137448 11369 126079 115740 10339 8892 114248 5636 114040 6868 208 4703 4264 2024 1051 6293 2477 1203 4729 1274 1492 152 1405 4262
is_linear=0
shrinkage=0.11438


Tree=35
num_leaves=23
num_cat=0
split_feature=1 0 0 4 4 2 3 3 4 3 2 2 3 2 3 2 4 3 4 2 2 2
split_gain=87.1467 94.6775 61.9495 34.6605 18.105 30.924 23.4674 17.0249 11.577 9.62118 8.91296 8.5356 3.85675 2.30718 1.53355 1.53008 1.27989 0.795323 0.67551 2.2021 0.886149 0.443335
threshold=1.0000000180025095e-35 1.0000000180025095e-35 1.0000000180025095e-35 1.0000000180025095e-35 1.0000000180025095e-35 1.0000000180025095e-35 1.0000000180025095e-35 1.0000000180025095e-35 1.0000000180025095e-35 1.0000000180025095e-35 1.0000000180025095e-35 1.0000000180025095e-35 1.0000000180025095e-35 1.0000000180025095e-35 1.0000000180025095e-35 1.0000000180025095e-35 1.0000000180025095e-35 1.0000000180025095e-35 1.0000000180025095e-35 1.0000000180025095e-35 1.0000000180025095e-35 1.0000000180025095e-35
decision_type=2 2 2 2 2 2 2 2 2 2 2 2 2 2 2 2 2 2 2 2 2 2
left_child=2 3 8 7 5 6 -3 13 9 11 17 -1 18 -2 -12 -10 -14 -6 19 -4 -20 -5
right_child=1 4 12 21 10 -7 -8 -9 15 -11 14 -13 16 -15 -16 -17 -18 -19 20 -21 -22 -23
