tree
version=v3
num_class=1
num_tree_per_iteration=1
label_index=0
max_feature_idx=7
objective=binary sigmoid:1
feature_names=Cough Fever Sore_throat Shortness_of_breath Headache Age_60+ Male Contact_with_confirmed
feature_infos=[0:1] [0:1] [0:1] [0:1] [0:1] [0:1] [0:1] [0:1]
tree_sizes=3667 3615 2912 2537 1953 3665 2064 3037 2699 2184 1971 2696 2310 3233 2428 2716 2351 3085 2378 2908 3921 3408 2360 2103 3054 2708 3223 2627 3680 2764 3017 3060 2669 3077 2775 2237 2611 3164 3646 2349 2834 2546 2484 3485 3705 2706 3447

Tree=0
num_leaves=33
num_cat=0
split_feature=0 4 1 2 5 5 4 2 1 5 5 5 5 5 2 2 1 2 5 5 2 1 5 5 5 5 5 2 1 1 5 5
split_gain=65648.5 44259.4 20365.8 9782.97 8294.65 18.6788 8.03955 2.38912 0.970332 0.874237 0.523196 0.328539 0.298358 0.214582 0.149968 0.125273 0.123614 0.227795 0.085521 0.0555853 0.0551539 0.0451645 0.0382706 0.0249438 0.0218964 0.0204224 0.0152469 0.015004 0.00495886 0.00470368 0.0039315 0.000915575
threshold=1.0000000180025095e-35 1.0000000180025095e-35 1.0000000180025095e-35 1.0000000180025095e-35 inf 1.0000000180025095e-35 1.0000000180025095e-35 1.0000000180025095e-35 1.0000000180025095e-35 1.0000000180025095e-35 1.0000000180025095e-35 1.0000000180025095e-35 1.0000000180025095e-35 1.0000000180025095e-35 1.0000000180025095e-35 1.0000000180025095e-35 1.0000000180025095e-35 1.0000000180025095e-35 1.0000000180025095e-35 1.0000000180025095e-35 1.0000000180025095e-35 1.0000000180025095e-35 1.0000000180025095e-35 1.0000000180025095e-35 1.0000000180025095e-35 1.0000000180025095e-35 1.0000000180025095e-35 1.0000000180025095e-35 1.0000000180025095e-35 1.0000000180025095e-35 1.0000000180025095e-35 1.0000000180025095e-35
decision_type=2 2 2 2 8 10 2 2 2 10 8 8 8 10 2 2 2 2 8 10 2 2 8 10 8 8 8 2 2 2 8 10
left_child=1 2 3 4 5 -1 7 8 13 12 20 15 -10 30 19 -4 17 26 28 -12 21 -3 -5 -13 -19 27 -8 -18 -9 -22 -2 -28
right_child=6 10 11 22 -6 -7 16 18 9 -11 14 23 -14 -15 -16 -17 25 24 -20 -21 29 -23 -24 -25 -26 -27 31 -29 -30 -31 -32 -33
leaf_value=-0.18611127555993145 0.87212065910761083 0.88919906071835109 0.87570771660967139 0.8868292432920829 -0.50123700160575724 -0.21364941145072303 0.89484384417104501 0.88837965795958795 0.86068329040053615 0.88750503065981645 0.9031012471767691 0.88560436988874847 0.84501835228418498 0.88105915395549828 0.88940972238579963 0.88498037341707225 0.89555093417595855 0.88893317085118784 0.89595643229879829 0.89606631433975648 0.89228363155536616 0.88595693105152706 0.89288316738513829 0.89100005395207527 0.88422459568457856 0.90060143478545274 0.8979241233807661 0.89860876023619229 0.88605122221871668 0.89046963094929787 0.87106141214358312 0.89679920338105523
leaf_weight=67068.819211959839 4622.8728489875793 4267.722119808197 2342.4251437187195 1289.0893797874451 23014.169795036316 5501.4883160591125 2134.2338037490845 872.8050742149353 1542.9323453903198 236.00812816619873 814.23828601837158 472.51625633239746 299.74007892608643 592.14532041549683 282.90975379943848 345.05686712265015 761.25633525848389 943.28251266479492 357.05235481262207 324.14621686935425 969.77348804473877 1119.643527507782 258.8339409828186 282.65975379943848 260.0839409828186 393.62365531921387 337.89170455932617 586.39532041549683 240.92329072952271 424.11463069915771 857.47926139831543 267.66426610946655
leaf_count=167327 1343 1088 663 335 72524 14041 519 224 485 61 184 124 104 161 72 91 184 241 86 78 241 293 64 71 69 91 80 138 63 107 251 64
internal_value=0 -0.123966 -0.206731 -0.245221 -0.26357 -0.188199 0.880987 0.872984 0.869942 0.86147 0.890846 0.879251 0.858135 0.872843 0.898772 0.876898 0.894534 0.893126 0.889838 0.901098 0.889184 0.888525 0.887842 0.887624 0.887916 0.897722 0.895415 0.896881 0.887876 0.891732 0.871955 0.897427
internal_weight=0 108778 100575 97132.4 95584.5 72570.3 15306.4 9621.96 8151.18 2078.68 8202.55 3442.66 1842.67 6072.5 1421.29 2687.48 5684.43 3943.16 1470.78 1138.38 6781.25 5387.37 1547.92 755.176 1203.37 1741.28 2739.79 1347.65 1113.73 1393.89 5480.35 605.556
internal_count=261467 257303 255240 254291 253892 181368 4164 2778 2405 650 2063 949 589 1755 334 754 1386 973 373 262 1729 1381 399 195 310 413 663 322 287 348 1594 144
is_linear=0
shrinkage=0.454341


Tree=1
num_leaves=33
num_cat=0
split_feature=7 4 2 4 2 5 5 5 6 6 6 6 6 5 5 5 5 6 6 2 5 2 2 5 5 6 5 6 2 5 6 6
split_gain=119840 23473.3 5977.71 1638.07 589.874 573.491 252.191 221.441 47.1977 8.75446 6.0967 1.72598 1.01353 0.88984 0.465672 0.442659 0.138396 0.0327881 0.0242082 0.0201407 0.0416479 0.0105018 0.0102863 0.190629 0.0941035 0.0173095 0.0684212 0.0170878 0.00463359 0.00159136 0.00149532 0.000597298
threshold=1.0000000180025095e-35 1.0000000180025095e-35 1.0000000180025095e-35 1.0000000180025095e-35 1.0000000180025095e-35 inf 1.0000000180025095e-35 inf 1.0000000180025095e-35 1.0000000180025095e-35 1.0000000180025095e-35 1.0000000180025095e-35 1.0000000180025095e-35 1.0000000180025095e-35 1.0000000180025095e-35 1.0000000180025095e-35 1.0000000180025095e-35 1.0000000180025095e-35 1.0000000180025095e-35 1.0000000180025095e-35 1.0000000180025095e-35 1.0000000180025095e-35 1.0000000180025095e-35 inf inf 1.0000000180025095e-35 1.0000000180025095e-35 1.0000000180025095e-35 1.0000000180025095e-35 1.0000000180025095e-35 1.0000000180025095e-35 1.0000000180025095e-35
decision_type=2 2 2 2 2 8 10 8 2 2 2 2 2 10 10 8 8 2 2 2 10 2 2 8 8 2 10 2 2 8 2 2
left_child=1 2 5 4 7 6 8 10 -1 -8 13 -9 -7 -2 -12 18 31 29 21 20 -17 -5 24 30 25 26 -3 -26 -20 -4 -24 -6
right_child=3 22 17 15 16 12 9 11 -10 -11 14 -13 -14 -15 -16 19 -18 -19 28 -21 -22 -23 23 -25 27 -27 -28 -29 -30 -31 -32 -33
leaf_value=-0.32817158647805811 0.88344083695888509 0.62647344198803101 0.62649262192604926 0.6107892410661695 0.60674511678023524 -0.39010287886614742 -0.22729163639516753 1.0258698104701887 -0.3019044816789177 -0.1898669852796899 0.8996690496380636 1.050342908447224 -0.39649845806582784 0.86566212446338409 0.88565431343368151 0.62491397967332318 0.61900425219441102 0.62226594900331156 0.6095882340678348 0.61788467418100257 0.61760819576355763 0.61276026632669489 0.62926942115137963 0.61488986204792406 0.63625004632531268 0.62928092959556392 0.63521440838788856 0.63130586753130913 0.60783850002862228 0.62799661627380932 0.63029283635193734 0.60739178115006265
leaf_weight=27544.566993251443 8529.5373656302691 1975.9089875668287 667.70601938664913 2017.547852948308 732.58607397973537 9574.1891609579325 2810.1712810248137 1214.685319468379 28974.858182579279 2385.5642215907574 8520.9432070553303 1165.7943910509348 10981.875899404287 623.61954900622368 519.2328334748745 458.91186200082302 236.74621456861496 528.56481243669987 1398.0172369629145 295.76443168520927 248.18164552748203 771.35177272558212 889.42072847485542 210.36848515272141 356.82729348540306 1540.2388066202402 203.93592199683189 242.27080829441547 402.32710736989975 185.59008768200874 440.75047069787979 493.44516581296921
leaf_count=81071 2518 572 194 650 243 33547 7695 353 83755 6332 2474 327 38762 170 131 133 72 158 454 91 76 245 252 66 95 437 55 67 132 53 124 163
internal_value=0 -0.250474 -0.312052 0.831995 0.887725 -0.327792 -0.3059 0.907545 -0.314706 -0.210109 0.890495 1.03786 -0.39352 0.88223 0.898864 0.612386 0.608947 0.625078 0.610496 0.621033 0.62235 0.611334 0.628607 0.627599 0.628966 0.628115 0.627291 0.634251 0.609197 0.62682 0.629609 0.607005
internal_weight=0 89512.8 83653.1 27628.7 22036.6 82271.2 61715.2 20573.8 56519.4 5195.74 18193.3 2380.48 20556.1 9153.16 9040.18 5592.1 1462.78 1381.86 4589.24 1002.86 707.094 2788.9 5859.72 1540.54 4319.18 3720.08 2179.84 599.098 1800.34 853.296 1330.17 1226.03
internal_count=261467 253235 251567 8232 6451 251162 178853 5973 164826 14027 5293 680 72309 2688 2605 1781 478 405 1481 300 209 895 1668 442 1226 1064 627 162 586 247 376 406
is_linear=0
shrinkage=0.454341


Tree=2
num_leaves=26
num_cat=0
split_feature=0 2 3 5 5 2 5 6 6 3 6 5 6 5 6 6 5 5 5 5 5 6 3 5 6
split_gain=16419.8 3500.4 2557.21 1612.48 23.7925 19.8855 17.2926 10.0554 5.03065 3.87707 2.25761 1.1682 0.751864 0.207997 0.170429 0.133646 0.250744 0.0627231 0.0485649 0.0485571 0.0148267 0.00773364 0.00681695 0.00520175 0.00052133
threshold=1.0000000180025095e-35 1.0000000180025095e-35 1.0000000180025095e-35 inf 1.0000000180025095e-35 1.0000000180025095e-35 1.0000000180025095e-35 1.0000000180025095e-35 1.0000000180025095e-35 1.0000000180025095e-35 1.0000000180025095e-35 1.0000000180025095e-35 1.0000000180025095e-35 1.0000000180025095e-35 1.0000000180025095e-35 1.0000000180025095e-35 1.0000000180025095e-35 1.0000000180025095e-35 1.0000000180025095e-35 1.0000000180025095e-35 inf 1.0000000180025095e-35 1.0000000180025095e-35 1.0000000180025095e-35 1.0000000180025095e-35
decision_type=2 2 2 8 10 2 8 2 2 2 2 8 2 8 2 2 10 10 8 8 8 2 2 8 2
left_child=1 2 3 4 7 9 -4 -1 -5 11 -6 21 20 24 19 16 -13 -17 -14 -3 22 -2 -7 -16 -11
right_child=5 14 6 8 10 12 -8 -9 -10 13 -12 15 18 -15 23 17 -18 -19 -20 -21 -22 -23 -24 -25 -26
leaf_value=-0.039740934395843877 0.56885211464022933 0.51783932709476044 0.81692604178616035 -0.17503857421183375 -0.073575561379606552 0.53165186741657677 0.97518501669108393 -0.028591584932481106 -0.18954763529618546 0.60360744338438954 -0.055121469404473988 0.5858457176742029 0.51079959724706614 0.62077935271200702 0.52787578159826654 0.58429158703436557 0.57120909507009221 0.59306538918353879 0.51965769575595089 0.52507934570041614 0.52773367440643448 0.56993461454332861 0.5348128681174863 0.52481270614457254 0.60259748319850859
leaf_weight=32606.346475288272 3089.6380622684956 1099.5560169368982 347.21190583705902 9314.4973754733801 2977.4297904968262 1008.1288494616747 241.76260060071945 34224.440364673734 10486.784265398979 331.04686327278614 2532.2938188910484 563.42699111253023 512.14146177470684 197.25298631936312 699.52125622332096 424.61431701481342 422.99656435847282 278.522337064147 170.22984735667706 231.47722692787647 186.66963867843151 2436.8910147994757 163.70157970488071 136.83123111724854 154.85551714897156
leaf_count=83309 1316 482 112 33792 7769 413 67 85950 38985 116 6389 243 232 66 292 189 169 103 74 98 78 1044 66 58 55
internal_value=0 -0.04847 -0.0618103 -0.0678425 -0.0363971 0.565294 0.881888 -0.0340313 -0.182723 0.575623 -0.065094 0.572526 0.525314 0.608337 0.522292 0.582981 0.579569 0.587767 0.513009 0.519098 0.531494 0.569329 0.532093 0.527375 0.603286
internal_weight=0 94898.2 92730.8 92141.8 72340.5 9940.12 588.975 66830.8 19801.3 7899.24 5509.72 7216.09 2040.87 683.155 2167.39 1689.56 986.424 703.137 682.371 1331.03 1358.5 5526.53 1171.83 836.352 485.902
internal_count=261467 257303 256373 256194 183417 4164 179 169259 72777 3301 14158 3064 863 237 930 704 412 292 306 580 557 2360 479 350 171
is_linear=0
shrinkage=0.454341


Tree=3
num_leaves=23
num_cat=0
split_feature=7 1 2 3 1 2 5 5 2 5 3 3 5 5 5 5 5 5 5 5 2 5
split_gain=44978.2 9602.45 2160.98 1703.17 216.181 159.895 67.8136 43.285 26.5395 26.027 15.603 3.18979 1.9223 1.58731 1.13605 0.589504 0.432148 0.324847 0.287278 0.0312158 0.0279544 0.00822149
threshold=1.0000000180025095e-35 1.0000000180025095e-35 1.0000000180025095e-35 1.0000000180025095e-35 1.0000000180025095e-35 1.0000000180025095e-35 inf 1.0000000180025095e-35 1.0000000180025095e-35 1.0000000180025095e-35 1.0000000180025095e-35 1.0000000180025095e-35 inf 1.0000000180025095e-35 1.0000000180025095e-35 1.0000000180025095e-35 inf 1.0000000180025095e-35 1.0000000180025095e-35 1.0000000180025095e-35 1.0000000180025095e-35 1.0000000180025095e-35
decision_type=2 2 2 2 2 2 8 10 2 8 2 2 8 10 10 8 8 8 8 8 2 10
left_child=1 2 3 7 5 6 10 9 11 -1 13 12 21 -2 18 -5 -4 -7 20 -10 -6 -3
right_child=4 8 16 15 14 17 -8 -9 19 -11 -12 -13 -14 -15 -16 -17 -18 -19 -20 -21 -22 -23
leaf_value=-0.19262682415148236 0.62103917249475338 0.60667450710336046 0.48598879282545371 0.66121457822388197 0.4518677883387569 0.44845656093894387 0.70614093928791977 -0.15261880376841855 0.48621952891533832 -0.21327297797248776 0.49050696070530192 0.549993500307283 0.64118233076633291 0.64091322534077844 0.49932927986335252 0.6937722142715067 0.45884740477299085 0.46832748111948763 0.47057855913692881 0.49532553177975458 0.45667646128671724 0.60934612946783884
leaf_weight=52777.867335736752 14491.335589267313 2185.8924600332975 861.97868146747351 264.6448380202055 1195.171569891274 885.67326701432467 2180.4245044440031 4726.0556828454137 337.2132810652256 16558.337837353349 188.05235914885998 184.15652969479561 393.26063246279955 879.94191602617502 128.75258096307516 202.7531490623951 140.88962669670582 210.11637859046459 216.21567494422197 100.982202000916 315.41059851646423 266.79456745833158
leaf_count=164846 5240 821 503 89 754 581 699 13978 197 72266 111 78 153 308 73 65 90 130 134 57 202 92
internal_value=0 -0.146376 -0.180319 -0.189234 0.606121 0.620697 0.631101 -0.19469 0.59283 -0.197557 0.620585 0.607943 0.611693 0.622177 0.458159 0.675338 0.482176 0.452267 0.455089 0.488318 0.452872 0.606965
internal_weight=0 79000.8 75532.5 74529.7 20691.1 18835.5 17739.8 74062.3 3468.3 69336.2 15559.3 3030.1 2845.95 15371.3 1855.55 467.398 1002.87 1095.79 1726.8 438.195 1510.58 2452.69
internal_count=261467 253235 251837 251244 8232 7069 6358 251090 1398 237112 5659 1144 1066 5548 1163 154 593 711 1090 254 956 913
is_linear=0
shrinkage=0.454341


Tree=4
num_leaves=17
num_cat=0
split_feature=7 4 1 3 2 1 4 2 2 1 2 2 4 1 2 2
split_gain=21131 6077.11 3615.23 773.953 536.158 71.5744 61.0069 32.5471 15.2863 8.94881 3.04406 1.72948 1.72843 0.176196 0.00855919 0.00433167
threshold=1.0000000180025095e-35 1.0000000180025095e-35 1.0000000180025095e-35 1.0000000180025095e-35 1.0000000180025095e-35 1.0000000180025095e-35 1.0000000180025095e-35 1.0000000180025095e-35 1.0000000180025095e-35 1.0000000180025095e-35 1.0000000180025095e-35 1.0000000180025095e-35 1.0000000180025095e-35 1.0000000180025095e-35 1.0000000180025095e-35 1.0000000180025095e-35
decision_type=2 2 2 2 2 2 2 2 2 2 2 2 2 2 2 2
left_child=1 2 3 4 -1 6 7 -2 9 -3 -4 -8 14 -10 -7 -14
right_child=5 8 10 -5 -6 12 11 -9 13 -11 -12 -13 15 -15 -16 -17
leaf_value=-0.13745642097630767 0.53027853060638341 0.54882735222573842 0.51532335353865222 0.56747719403571717 0.4415890123167483 0.38919364616461805 0.44145963186392723 0.40091572703370432 0.44522331611938099 0.47892281406838821 0.43817711144290417 0.4054522656210765 0.42465707838001776 0.46283801073509667 0.3938505612535666 0.42180463241076782
leaf_weight=67535.592159330845 11627.724850784987 2260.7677877135575 1748.0168884024024 325.6525934189558 331.70989803224802 705.28953180834651 1370.5600126348436 415.83124077320099 329.18394117057323 453.92262803390622 112.36819934844971 344.58701682090759 341.10272711515427 182.0489490032196 92.110161133110523 162.13225491344929
leaf_count=250223 5306 903 821 131 292 667 1052 390 288 323 100 321 261 154 88 147
internal_value=0 -0.0861486 -0.114226 -0.131273 -0.134626 0.504764 0.514395 0.525812 0.523566 0.537139 0.510664 0.434225 0.402889 0.451496 0.389732 0.423738
internal_weight=0 73279.3 70053.3 68193 67867.3 15059.3 13758.7 12043.6 3225.92 2714.69 1860.39 1715.15 1300.63 511.233 797.4 503.235
internal_count=261467 253235 251567 250646 250515 8232 7069 5696 1668 1226 921 1373 1163 442 755 408
is_linear=0
shrinkage=0.454341


Tree=5
num_leaves=33
num_cat=0
split_feature=0 4 2 5 4 6 2 2 5 6 5 6 2 6 5 5 5 6 5 6 5 6 6 6 5 5 5 6 6 5 6 5
split_gain=4944.03 2792.37 298.547 86.8896 30.0286 22.2374 19.6982 6.82423 3.57833 1.35895 1.34667 1.31349 0.908546 0.856318 0.774345 0.316118 0.297932 0.264056 0.227666 0.218394 0.292145 0.167964 0.121861 0.0821653 0.0758199 0.0453278 0.0450959 0.0166953 0.0121797 0.0078831 0.00351747 2.66907e-05
threshold=1.0000000180025095e-35 1.0000000180025095e-35 1.0000000180025095e-35 inf 1.0000000180025095e-35 1.0000000180025095e-35 1.0000000180025095e-35 1.0000000180025095e-35 1.0000000180025095e-35 1.0000000180025095e-35 inf 1.0000000180025095e-35 1.0000000180025095e-35 1.0000000180025095e-35 1.0000000180025095e-35 1.0000000180025095e-35 1.0000000180025095e-35 1.0000000180025095e-35 1.0000000180025095e-35 1.0000000180025095e-35 1.0000000180025095e-35 1.0000000180025095e-35 1.0000000180025095e-35 1.0000000180025095e-35 1.0000000180025095e-35 1.0000000180025095e-35 1.0000000180025095e-35 1.0000000180025095e-35 1.0000000180025095e-35 1.0000000180025095e-35 1.0000000180025095e-35 1.0000000180025095e-35
decision_type=2 2 2 8 2 2 2 2 8 2 8 2 2 2 10 10 10 2 8 2 8 2 2 2 8 10 8 2 2 10 2 10
left_child=1 2 3 5 6 14 10 8 23 -5 21 18 24 26 -1 30 -7 -9 -8 20 -4 25 -12 -3 28 -2 -14 31 -6 -23 -10 -26
right_child=4 7 19 9 12 16 11 17 15 -11 22 -13 13 -15 -16 -17 -18 -19 -20 -21 -22 29 -24 -25 27 -27 -28 -29 -30 -31 -32 -33
leaf_value=-0.032454701553425211 0.50465691529839229 0.44768988994518766 0.35449621679425369 -0.066677406935357619 0.41906853599374794 -0.014093345560856381 0.39641207323282818 0.37843539366759243 0.50531641045270048 -0.05783765088241425 0.53433223281781483 0.34143397210109167 0.41046871030918591 0.36071117625004917 -0.023979133866390619 0.47628115728608938 -0.0084779438728948796 0.40541991143450917 0.43470350433942778 0.38388074746850442 0.39745710049767063 0.49794280568346189 0.51994596002086946 0.45377705204109781 0.43205305449124048 0.51243628922549933 0.39580706171554358 0.42189171082285026 0.41481274896605413 0.50172031118666782 0.5022123056313601 0.43160261582997339
leaf_weight=25152.841537691653 1288.6079782620072 1044.1187075152993 192.93026019632816 6764.9307667464018 378.22205616533756 26890.259819535539 137.98724433779716 203.86725014075637 182.36743868142366 7648.9761769808829 281.40969100035727 105.45240356773138 201.402298822999 119.18918530642986 2441.1070581004024 116.47578134387732 2102.9029876738787 118.291210424155 41.750127024948597 152.97881385684013 39.337109036743641 1074.7948848567903 213.95123016834259 815.0722300875932 55.438285917043686 175.68985434249043 55.166298478841782 51.359126780182123 219.30563647672534 127.57393186353147 128.42226530611515 53.227341514080763
leaf_count=82598 991 781 260 33705 441 85392 177 269 109 38929 195 145 257 161 7740 78 6366 151 51 199 51 837 160 600 70 125 72 61 262 97 75 62
internal_value=0 -0.0114582 -0.0283301 -0.0304944 0.474957 -0.0224727 0.49605 0.450252 0.458975 -0.0619864 0.506364 0.381689 0.410799 0.392533 -0.0317049 0.496468 -0.0136861 0.388344 0.405307 0.370551 0.361772 0.502323 0.528119 0.450359 0.419859 0.50559 0.407316 0.428642 0.417507 0.498344 0.504034 0.431832
internal_weight=0 73994.9 71386.3 71001 4580.53 56587.1 3447.22 2608.61 2286.46 14413.9 3162.03 285.19 1133.31 375.758 27593.9 427.265 28993.2 322.158 179.737 385.246 232.267 2666.67 495.361 1859.19 757.552 1464.3 256.569 160.025 597.528 1202.37 310.79 108.666
internal_count=261467 257303 255240 254730 4164 182096 2778 2063 1643 72634 2405 373 1386 490 90338 262 91758 420 228 510 311 2050 355 1381 896 1116 329 193 703 934 184 132
is_linear=0
shrinkage=0.454341


Tree=6
num_leaves=18
num_cat=0
split_feature=7 0 1 4 3 0 1 4 1 4 4 4 4 1 1 3 1
split_gain=10088.8 3307.56 1674.21 1303.06 292.036 197.702 79.6741 55.5018 31.4843 21.6967 16.6928 8.68436 4.23016 3.32493 2.35487 1.52058 1.04351
threshold=1.0000000180025095e-35 1.0000000180025095e-35 1.0000000180025095e-35 1.0000000180025095e-35 1.0000000180025095e-35 1.0000000180025095e-35 1.0000000180025095e-35 1.0000000180025095e-35 1.0000000180025095e-35 1.0000000180025095e-35 1.0000000180025095e-35 1.0000000180025095e-35 1.0000000180025095e-35 1.0000000180025095e-35 1.0000000180025095e-35 1.0000000180025095e-35 1.0000000180025095e-35
decision_type=2 2 2 2 2 2 2 2 2 2 2 2 2 2 2 2 2
left_child=1 2 3 4 -1 7 11 8 -2 13 -8 -3 -4 15 -9 -7 -11
right_child=5 6 12 -5 -6 9 10 14 -10 16 -12 -13 -14 -15 -16 -17 -18
leaf_value=-0.092147792027364117 0.47252383357194366 0.50022456017865569 0.49558312577724412 0.45993292519505358 0.52764982196580168 0.11714112366081919 0.20167782335218878 0.34744898288914255 0.34115309324551857 0.28556980452537012 0.41317892764480479 0.42128858906608763 0.41928853115704073 0.21575484399744368 0.28170171365273849 0.26228180632376891 0.3407968101075709
leaf_weight=60919.107510901988 8122.3989942409098 1837.3992619030178 919.88178312033415 900.7345633096993 157.33278198540211 302.82319184485823 270.39744712039828 574.41547905467451 394.89099662005901 230.61062586121261 107.71774342283607 341.12135446816683 179.24567380361259 110.48480306565762 139.82832544110715 15.671380445361136 101.80150596424937
leaf_count=249588 4632 987 490 728 71 1018 431 863 459 510 218 463 259 296 213 46 195
internal_value=0 -0.0521593 -0.0726934 -0.0825508 -0.0905512 0.437878 0.45445 0.456231 0.466433 0.215356 0.26193 0.487864 0.483141 0.147842 0.334578 0.124283 0.302483
internal_weight=0 65632.9 63076.3 61977.2 61076.4 9992.93 2556.64 9231.53 8517.29 761.392 378.115 2178.52 1099.13 428.979 714.244 318.495 332.412
internal_count=261467 253235 251136 250387 249659 8232 2099 6167 5091 2065 649 1450 749 1360 1076 1064 705
is_linear=0
shrinkage=0.454341


Tree=7
num_leaves=27
num_cat=0
split_feature=0 4 3 5 6 5 5 6 5 3 6 5 6 5 4 5 5 4 5 5 4 4 5 6 6 4
split_gain=1222.84 791.911 156.93 11.958 8.66835 4.16489 1.50886 1.32308 1.31344 1.1135 0.685381 0.62021 0.500442 0.454672 0.319741 0.221745 0.183071 0.103494 0.0745872 0.0719502 0.0719461 0.0344185 0.0187842 0.0119899 0.0102117 0.00446083
threshold=1.0000000180025095e-35 1.0000000180025095e-35 1.0000000180025095e-35 inf 1.0000000180025095e-35 1.0000000180025095e-35 1.0000000180025095e-35 1.0000000180025095e-35 1.0000000180025095e-35 1.0000000180025095e-35 1.0000000180025095e-35 1.0000000180025095e-35 1.0000000180025095e-35 1.0000000180025095e-35 1.0000000180025095e-35 1.0000000180025095e-35 1.0000000180025095e-35 1.0000000180025095e-35 1.0000000180025095e-35 1.0000000180025095e-35 1.0000000180025095e-35 1.0000000180025095e-35 1.0000000180025095e-35 1.0000000180025095e-35 1.0000000180025095e-35 1.0000000180025095e-35
decision_type=2 2 2 8 2 8 10 2 10 2 2 10 2 8 2 8 10 2 8 8 2 2 8 2 2 2
left_child=1 2 3 4 8 12 9 -5 -1 10 19 -6 -3 -4 22 17 23 -11 -16 25 24 -21 -12 -7 -8 -2
right_child=6 5 13 7 11 16 20 -9 -10 15 14 -13 -14 -15 18 -17 -18 -19 -20 21 -22 -23 -24 -25 -26 -27
leaf_value=-0.010238475268386263 0.32638231701452303 0.33840230931784465 0.42492813396914908 -0.023584555423792949 0.001905504893845756 0.42623396014584225 0.37032816944456726 -0.014341332397273407 0.001250740308046573 0.37018570114242511 0.3149873218966221 0.01031194554761293 0.35866654631058353 0.47385328215269473 0.29781177322384944 0.40711560554423726 0.39382729929099125 0.34055324265168807 0.26992518514693398 0.33909196850244161 0.34775847277263883 0.32339840556760169 0.32108297490173682 0.41837196369007496 0.36325245920928484 0.32859834201147819
leaf_weight=23032.811205076054 755.88658080995083 589.16783719696105 84.044893976300955 6006.9164667557925 24781.898610671982 97.33907700330019 100.53698783367872 6833.1048225034028 2255.0672257114202 54.479392320849001 630.85366479679942 1954.5484848544002 439.03034440800548 73.500817928463221 142.12428351677954 22.31332035921514 60.707139497622848 43.964186385273933 23.003168810158968 165.58167497161776 49.74443069472909 34.933993972837925 125.03931670635939 68.024502035230398 72.441277586854994 249.37386996485293
leaf_count=82810 1086 1003 80 33722 85526 143 142 38935 7737 118 911 6363 726 67 351 54 94 123 58 216 123 90 174 97 110 608
internal_value=0 0.0017495 -0.00514823 -0.00624826 -0.00318357 0.359331 0.327316 -0.0186656 -0.00921392 0.323781 0.321371 0.00252005 0.347055 0.447753 0.312039 0.366221 0.415166 0.356952 0.293927 0.3285 0.362986 0.336358 0.315996 0.423 0.367365 0.326932
internal_weight=0 66276.2 65021.9 64864.3 52024.3 1254.27 2470.28 12840 25287.9 2247.55 2126.8 26736.4 1028.2 157.546 921.02 120.757 226.071 98.4436 165.127 1205.78 222.723 200.516 755.893 165.364 172.978 1005.26
internal_count=261467 257303 255240 255093 182436 2063 4164 72657 90547 3789 3494 91889 1729 147 1494 295 334 241 409 2000 375 306 1085 240 252 1694
is_linear=0
shrinkage=0.454341


Tree=8
num_leaves=24
num_cat=0
split_feature=7 2 3 2 5 5 6 5 5 6 5 6 6 5 6 3 6 5 6 6 5 6 5
split_gain=4916.56 167.128 120.872 64.1427 18.7504 6.96908 4.69767 1.14667 1.12615 1.02698 0.914591 0.567547 0.409377 0.381871 0.207838 0.166723 0.197033 0.0965059 0.0772364 0.0340288 0.0326074 0.016184 0.0038803
threshold=1.0000000180025095e-35 1.0000000180025095e-35 1.0000000180025095e-35 1.0000000180025095e-35 1.0000000180025095e-35 1.0000000180025095e-35 1.0000000180025095e-35 inf 1.0000000180025095e-35 1.0000000180025095e-35 inf 1.0000000180025095e-35 1.0000000180025095e-35 1.0000000180025095e-35 1.0000000180025095e-35 1.0000000180025095e-35 1.0000000180025095e-35 1.0000000180025095e-35 1.0000000180025095e-35 1.0000000180025095e-35 1.0000000180025095e-35 1.0000000180025095e-35 1.0000000180025095e-35
decision_type=2 2 2 2 8 10 2 8 8 2 8 2 2 10 2 2 2 8 2 2 8 2 10
left_child=1 2 5 4 14 6 17 15 19 -10 12 13 -4 -6 -2 16 -3 -1 -9 -5 -8 -7 -13
right_child=3 7 10 8 11 21 20 18 9 -11 -12 22 -14 -15 -16 -17 -18 -19 -20 -21 -22 -23 -24
leaf_value=-0.041030064570107605 0.36992138371339833 0.3417338659275368 0.35523566474841267 0.16121374792079363 0.43310724237881737 -0.01760620863678676 -0.032528238676515678 0.22886454215446575 0.27664580437432834 0.13930723090267103 0.46369736729159639 0.4465933900376321 0.41663237222421018 0.40832180253359424 0.37561278927534786 0.28631505046014333 0.31360876414453803 -0.038916684448768779 0.26832653793192307 0.15029362568807714 -0.031374456190993848 -0.015788832672630423 0.44383550454874576
leaf_weight=21192.008675640449 2697.1362860808149 142.65837454982102 58.883645782247186 154.25496821478009 458.54143237136304 2178.9675625804812 22944.980856111273 23.040806150995195 34.009827630594373 16.786981740966439 35.932036302983761 429.47735164407641 36.199883911758661 178.17887852247804 2602.5079768197611 18.150433083996177 80.394006265327334 5649.2782468423247 18.425893890671432 95.296025358140469 6485.4559201076627 1887.8085880475119 139.52395670302212
leaf_count=81551 3168 416 118 488 437 7724 84116 75 107 56 52 376 62 222 2928 71 229 33610 56 295 38809 6346 155
internal_value=0 -0.0323499 -0.0339792 0.374873 0.384351 -0.0349258 -0.0362384 0.316191 0.169595 0.231259 0.401946 0.43549 0.37861 0.426171 0.372716 0.328189 0.331597 -0.0405853 0.2464 0.157044 -0.032274 -0.0167626 0.445917
internal_weight=0 60752.2 60469.5 6805.71 6505.37 60338.5 56271.7 282.67 300.348 50.7968 131.016 1205.72 95.0835 636.72 5299.64 241.203 223.052 26841.3 41.4667 249.551 29430.4 4066.78 569.001
internal_count=261467 253235 252388 8232 7286 252156 238086 847 946 163 232 1190 180 659 6096 716 645 115161 131 783 122925 14070 531
is_linear=0
shrinkage=0.454341


Tree=9
num_leaves=19
num_cat=0
split_feature=1 4 3 2 2 4 2 6 6 6 6 6 6 2 6 3 2 6
split_gain=496.037 356.009 48.111 45.4106 19.8613 7.19677 4.50077 1.97546 0.46346 0.437576 0.353124 0.213545 0.203329 0.125763 0.124024 0.122901 0.135169 0.0872257
threshold=1.0000000180025095e-35 1.0000000180025095e-35 1.0000000180025095e-35 1.0000000180025095e-35 1.0000000180025095e-35 1.0000000180025095e-35 1.0000000180025095e-35 1.0000000180025095e-35 1.0000000180025095e-35 1.0000000180025095e-35 1.0000000180025095e-35 1.0000000180025095e-35 1.0000000180025095e-35 1.0000000180025095e-35 1.0000000180025095e-35 1.0000000180025095e-35 1.0000000180025095e-35 1.0000000180025095e-35
decision_type=2 2 2 2 2 2 2 2 2 2 2 2 2 2 2 2 2 2
left_child=1 2 3 9 10 6 7 -2 15 -1 -3 -6 -4 -10 -8 16 -7 -5
right_child=5 4 12 17 11 8 14 -9 13 -11 -12 -13 -14 -15 -16 -17 -18 -19
leaf_value=-0.0046791452242165386 0.28746949355469265 0.30251512919584872 0.31517312006922921 0.21537182257914009 0.13359791330247225 0.24470690034480344 0.18973002962256211 0.32769247768462589 0.17889822112647139 -0.0022660945484336724 0.32213495976195139 0.095458334581542875 0.35954732730438366 0.21796590177483274 0.14442950357196663 0.19168014903231992 0.21101895522376704 0.19644682910716579
leaf_weight=29900.998581132386 476.09475626191124 464.31173317972571 51.786094030365348 127.63043130747974 84.703268963843584 85.127197718247771 29.930549565702677 535.5950787179172 70.252934579737484 32237.068023528904 319.78779893415049 47.185345062986016 36.227567275054753 22.442770264111459 21.392491182312369 15.258297320455311 34.570819136686623 82.944729514420033
leaf_count=124490 746 1175 134 414 397 292 109 742 251 130958 780 212 87 100 79 84 158 259
internal_value=0 0.00188568 -0.00223961 -0.00271347 0.283079 0.286405 0.302105 0.308764 0.213092 -0.00342726 0.310517 0.119953 0.333438 0.188357 0.170848 0.230082 0.234977 0.207917
internal_weight=0 63352.6 62436.7 62348.6 915.988 1290.66 1063.01 1011.69 227.652 62138.1 784.1 131.889 88.0137 92.6957 51.323 134.956 119.698 210.575
internal_count=261467 258906 256342 256121 2564 2561 1676 1488 885 255448 1955 609 221 351 188 534 450 673
is_linear=0
shrinkage=0.454341


Tree=10
num_leaves=17
num_cat=0
split_feature=7 1 4 4 1 2 2 3 2 2 2 1 4 1 2 4
split_gain=2334.65 370.813 317.104 192.561 94.6989 39.7724 33.273 27.9211 10.6912 3.35614 1.61028 1.24395 0.348217 0.200861 0.196785 0.180267
threshold=1.0000000180025095e-35 1.0000000180025095e-35 1.0000000180025095e-35 1.0000000180025095e-35 1.0000000180025095e-35 1.0000000180025095e-35 1.0000000180025095e-35 1.0000000180025095e-35 1.0000000180025095e-35 1.0000000180025095e-35 1.0000000180025095e-35 1.0000000180025095e-35 1.0000000180025095e-35 1.0000000180025095e-35 1.0000000180025095e-35 1.0000000180025095e-35
decision_type=2 2 2 2 2 2 2 2 2 2 2 2 2 2 2 2
left_child=1 2 6 4 5 -2 7 -1 -4 11 15 -5 -12 -11 -6 -3
right_child=3 10 8 9 14 -7 -8 -9 -10 13 12 -13 -14 -15 -16 -17
leaf_value=-0.027599520601840125 0.35517462685313284 0.30437269627698177 0.37487455551006882 -0.042533268407661667 0.019526983722732497 0.056499196825379835 0.26298160364326412 0.31900568542612756 0.14912820215568284 0.026525191229876077 0.17523095756533363 -0.12364581250995681 0.25519779041377316 0.071472093365984035 0.064437961296464882 0.32719386491044039
leaf_weight=57891.431235872209 4175.5184638476931 605.14542876277119 413.1108789681457 171.94921830762178 172.13945588376373 94.107858131639659 81.61879101768136 48.015999948605895 48.377229981124401 69.001812189817429 20.71921087987721 50.489263429306448 24.571261159144342 29.2129867952317 22.807955036871135 81.015821049921215
leaf_count=250223 5306 821 903 1052 667 390 305 118 288 321 100 261 154 147 88 323
internal_value=0 -0.0198993 -0.0239202 0.310027 0.334452 0.348591 -0.0269039 -0.0273123 0.35121 -0.0300579 0.30159 -0.0609443 0.218615 0.0398942 0.0247814 0.307067
internal_weight=0 59214 58482.6 4785.23 4464.57 4269.63 58021.1 57939.4 461.488 320.653 731.452 222.438 45.2905 98.2148 194.947 686.161
internal_count=261467 253235 251837 8232 6451 5696 250646 250341 1191 1781 1398 1313 254 468 755 1144
is_linear=0
shrinkage=0.454341


Tree=11
num_leaves=24
num_cat=0
split_feature=4 3 2 5 2 5 5 5 3 5 6 5 6 5 3 6 6 6 6 6 5 5 6
split_gain=82.2169 12.3717 7.74633 9.09608 6.85032 1.89406 1.60564 1.18411 0.849263 0.921146 0.64292 0.609687 0.57867 0.397731 0.311699 0.251311 0.222793 0.182026 0.0367323 0.0181519 0.00604106 0.00217013 0.000226649
threshold=1.0000000180025095e-35 1.0000000180025095e-35 1.0000000180025095e-35 inf 1.0000000180025095e-35 inf inf 1.0000000180025095e-35 1.0000000180025095e-35 1.0000000180025095e-35 1.0000000180025095e-35 1.0000000180025095e-35 1.0000000180025095e-35 1.0000000180025095e-35 1.0000000180025095e-35 1.0000000180025095e-35 1.0000000180025095e-35 1.0000000180025095e-35 1.0000000180025095e-35 1.0000000180025095e-35 1.0000000180025095e-35 1.0000000180025095e-35 1.0000000180025095e-35
decision_type=2 2 2 8 2 8 8 10 2 10 2 8 2 10 2 2 2 2 2 2 8 8 2
left_child=1 4 3 8 7 17 13 10 9 15 21 22 -13 14 16 -2 -4 -3 -5 -9 -12 -1 -6
right_child=2 5 6 18 11 -7 -8 19 -10 -11 20 12 -14 -15 -16 -17 -18 -19 -20 -21 -22 -23 -24
leaf_value=0.00020357418303002282 0.1471281382358095 0.13888411429728245 0.09825466916628664 0.34127422765729321 0.07828373906761224 0.34436884452661976 -0.053993468052168155 0.0088692345005430013 0.044349265178685482 0.235498070986184 0.0033085928974548712 0.19731689645368883 0.072469460221561671 0.17248921838357917 0.0028933733248770856 0.16844538160379458 0.056606980536954246 0.1972394772139012 0.32013047394283112 0.010792450875991519 0.0028097260145388291 -0.00011501879724739256 0.077161379301569175
leaf_weight=21459.107947388198 272.42585641611367 30.883767235092819 72.926721488591284 41.379668479785323 91.302342176437378 15.06466795876622 20.35249744169414 2182.8716969238594 13.184872573008759 32.202613494358957 23300.093346992042 18.978259452618659 12.854382093995811 9.5086309816688281 10.954552527051417 196.50502518750727 41.66174588445574 17.167659166036174 28.741490971297026 1890.3136341334321 6383.6347487661988 5556.1639632573351 62.610067707486451
leaf_count=83476 1149 162 425 179 420 59 126 7839 118 148 86165 93 61 57 71 829 231 90 116 6443 39066 33872 272
internal_value=0 0.00275374 0.155127 0.1791 0.00254557 0.203802 0.0649704 0.0022793 0.158171 0.161166 0.00174176 0.0896651 0.146902 0.0828984 0.0761128 0.156061 0.0831125 0.159733 0.332608 0.00976177 0.00320131 0.00013805 0.0778272
internal_weight=0 61021 739.844 584.44 60957.9 63.1161 155.404 60772.2 514.318 501.133 56699 185.745 31.8326 135.052 125.543 468.931 114.588 48.0514 70.1212 4073.19 29683.7 27015.3 153.912
internal_count=261467 258018 3449 2539 257707 311 910 256861 2244 2126 242579 846 154 784 727 1978 656 252 295 14282 125231 117348 692
is_linear=0
shrinkage=0.454341


Tree=12
num_leaves=20
num_cat=0
split_feature=7 4 4 2 3 2 2 2 3 6 6 3 6 6 6 6 6 6 6
split_gain=1076.1 164.454 128.758 38.9879 12.9873 8.89144 7.71915 3.85173 1.84254 0.771735 0.429947 0.401205 0.223234 0.179195 0.162305 0.0552803 0.0455567 0.00962668 0.00101115
threshold=1.0000000180025095e-35 1.0000000180025095e-35 1.0000000180025095e-35 1.0000000180025095e-35 1.0000000180025095e-35 1.0000000180025095e-35 1.0000000180025095e-35 1.0000000180025095e-35 1.0000000180025095e-35 1.0000000180025095e-35 1.0000000180025095e-35 1.0000000180025095e-35 1.0000000180025095e-35 1.0000000180025095e-35 1.0000000180025095e-35 1.0000000180025095e-35 1.0000000180025095e-35 1.0000000180025095e-35 1.0000000180025095e-35
decision_type=2 2 2 2 2 2 2 2 2 2 2 2 2 2 2 2 2 2 2
left_child=2 3 4 14 5 9 15 8 16 -1 -6 18 -7 -9 -2 -4 -3 -5 -8
right_child=1 7 6 17 10 12 11 13 -10 -11 -12 -13 -14 -15 -16 -17 -18 -19 -20
leaf_value=-0.01612498133418689 0.27792214506074103 -0.12430549808313378 0.28714952191201021 -0.008834685882156643 0.20934665233070562 0.16776563771719538 0.12425885000335336 0.0092717174315937439 0.075072374038951784 -0.012796562555103896 0.30721705330737498 0.017560611230969993 0.11592006160890145 -0.032962244054127003 0.28438549912940941 0.29983813199006198 -0.13863471764872365 0.00017532958240525846 0.1285381924977077
leaf_weight=27572.062294997275 1640.3502331108321 113.6246483461 171.55944235040806 59.964979228563607 25.100828467402607 41.932485305704176 31.329035218805075 55.452333751134574 9.4873226447962207 30054.420991376042 14.687238221522419 8.2510458771139366 28.999515166506171 33.126417029649019 1569.2582850779872 120.77199238794856 76.728750930633396 41.364325005561113 17.915884623769671
leaf_count=122212 3041 738 722 292 117 231 249 303 72 128788 70 63 149 165 2932 504 503 186 130
internal_value=0 0.243659 -0.0123472 0.272322 -0.0140123 -0.0141912 0.262461 -0.085386 -0.120342 -0.0143891 0.245474 0.11028 0.146569 -0.00652281 0.281082 0.292392 -0.130081 -0.00515665 0.125816
internal_weight=0 3599.36 58087 3310.94 57737.2 57697.4 349.827 288.419 199.841 57626.5 39.7881 57.496 70.932 88.5788 3209.61 292.331 190.353 101.329 49.2449
internal_count=261467 8232 253235 6451 251567 251380 1668 1781 1313 251000 187 442 380 468 5973 1226 1241 478 379
is_linear=0
shrinkage=0.454341


Tree=13
num_leaves=29
num_cat=0
split_feature=7 0 0 1 1 2 1 5 2 2 1 5 2 5 1 5 5 5 5 5 5 5 5 5 5 5 5 2
split_gain=476.923 629.512 402.75 285.116 208.676 129.319 66.8612 23.1979 17.7454 15.8168 14.2793 11.7471 7.59113 6.36977 1.72305 1.43387 1.30941 1.1706 0.242425 0.118082 0.095835 0.0811348 0.0558609 0.0108508 0.00336964 0.00329166 0.00130768 0.000146753
threshold=1.0000000180025095e-35 1.0000000180025095e-35 1.0000000180025095e-35 1.0000000180025095e-35 1.0000000180025095e-35 1.0000000180025095e-35 1.0000000180025095e-35 1.0000000180025095e-35 1.0000000180025095e-35 1.0000000180025095e-35 1.0000000180025095e-35 inf 1.0000000180025095e-35 1.0000000180025095e-35 1.0000000180025095e-35 1.0000000180025095e-35 inf 1.0000000180025095e-35 1.0000000180025095e-35 1.0000000180025095e-35 1.0000000180025095e-35 1.0000000180025095e-35 inf 1.0000000180025095e-35 1.0000000180025095e-35 1.0000000180025095e-35 1.0000000180025095e-35 1.0000000180025095e-35
decision_type=2 2 2 2 2 2 2 8 2 2 2 8 2 8 2 8 8 8 8 8 10 10 8 10 10 10 8 2
left_child=1 3 6 12 18 10 7 8 -2 11 16 -6 15 27 17 -1 21 -7 -3 -14 -9 -4 24 -20 -5 -17 -12 -8
right_child=2 4 5 22 9 14 13 20 -10 -11 26 -13 19 -15 -16 25 -18 -19 23 -21 -22 -23 -24 -25 -26 -27 -28 -29
leaf_value=-0.018086263592116347 0.23704467331354193 0.37822020322929961 -0.77460330588113602 0.35598555038724788 -0.29176700776187109 -0.054039112930041024 -0.082570771914018889 0.33971282622833543 -0.00081174170444283397 0.13990603570289875 -0.45337897212212519 -0.7779550667948788 0.1628109827151899 0.16762094993082283 0.1206606763686075 -0.013014636406673977 -0.96227730434485992 0.094850140404504305 0.36085393641748981 0.10893568448536167 0.35514350938076089 -0.72571163937392313 0.36947695371927058 0.36689199950818491 0.35131058815059896 -0.012525225198355083 -0.44666107762644691 -0.081269543104513814
leaf_weight=40907.600287563168 1991.6574475797825 833.92945131892338 79.310281542828307 316.57103336695582 82.470376575365663 53.791662027128041 123.08208461198956 336.45845187827945 66.922544411383569 15.731404419988392 28.916918119415641 11.715861978475003 44.361757949925959 24.636525363428518 22.776441593654454 11176.187298600562 8.00772097322624 13.670667166821657 190.79346136422828 10.358799651265143 110.32784050703049 7.6854453897103658 71.110463815741241 90.615576696116477 35.383996890392154 3801.8052201997489 7.5411846362985662 20.934391370043159
leaf_count=164072 4343 1071 999 576 435 257 476 602 324 134 278 80 252 94 123 72109 141 69 234 61 226 108 111 145 62 13893 90 102
internal_value=0 -0.00671417 0.182251 -0.0137179 0.315467 -0.406214 0.23104 0.24968 0.229312 -0.281808 -0.693707 -0.352244 -0.0165281 -0.0458617 0.0126113 -0.0166937 -0.786467 -0.023868 0.374329 0.152612 0.343523 -0.770284 0.357862 0.362798 0.355516 -0.0128904 -0.451989 -0.0823816
internal_weight=0 57588.6 2895.72 56363.4 1225.26 221.7 2674.02 2505.37 2058.58 109.918 131.462 94.1862 55940.3 168.653 90.2388 55885.6 95.0034 67.4623 1115.34 54.7206 446.786 86.9957 423.065 281.409 351.955 14978 36.4581 144.016
internal_count=261467 253235 8232 251136 2099 2065 6167 5495 4667 649 1616 515 250387 672 449 250074 1248 326 1450 313 828 1107 749 379 638 86002 368 578
is_linear=0
shrinkage=0.454341


Tree=14
num_leaves=21
num_cat=0
split_feature=7 1 1 2 5 5 2 3 5 2 5 5 5 2 2 5 5 5 5 5
split_gain=222.871 70.1074 40.4417 20.6439 17.2814 5.651 3.79842 0.975266 0.805994 0.452707 0.406019 0.31663 0.242965 2.65079 0.969927 0.208596 0.0518702 0.0344948 0.00746424 0.000651847
threshold=1.0000000180025095e-35 1.0000000180025095e-35 1.0000000180025095e-35 1.0000000180025095e-35 1.0000000180025095e-35 1.0000000180025095e-35 1.0000000180025095e-35 1.0000000180025095e-35 1.0000000180025095e-35 1.0000000180025095e-35 1.0000000180025095e-35 1.0000000180025095e-35 1.0000000180025095e-35 1.0000000180025095e-35 1.0000000180025095e-35 1.0000000180025095e-35 1.0000000180025095e-35 inf 1.0000000180025095e-35 1.0000000180025095e-35
decision_type=2 2 2 2 8 10 2 2 8 2 10 8 8 2 2 10 10 8 8 8
left_child=1 7 3 4 -2 9 10 12 -8 19 18 -9 14 16 -1 -6 -14 -5 -3 -4
right_child=2 6 5 17 15 -7 8 11 -10 -11 -12 -13 13 -15 -16 -17 -18 -19 -20 -21
leaf_value=-0.0051720895530076791 0.14742420429357131 0.17925840075731975 -0.061496343443833472 -0.0095456263605141391 0.2641453421311945 0.2529622003008129 -0.049764296009550901 0.043656733456737137 0.14484246747713764 -0.010080137737889386 0.22950992752262778 0.14601246584942057 -0.0032737253790497377 -0.20235177948632088 0.057516098848604501 0.23903873635928899 -0.0013392739242258744 -0.032720751987928023 0.18431739787415946 -0.06423722534391979
leaf_weight=41132.706647631247 1764.5763035290875 318.14054942457005 178.31110115349293 129.36417379137129 260.32026931038126 13.173001841641961 17.933300945907835 16.31529685237911 5.818575892597436 42.466320686042309 37.816063984762877 10.101120730047112 11210.840192159172 13.751096563879399 51.011578382924199 92.614865315612406 3841.8625242314301 14.771711564622818 74.25480984756723 19.911432452732697
leaf_count=164846 5342 871 754 619 699 73 197 118 57 222 101 77 72266 121 431 317 13978 92 172 114
internal_value=0 -0.00304782 0.135155 0.154456 0.165781 -0.036793 0.174784 -0.00448233 -0.00209083 -0.0526514 0.184549 0.0827956 -0.00452331 -0.00296215 -0.00509444 0.257557 -0.00278 -0.0119207 0.180216 -0.0617717
internal_weight=0 56730.6 2515.51 2261.65 2117.51 253.862 453.963 56276.6 23.7519 240.689 430.211 26.4164 56250.2 15066.5 41183.7 352.935 15052.7 144.136 392.395 198.223
internal_count=261467 253235 8232 7069 6358 1163 1398 251837 254 1090 1144 195 251642 86365 165277 1016 86244 711 1043 868
is_linear=0
shrinkage=0.454341


Tree=15
num_leaves=24
num_cat=0
split_feature=0 2 4 5 3 4 4 5 3 5 2 3 4 5 2 5 5 5 5 5 5 5 5
split_gain=135.835 19.1423 2.37559 5.27108 1.2088 5.30883 2.16748 1.38533 0.750231 1.07311 0.737361 0.528027 0.548286 0.68097 0.390738 0.322654 0.239204 0.186304 0.048128 0.0116082 0.00492595 0.00256925 0.00221747
threshold=1.0000000180025095e-35 1.0000000180025095e-35 1.0000000180025095e-35 inf 1.0000000180025095e-35 1.0000000180025095e-35 1.0000000180025095e-35 1.0000000180025095e-35 1.0000000180025095e-35 1.0000000180025095e-35 1.0000000180025095e-35 1.0000000180025095e-35 1.0000000180025095e-35 inf 1.0000000180025095e-35 1.0000000180025095e-35 1.0000000180025095e-35 1.0000000180025095e-35 1.0000000180025095e-35 1.0000000180025095e-35 1.0000000180025095e-35 1.0000000180025095e-35 1.0000000180025095e-35
decision_type=2 2 2 8 2 2 2 10 2 8 2 2 2 8 2 8 8 8 8 10 8 10 8
left_child=2 4 8 14 6 -6 7 16 10 -10 18 12 17 -14 15 -4 -2 -3 -1 22 -12 -20 -8
right_child=1 11 3 -5 5 -7 19 -9 9 -11 20 -13 13 -15 -16 -17 -18 -19 21 -21 -22 -23 -24
leaf_value=-0.0020068249168458696 0.16799572858096493 -0.076773066682569793 0.02092416277940029 0.20229353847271314 -0.13746934208144473 0.26575380619489763 0.11387740195715501 0.234097690333602 0.0017578163693019954 0.20415128693367496 0.036468219513607382 0.067169854754780406 0.019822037895751109 -0.11812532982932475 -0.019042658178176207 0.099229453967660669 0.18702330538872555 -0.007239963790609893 -0.0011705776088840683 0.12956285815971463 0.045916698234845614 -0.00074064452565060967 0.10758661063455922
leaf_weight=41902.6039294824 744.1975809475407 43.115598184522241 246.9311856708955 35.380013205576688 12.978569390950724 14.022491639829241 108.88223209744319 79.285703747533262 13.827593811787667 8.8808114349376392 84.57492939196527 12.778585148975251 50.628997170832008 8.6488235918804985 51.300454658456147 11.361991641577331 166.98661664547399 9.7537293937057239 11261.814249837771 9.6709819766692799 13.162854897323994 3850.1755444835871 12.9414976821281
leaf_count=167916 1725 272 1381 240 141 96 635 200 80 67 420 105 353 55 364 78 339 78 72599 72 76 14082 93
internal_value=0 0.148568 -0.00142876 0.0361608 0.166933 0.071937 0.169219 0.176495 -0.00165572 0.0809099 -0.00168855 -0.0203359 -0.0303067 -0.000304924 0.0171753 0.0243687 0.171483 -0.0639451 -0.00175614 0.114412 0.0377407 -0.00106104 0.113209
internal_weight=0 1273.89 57480 344.974 1148.97 27.0011 1121.96 990.47 57135 22.7084 57112.3 124.926 112.147 59.2778 309.594 258.293 911.184 52.8693 57014.6 131.495 97.7378 15112 121.824
internal_count=261467 4164 257303 2063 3301 237 3064 2264 255240 147 255093 863 758 408 1823 1459 2064 350 254597 800 496 86681 728
is_linear=0
shrinkage=0.454341


Tree=16
num_leaves=20
num_cat=0
split_feature=7 1 1 5 2 2 2 2 5 5 5 5 3 5 2 2 5 5 5
split_gain=75.2006 20.4404 19.9555 10.065 5.49429 3.40711 1.43362 0.253599 0.305116 0.24089 0.217372 0.190178 0.12038 0.0164362 0.766651 0.252225 0.00189653 0.00134736 7.89158e-05
threshold=1.0000000180025095e-35 1.0000000180025095e-35 1.0000000180025095e-35 1.0000000180025095e-35 1.0000000180025095e-35 1.0000000180025095e-35 1.0000000180025095e-35 1.0000000180025095e-35 1.0000000180025095e-35 1.0000000180025095e-35 1.0000000180025095e-35 1.0000000180025095e-35 1.0000000180025095e-35 1.0000000180025095e-35 1.0000000180025095e-35 1.0000000180025095e-35 1.0000000180025095e-35 1.0000000180025095e-35 1.0000000180025095e-35
decision_type=2 2 2 8 2 2 2 2 8 8 10 10 2 8 2 2 8 10 8
left_child=1 12 3 4 -2 10 11 8 -4 -8 -5 18 13 15 17 -1 -14 -15 -3
right_child=2 6 7 5 -6 -7 9 -9 -10 -11 -12 -13 16 14 -16 -17 -18 -19 -20
leaf_value=-0.0029935682356785182 0.093277067855444915 0.10862332883795897 -0.049217699648096837 0.19863470449599985 -0.0056391991386718753 -4.9461732252930383e-05 -0.027328662651736373 -0.0045186431675572321 0.001911928805183879 0.085813393027007329 0.1694038011690697 0.14727780900476781 0.027071701863413084 -0.0023720107549606833 -0.10112866475459009 0.030037348583450207 0.035846682160005076 -0.0020595573793311304 0.10804362893617449
leaf_weight=40911.713461838663 1515.3940929942764 258.46766858082265 182.40767942741513 199.4116246253252 125.51588483154774 20.760428660083562 18.758836132474247 43.961356215644628 27.75895935553126 4.8989335012156507 71.288524900795892 28.464326826389879 15.703917405335234 11154.270890164189 16.217956923879683 47.776757271029055 7.5184594400925553 3826.0988911124878 59.665506835561246
leaf_count=164846 5342 871 754 699 581 130 197 235 174 57 317 101 118 72266 121 431 77 13978 172
internal_value=0 -0.00208872 0.0837897 0.0995302 0.0857108 0.177333 0.104312 -0.0359003 -0.0424645 -0.00389977 0.190937 0.111698 -0.00279247 -0.00280604 -0.00239909 -0.00295504 0.0299127 -0.00229221 0.108515
internal_weight=0 56349.6 2186.5 1932.37 1640.91 291.461 370.255 254.128 210.167 23.6578 270.7 346.598 55979.3 55956.1 14996.6 40959.5 23.2224 14980.4 318.133
internal_count=261467 253235 8232 7069 5923 1146 1398 1163 928 254 1016 1144 251837 251642 86365 165277 195 86244 1043
is_linear=0
shrinkage=0.454341


Tree=17
num_leaves=27
num_cat=0
split_feature=0 1 4 1 2 4 2 4 4 6 6 6 2 2 6 2 6 4 4 6 6 2 6 2 6 2
split_gain=44.4824 113.504 52.5446 41.6128 19.4108 18.5407 10.1054 8.10815 1.73348 1.41668 1.06008 0.846266 0.949874 0.768477 0.643221 1.56064 0.565826 0.420645 0.185533 0.166036 0.15193 0.112119 0.0550104 0.0474061 0.00509645 0.00135503
threshold=1.0000000180025095e-35 1.0000000180025095e-35 1.0000000180025095e-35 1.0000000180025095e-35 1.0000000180025095e-35 1.0000000180025095e-35 1.0000000180025095e-35 1.0000000180025095e-35 1.0000000180025095e-35 1.0000000180025095e-35 1.0000000180025095e-35 1.0000000180025095e-35 1.0000000180025095e-35 1.0000000180025095e-35 1.0000000180025095e-35 1.0000000180025095e-35 1.0000000180025095e-35 1.0000000180025095e-35 1.0000000180025095e-35 1.0000000180025095e-35 1.0000000180025095e-35 1.0000000180025095e-35 1.0000000180025095e-35 1.0000000180025095e-35 1.0000000180025095e-35 1.0000000180025095e-35
decision_type=2 2 2 2 2 2 2 2 2 2 2 2 2 2 2 2 2 2 2 2 2 2 2 2 2 2
left_child=3 4 6 8 7 16 20 22 11 13 18 23 -13 -10 15 -7 -5 -12 -6 25 -3 -11 -2 -1 -9 -4
right_child=1 2 19 5 10 14 -8 24 9 21 17 12 -14 -15 -16 -17 -18 -19 -20 -21 -22 -23 -24 -25 -26 -27
leaf_value=-0.0041220907194454322 0.19562798300628081 -0.47824306901050395 0.13292212608055315 0.16462618416572855 0.028379127479811406 0.015547509327999177 -0.013798064177288356 0.043795145941327614 0.022703649946737021 0.07001691794888841 -0.051847530056865009 -0.00065815624731296982 0.080389065051771222 -0.060620335231431829 -0.12074158839508024 -0.2001631912450694 0.20092090074918931 -0.1442604095657492 -0.025143109890529262 0.083226014294187578 -0.44386305462295256 0.11173745043556445 0.18775143243040007 0.010404719448528674 0.05096459576641154 0.13851531089500946
leaf_weight=26925.609732666984 415.58620726130903 55.09508675057441 20.856096732895821 176.18421555892564 26.29607642441988 30.48769722180441 11.526440081186591 55.852400821167976 124.67889772797935 87.475301674334332 21.230780786834657 29475.298888739664 29.88085968233645 27.974882492329925 31.199356566881761 8.9576523222494853 178.49634613806847 19.511716741602868 27.197189221624285 19.30992403998971 51.182866344228387 15.680148509796707 327.09972324641421 46.452060922514647 32.30577784916386 15.650645000161601
leaf_count=123630 978 333 147 475 181 186 77 426 749 543 115 130262 150 199 216 70 474 112 198 135 317 100 777 249 237 131
internal_value=0 0.0912662 -0.245816 -0.00102715 0.154531 0.140556 -0.417863 0.176695 -0.00208859 0.0352279 -0.0408878 -0.00225761 -0.000576077 0.00743394 -0.0719947 -0.0334383 0.182892 -0.0961044 0.00116721 0.117298 -0.461686 0.0763586 0.192159 -0.00409707 0.0464224 0.13532
internal_weight=0 1098.7 173.621 57158.4 925.08 425.325 117.804 830.844 56733.1 255.809 94.2358 56477.2 29505.2 152.654 70.6447 39.4453 354.681 40.7425 53.4933 55.8167 106.278 103.155 742.686 26972.1 88.1582 36.5067
internal_count=261467 4164 1140 257303 3024 1421 727 2418 255882 1591 606 254291 130412 948 472 256 949 227 379 413 650 643 1755 123879 663 278
is_linear=0
shrinkage=0.454341


Tree=18
num_leaves=21
num_cat=0
split_feature=7 0 0 2 2 3 5 2 5 5 5 2 3 5 5 5 5 5 5 5
split_gain=22.4725 113.652 107.966 43.4588 12.4677 10.4286 9.81608 4.30306 1.8405 0.586658 0.558298 0.504342 0.670723 0.394747 0.138902 0.138659 0.107836 0.0810109 0.0401672 0.000434218
threshold=1.0000000180025095e-35 1.0000000180025095e-35 1.0000000180025095e-35 1.0000000180025095e-35 1.0000000180025095e-35 1.0000000180025095e-35 1.0000000180025095e-35 1.0000000180025095e-35 inf 1.0000000180025095e-35 1.0000000180025095e-35 1.0000000180025095e-35 1.0000000180025095e-35 1.0000000180025095e-35 inf inf 1.0000000180025095e-35 1.0000000180025095e-35 inf 1.0000000180025095e-35
decision_type=2 2 2 2 2 2 8 2 8 10 8 2 2 8 8 8 10 10 8 10
left_child=2 6 11 5 14 8 7 -2 16 -8 -5 12 18 -6 17 -13 -3 -4 19 -1
right_child=1 3 4 10 13 -7 9 -9 -10 -11 -12 15 -14 -15 -16 -17 -18 -19 -20 -21
leaf_value=-0.0036615333501262815 0.084405767394820475 -0.35779812490158419 0.18394198203875967 0.016331877537819946 -0.062701086821143004 0.023367086377196197 0.16576026566780436 -0.019159432402057808 -0.51958106925030112 0.21859890640323801 0.10779636499527515 0.051059051560901549 0.086857650070587572 -0.16870486265044754 0.16898767291617683 -0.0089033461359034182 -0.40430015546215364 0.20216596556983776 -0.0026786484965623117 -0.0035005233771339146
leaf_weight=40427.170511201024 1401.5889773387462 145.74174867896363 537.49164367420599 77.532200092449784 25.364939061924815 14.60614862886723 172.52978222607635 88.016351150348783 16.737549024401233 57.942877190653235 16.752674976363778 44.647425922099501 16.980476199882105 10.154934138758106 125.06791721889749 9.6881715615745616 11.076255395309998 55.556930276681669 11031.465530225309 3780.8822184649762
leaf_count=164492 4819 1185 1254 357 309 111 669 426 187 253 92 368 106 105 270 65 133 161 72174 13931
internal_value=0 0.0479262 -0.00105613 -0.219182 0.169751 -0.345338 0.0917869 0.0782864 -0.376368 0.179044 0.0325834 -0.00338345 -0.00342648 -0.093007 0.182747 0.0403676 -0.361083 0.185649 -0.00345423 -0.00364776
internal_weight=0 2002.52 56064.5 282.447 753.636 188.162 1720.08 1489.61 173.556 230.473 94.2849 55310.8 55256.5 35.5199 718.116 54.3356 156.818 593.049 55239.5 44208.1
internal_count=261467 8232 253235 2065 2099 1616 6167 5245 1505 922 449 251136 250703 414 1685 433 1318 1415 250597 178423
is_linear=0
shrinkage=0.454341


Tree=19
num_leaves=25
num_cat=0
split_feature=4 1 5 6 3 5 6 3 6 5 5 6 6 1 5 5 6 1 1 5 5 1 5 5
split_gain=1.7794 1.61409 1.61187 7.75406 1.18856 0.873073 0.863603 0.687585 0.185215 0.179083 0.144806 0.332721 0.142647 0.136136 0.103557 0.0626366 0.0604375 0.239278 0.115991 0.035843 0.0091518 0.0081917 0.218723 0.00738378
threshold=1.0000000180025095e-35 1.0000000180025095e-35 1.0000000180025095e-35 1.0000000180025095e-35 1.0000000180025095e-35 1.0000000180025095e-35 1.0000000180025095e-35 1.0000000180025095e-35 1.0000000180025095e-35 1.0000000180025095e-35 1.0000000180025095e-35 1.0000000180025095e-35 1.0000000180025095e-35 1.0000000180025095e-35 1.0000000180025095e-35 1.0000000180025095e-35 1.0000000180025095e-35 1.0000000180025095e-35 1.0000000180025095e-35 1.0000000180025095e-35 1.0000000180025095e-35 1.0000000180025095e-35 1.0000000180025095e-35 1.0000000180025095e-35
decision_type=2 2 10 2 2 8 2 2 2 8 8 2 2 2 10 10 2 2 2 10 8 2 10 8
left_child=1 7 10 -4 5 16 21 8 15 -9 11 -3 -12 -6 -8 20 17 -2 -18 23 -1 22 -7 -10
right_child=4 2 3 -5 13 6 14 9 19 -11 12 -13 -14 -15 -16 -17 18 -19 -20 -21 -22 -23 -24 -25
leaf_value=-0.00074027158503729013 0.011783857582290468 0.029601583533325631 -0.11569254472280659 0.34735981410679606 -0.10725571358234537 0.14579655074026332 0.031200121317284318 -0.10473820101515703 0.00096377494501856463 -0.016340292891378942 0.019264605054326357 0.0022480298291117353 0.060365480657501858 -0.037360922045638865 -0.031589967763234264 0.0017314715032241208 0.037340517440426581 0.045027069460609428 0.010578369218304962 -0.0010109077383171402 -0.0014187251893300918 0.10408217097772771 0.07206485557975327 0.001531719229885282
leaf_weight=19908.524053120054 196.59114167420194 189.72314828075469 14.131839737761766 15.823907408863306 12.047736128908582 23.215500167105347 20.159110839944336 16.092919111950327 21826.070165763609 6.7005401302594683 36.424457009416074 177.83811528421938 33.428271478391252 11.008515975205228 7.4168671378865829 2050.7434686720371 127.90020640334114 57.846695713698864 45.261207860894501 1789.5519342184998 5170.0266062761657 8.9728080269414914 12.931219870224593 6031.0145949032158
leaf_count=83275 1206 656 73 63 130 172 153 143 85811 78 126 646 112 115 61 7806 787 368 273 6402 33823 82 102 39004
internal_value=0 0.000362248 0.0269533 0.128912 0.0269755 0.0316236 0.0776555 0.000143443 0.000175117 -0.0787521 0.0199708 0.016367 0.0389336 -0.0738835 0.014312 -0.000682722 0.0237978 0.0193417 0.0303454 0.000960115 -0.000880137 0.116369 0.11942 0.00108673
internal_weight=0 57266.1 467.37 29.9557 523.351 500.295 72.6955 56798.7 56775.9 22.7935 437.414 367.561 69.8527 23.0563 27.576 27129.3 427.599 254.438 173.161 29646.6 25078.6 45.1195 36.1467 27857.1
internal_count=261467 258018 1676 136 3449 3204 570 256342 256121 221 1540 1302 238 245 214 124904 2634 1574 1060 131217 117098 356 274 124815
is_linear=0
shrinkage=0.454341


Tree=20
num_leaves=35
num_cat=0
split_feature=0 7 1 7 1 1 1 5 6 6 5 6 5 6 5 5 5 5 6 6 5 6 6 5 6 5 5 5 5 5 6 5 5 5
split_gain=8.99665 42.9788 81.3485 24.4757 38.407 23.3387 17.4138 4.16123 1.71031 0.96407 0.95567 0.845119 3.50259 0.815299 0.778098 0.705559 0.546872 0.434576 1.81918 0.36501 0.262768 0.157385 0.0538723 0.0368609 0.0299479 0.0289788 0.0263649 0.019987 0.00915722 0.00768926 0.00109347 0.00905453 0.00224256 0.000606325
threshold=1.0000000180025095e-35 1.0000000180025095e-35 1.0000000180025095e-35 1.0000000180025095e-35 1.0000000180025095e-35 1.0000000180025095e-35 1.0000000180025095e-35 1.0000000180025095e-35 1.0000000180025095e-35 1.0000000180025095e-35 1.0000000180025095e-35 1.0000000180025095e-35 1.0000000180025095e-35 1.0000000180025095e-35 inf 1.0000000180025095e-35 1.0000000180025095e-35 1.0000000180025095e-35 1.0000000180025095e-35 1.0000000180025095e-35 1.0000000180025095e-35 1.0000000180025095e-35 1.0000000180025095e-35 1.0000000180025095e-35 1.0000000180025095e-35 inf inf 1.0000000180025095e-35 1.0000000180025095e-35 1.0000000180025095e-35 1.0000000180025095e-35 1.0000000180025095e-35 1.0000000180025095e-35 1.0000000180025095e-35
decision_type=2 2 2 2 2 2 2 8 2 2 10 2 8 2 8 10 8 8 2 2 10 2 2 8 2 8 8 10 10 10 2 8 8 8
left_child=3 2 17 4 21 15 7 22 -8 28 -11 16 -13 23 19 30 -4 24 20 -7 -19 27 -5 -6 -2 29 -15 33 -9 -23 32 -32 -3 -1
right_child=1 5 11 6 13 14 8 9 -10 10 -12 12 -14 26 -16 -17 -18 18 -20 -21 -22 25 -24 -25 -26 -27 -28 -29 -30 -31 31 -33 -34 -35
leaf_value=-0.0036749081606729942 0.19367731055700885 -0.15870287964657587 -0.16881900692721669 0.059133722570522108 0.17163012446157502 0.1280457458000096 -0.047935712858996629 0.10770823006111782 -0.1443260282395106 0.14595331388120711 0.26316136475714791 -0.34039420479015037 -0.07705418308120833 0.22165179259253359 -0.013278637370226434 -0.26039091384118146 -0.26528124827571531 0.19378197055849505 0.10393046052314166 0.071623014295069398 0.25043043672583398 -0.0021410973275952636 0.065136273597611566 0.15092753875445905 0.20166759064757445 -0.0010907639352110484 0.24164181536082274 -0.0021461159198322382 0.097591586450161 -0.0031301695976574235 -0.15455641467869416 -0.16890014598848874 -0.15263588380413917 -0.0034979380038467575
leaf_weight=19140.419459963217 218.88719581137411 114.54162712395191 48.861588634783402 642.02273500710726 66.148375697201118 54.460775100626051 89.841378725133836 70.464195316424593 65.850813092547469 64.696527723688632 18.456716749351472 38.992738015949726 14.231197541113941 91.350223840912804 13.412212561350314 14.542171707842497 16.139341244008392 52.838789144065231 55.024752340745181 41.859389747492969 24.853280946845189 21111.294791418011 594.38494696631096 24.265978831565008 173.64398557180539 5939.8523879614659 16.005903247278184 2007.6569585865363 25.030116519890726 1757.6088800663128 88.624826976563781 10.122159563936291 14.127729338593779 5051.0132893696427
leaf_count=80882 649 719 280 2393 260 246 378 317 294 285 95 212 68 345 67 129 89 130 159 178 90 83442 2274 93 422 38685 51 7634 131 6274 537 76 113 33470
internal_value=0 0.0431681 0.112972 -0.000407991 -0.0019992 -0.0845482 0.0555167 0.0713847 -0.0887045 0.136202 0.171969 -0.22753 -0.269981 0.197861 0.0892487 -0.163368 -0.19277 0.189613 0.167138 0.103525 0.211904 -0.00271776 0.0620194 0.166074 0.197212 -0.00198488 0.224632 -0.00352364 0.105057 -0.00221711 -0.157164 -0.156027 -0.158037 -0.00363796
internal_weight=0 995.164 643.473 56776.4 55205.6 351.691 1570.75 1415.06 155.692 178.648 83.1532 118.225 53.2239 197.77 109.732 241.959 65.0009 525.248 132.717 96.3202 77.6921 55007.8 1236.41 90.4144 392.531 28808.8 107.356 26199.1 95.4943 22868.9 227.416 98.747 128.669 24191.4
internal_count=261467 4164 2099 257303 251136 2065 6167 5495 672 828 380 649 280 749 491 1574 369 1450 379 424 220 250387 4667 353 1071 128401 396 121986 448 89716 1445 613 832 114352
is_linear=0
shrinkage=0.454341


Tree=21
num_leaves=30
num_cat=0
split_feature=0 7 4 2 7 4 4 2 2 2 2 4 6 6 2 2 2 6 6 6 6 6 6 6 6 6 6 6 6
split_gain=4.66559 14.7107 44.5969 24.5954 8.33194 60.1428 23.5247 14.819 8.72778 6.22577 4.62203 4.30225 2.26197 1.2473 0.945247 0.641886 0.389771 0.372903 0.32324 0.243043 0.238615 0.163614 0.153012 0.137204 0.0649591 0.0487001 0.011163 0.00291088 0.000828545
threshold=1.0000000180025095e-35 1.0000000180025095e-35 1.0000000180025095e-35 1.0000000180025095e-35 1.0000000180025095e-35 1.0000000180025095e-35 1.0000000180025095e-35 1.0000000180025095e-35 1.0000000180025095e-35 1.0000000180025095e-35 1.0000000180025095e-35 1.0000000180025095e-35 1.0000000180025095e-35 1.0000000180025095e-35 1.0000000180025095e-35 1.0000000180025095e-35 1.0000000180025095e-35 1.0000000180025095e-35 1.0000000180025095e-35 1.0000000180025095e-35 1.0000000180025095e-35 1.0000000180025095e-35 1.0000000180025095e-35 1.0000000180025095e-35 1.0000000180025095e-35 1.0000000180025095e-35 1.0000000180025095e-35 1.0000000180025095e-35 1.0000000180025095e-35
decision_type=2 2 2 2 2 2 2 2 2 2 2 2 2 2 2 2 2 2 2 2 2 2 2 2 2 2 2 2 2
left_child=4 11 3 21 6 9 14 26 18 25 19 22 -10 16 24 -15 -13 -11 -8 -4 -16 -3 -2 -5 -1 -6 -7 -9 -12
right_child=1 2 10 23 5 7 8 27 12 17 28 13 -14 15 20 -17 -18 -19 -20 -21 -22 -23 -24 -25 -26 -27 -28 -29 -30
leaf_value=-0.0021309103453855359 0.095397490822909811 -0.27373687214247255 0.16896259850542333 0.12440873831773099 0.072135196411781274 -0.33231137912547948 0.19404874262778571 -0.0093521521303473014 -0.25807714534326348 -0.1194048310462086 0.022650976133556447 -0.045238697594399892 0.087110962376638221 -0.22366778895595177 0.043248280061711185 -0.051272503544247824 0.056653829898234469 -0.040658161473123601 0.23849373453503891 0.21122060454183994 0.12174999441358557 -0.24493099917631728 0.080036360893129238 0.076885198719564715 -0.0011413395535947682 0.066558292834392505 -0.3418143469342334 -0.017558411559224149 0.018948410432377254
leaf_weight=26114.011702970369 294.24059234629385 89.247720882529393 74.354886062443256 26.930835106410086 668.44939159415662 58.521746627986431 81.807222962379456 27.071185356471688 10.802942105568947 32.889531148597598 28.026566692627966 16.317442386294715 6.1492561963386825 10.025059330044314 19.666815317003056 8.0288975303992629 14.759627455845477 19.939185994677246 57.53528000228107 45.157675577327609 13.465367746539412 74.829454212682322 245.57605384732597 23.468582870438695 28789.782075721771 625.85703369462863 45.244047819403931 13.309580447152255 22.4851627741009
leaf_count=121637 787 635 292 117 2406 494 441 144 125 175 159 281 77 160 136 70 170 104 344 163 95 526 631 82 128281 2406 364 74 91
internal_value=0 0.0315657 -0.0375586 -0.175327 -0.000157888 0.0333522 -0.00106495 -0.245579 0.174952 0.0631984 0.136229 0.0766942 -0.132863 -0.0520228 -0.00156572 -0.147001 0.00315376 -0.0896834 0.2124 0.18493 0.0751524 -0.2606 0.0884093 0.102279 -0.00161201 0.0694385 -0.336455 -0.012057 0.0210028
internal_weight=0 973.449 384.501 214.477 56584.5 1491.28 55093.2 144.147 156.295 1347.14 170.024 588.948 16.9522 49.131 54936.9 18.054 31.0771 52.8287 139.343 119.513 33.1322 164.077 539.817 50.3994 54903.8 1294.31 103.766 40.3808 50.5117
internal_count=261467 4164 2065 1360 257303 6167 251136 1076 987 5091 705 2099 202 681 250149 230 451 279 785 455 231 1161 1418 199 249918 4812 858 218 250
is_linear=0
shrinkage=0.454341


Tree=22
num_leaves=20
num_cat=0
split_feature=1 3 4 4 2 4 2 6 2 6 3 6 6 6 6 6 2 2 6
split_gain=1.53927 0.718902 1.25824 1.09536 1.74676 0.338086 0.534081 0.245317 0.233981 0.103505 0.0971227 0.0754332 0.0257749 0.0145204 0.00886265 0.00162798 0.00642819 0.00115064 0.000983173
threshold=1.0000000180025095e-35 1.0000000180025095e-35 1.0000000180025095e-35 1.0000000180025095e-35 1.0000000180025095e-35 1.0000000180025095e-35 1.0000000180025095e-35 1.0000000180025095e-35 1.0000000180025095e-35 1.0000000180025095e-35 1.0000000180025095e-35 1.0000000180025095e-35 1.0000000180025095e-35 1.0000000180025095e-35 1.0000000180025095e-35 1.0000000180025095e-35 1.0000000180025095e-35 1.0000000180025095e-35 1.0000000180025095e-35
decision_type=2 2 2 2 2 2 2 2 2 2 2 2 2 2 2 2 2 2 2
left_child=5 3 -3 4 7 10 12 -2 11 -6 15 -5 -7 -10 -12 16 -1 -17 -8
right_child=1 2 -4 8 9 6 18 -9 13 -11 14 -13 -14 -15 -16 17 -18 -19 -20
leaf_value=-1.9584064628940489e-05 0.0056263094447932122 0.18448335487806106 -0.015829851945767765 0.081019131011055748 -0.078998568989904788 0.020005201292477154 -0.017152799688952041 0.027744924041524083 0.01559935428995864 -0.13628093637930225 -0.034336941453312744 0.055409846269707186 0.028866780903775025 0.035800297425226044 -0.016353089199717816 0.00014985611909905697 0.0043486688402892028 -0.0020751101156804485 -0.014139224512586297
leaf_weight=26851.938270484097 209.3347421400249 14.794949129922315 11.507874391041696 48.678208376746625 15.161711919819936 176.75031476188451 58.132580706616864 204.74903157912195 19.474655747413635 11.413143185898662 16.525638299528509 46.349837270798162 109.87201286619529 11.793012970592828 8.6006546376738715 29459.836407179944 69.720776156056672 48.05768140591681 36.303337367251515
leaf_count=124490 697 90 115 292 99 1175 397 716 158 74 134 234 780 86 87 130958 414 259 212
internal_value=0 0.0234143 0.0968434 0.0200077 0.00931647 0.000150986 0.0136387 0.0165631 0.0573106 -0.1036 5.99463e-05 0.0685282 0.0234021 0.0232184 -0.0281811 7.25211e-05 -8.27132e-06 0.000146232 -0.0159943
internal_weight=0 593.257 26.3028 566.954 440.659 56835.7 381.058 414.084 126.296 26.5749 56454.7 95.028 286.622 31.2677 25.1263 56429.6 26921.7 29507.9 94.4359
internal_count=261467 2561 205 2356 1586 258906 2564 1413 770 173 256342 526 1955 244 221 256121 124904 131217 609
is_linear=0
shrinkage=0.454341


Tree=23
num_leaves=18
num_cat=0
split_feature=0 7 4 2 7 4 4 2 2 2 4 3 4 2 2 2 3
split_gain=1.65603 3.91471 10.9348 5.28194 2.89615 15.6624 8.63911 3.08875 2.83558 2.64404 2.38483 2.18178 2.16431 1.69267 1.42315 0.319351 0.176719
threshold=1.0000000180025095e-35 1.0000000180025095e-35 1.0000000180025095e-35 1.0000000180025095e-35 1.0000000180025095e-35 1.0000000180025095e-35 1.0000000180025095e-35 1.0000000180025095e-35 1.0000000180025095e-35 1.0000000180025095e-35 1.0000000180025095e-35 1.0000000180025095e-35 1.0000000180025095e-35 1.0000000180025095e-35 1.0000000180025095e-35 1.0000000180025095e-35 1.0000000180025095e-35
decision_type=2 2 2 2 2 2 2 2 2 2 2 2 2 2 2 2 2
left_child=4 8 3 -3 6 14 11 -8 12 -7 -10 15 -2 -4 -6 -1 -12
right_child=1 2 13 -5 5 9 7 -9 10 -11 16 -13 -14 -15 -16 -17 -18
leaf_value=-0.00097732460388025148 0.060089417966309067 -0.10224141742940029 0.118857945392774 0.06765099184284426 0.041096750772516559 -0.13579008538997775 0.1459618124121449 -0.049206330288681481 -0.22579392484579144 -0.004456000228438531 0.035496098415939342 0.16316608519140488 -0.068624826178895926 0.015901827454626042 -0.031162616726020605 0.045323716808515824 -0.059547964402960132
leaf_weight=54839.974567803554 480.92700002365746 209.81947092339396 96.976004329510033 46.069605982862413 1209.1746449689381 138.25471361214295 110.30325991136488 19.733597761951387 13.961110644508151 41.034713160246611 17.235917162150148 16.726176089374349 28.568657823139802 49.9378332789056 59.008953744545579 30.767587867565453 5.2739129965193561
leaf_count=249836 1244 1161 455 199 4812 858 785 202 174 218 189 92 441 250 279 221 51
internal_value=0 0.019044 -0.0149331 -0.0716544 -9.64484e-05 0.0199643 -0.000624233 0.116344 0.0441117 -0.105731 -0.0782699 -0.00090135 0.0528721 0.0838619 0.0377345 -0.000951362 0.0132279
internal_weight=0 948.77 402.803 255.889 56465 1447.47 55017.5 130.037 545.967 179.289 36.4709 54887.5 509.496 146.914 1268.18 54870.7 22.5098
internal_count=261467 4164 2065 1360 257303 6167 251136 987 2099 1076 414 250149 1685 705 5091 250057 240
is_linear=0
shrinkage=0.454341


Tree=24
num_leaves=26
num_cat=0
split_feature=1 4 3 5 6 5 6 5 3 6 6 6 4 5 5 4 4 5 6 6 5 6 6 6 5
split_gain=0.842455 0.758221 0.658121 0.532229 3.55352 0.498536 0.542163 0.266118 0.501887 0.241878 0.068297 0.057404 0.0432689 0.033431 0.031224 0.262291 0.0637231 0.0416589 0.115421 0.00432847 0.00196071 0.00872911 0.00812429 0.000591594 0.000243803
threshold=1.0000000180025095e-35 1.0000000180025095e-35 1.0000000180025095e-35 1.0000000180025095e-35 1.0000000180025095e-35 1.0000000180025095e-35 1.0000000180025095e-35 1.0000000180025095e-35 1.0000000180025095e-35 1.0000000180025095e-35 1.0000000180025095e-35 1.0000000180025095e-35 1.0000000180025095e-35 1.0000000180025095e-35 1.0000000180025095e-35 1.0000000180025095e-35 1.0000000180025095e-35 1.0000000180025095e-35 1.0000000180025095e-35 1.0000000180025095e-35 1.0000000180025095e-35 1.0000000180025095e-35 1.0000000180025095e-35 1.0000000180025095e-35 1.0000000180025095e-35
decision_type=2 2 2 10 2 8 2 8 2 2 2 2 2 8 8 2 2 10 2 2 10 2 2 2 8
left_child=2 3 14 11 -5 6 12 8 10 -9 -3 13 -4 -2 16 20 23 18 -17 -18 21 -16 -22 -1 -13
right_child=1 7 5 4 -6 -7 -8 9 -10 -11 -12 24 -14 -15 15 17 19 -19 -20 -21 22 -23 -24 -25 -26
leaf_value=-0.00017485989298574137 0.0070776785337306591 0.052227510347728975 -0.09163931869118716 -0.065301713464404332 0.28041028206509705 -0.16047360110588851 0.059030286491409664 0.038978573368869791 -0.048959763010642164 -0.072481657103099978 0.07484226684756011 -0.00076786166990254782 -0.047290544814403465 0.022119818738342643 -4.3083056412147361e-05 0.066643036180515466 -0.0080541907671772359 0.015019098889808253 0.012274726746358667 -0.0045320033102641336 0.0013891778993310529 0.00076438562709983855 6.0580335363389747e-05 -6.6126160036276274e-05 -0.0021858627121248706
leaf_weight=19723.588294119574 180.72241872735322 58.56743788253516 12.349230995867403 15.467588995816186 10.174924427643418 8.0818900172598642 9.081971002044158 9.7644601739011723 8.9544158718781528 6.8303464272757983 52.07887837709859 176.79125560913235 7.1825214726850382 36.691842403495684 5118.779751425609 18.578332578996196 188.51575196441263 16.412850640015677 14.237514978973193 116.55245498940349 2039.3316196901724 6006.6473429454491 1778.7809459064156 21685.367827421054 29.157267740229145
leaf_count=83275 656 368 95 73 63 112 77 106 81 57 273 646 67 126 33823 172 1206 149 120 787 7806 39004 6402 85811 112
internal_value=0 0.0173239 -3.35812e-06 0.00831687 0.0718765 -0.060829 -0.0326846 0.0470181 0.0544991 -0.00689795 0.0628718 0.00446715 -0.0753307 0.00961626 3.60029e-05 0.000598355 -0.000166117 0.0337077 0.0430547 -0.00670853 0.000489283 0.000392871 0.000770211 -0.000117917 -0.000968616
internal_weight=0 585.201 56743.5 449.005 25.6425 36.6956 28.6137 136.196 119.601 16.5948 110.646 423.363 19.5318 217.414 56706.8 14992.8 41714 49.2287 32.8158 305.068 14943.5 11125.4 3818.11 41409 205.949
internal_count=261467 2561 258906 1676 136 351 239 885 722 163 641 1540 162 782 258555 87476 171079 441 292 1993 87035 72827 14208 169086 758
is_linear=0
shrinkage=0.454341


Tree=25
num_leaves=23
num_cat=0
split_feature=1 3 4 4 5 2 5 3 5 2 2 5 2 4 5 5 4 2 4 4 5 5
split_gain=0.282671 0.490067 0.411026 0.346096 0.499078 0.31396 0.181034 0.159819 0.0994726 0.150562 0.054521 0.00934671 0.68046 1.31701 1.07273 0.701253 0.330045 0.140172 0.225303 0.187415 0.00525955 8.36239e-06
threshold=1.0000000180025095e-35 1.0000000180025095e-35 1.0000000180025095e-35 1.0000000180025095e-35 1.0000000180025095e-35 1.0000000180025095e-35 1.0000000180025095e-35 1.0000000180025095e-35 1.0000000180025095e-35 1.0000000180025095e-35 1.0000000180025095e-35 1.0000000180025095e-35 1.0000000180025095e-35 1.0000000180025095e-35 1.0000000180025095e-35 1.0000000180025095e-35 1.0000000180025095e-35 1.0000000180025095e-35 1.0000000180025095e-35 1.0000000180025095e-35 1.0000000180025095e-35 1.0000000180025095e-35
decision_type=2 2 2 2 10 2 8 2 8 2 2 8 2 2 10 10 2 2 2 2 8 10
left_child=7 3 -3 4 10 6 -5 11 9 -9 20 17 13 21 16 -15 -14 18 -1 -19 -2 -13
right_child=1 2 -4 5 -6 -7 -8 8 -10 -11 -12 12 14 15 -16 -17 -18 19 -20 -21 -22 -23
leaf_value=-6.4385071172620099e-05 -6.8300210026198669e-05 0.13093861161890807 0.013711771451252458 0.049982232531655957 0.066550159391772654 -0.011986394263969446 -0.013353632290663666 0.0015873801079539316 -0.069601005884333308 -0.075499862248491395 -0.020884521819137743 0.00028657960062294815 -0.061157184772114688 0.14793554400243553 0.068732050721275001 0.0082497916909102589 -0.16465925609998888 -4.1350579688614089e-05 -0.014196159316465218 0.030344891021401029 -0.0046827384758842223 0.00026192423943374683
leaf_weight=41308.143075549044 319.58131992816925 12.433805098873563 12.264050264493562 78.549873549025506 22.963562021497637 28.954028683947399 10.569388255360535 22.81043513445184 9.4630004882346821 6.7860843623056999 30.123847695533186 11115.245550235733 13.094289548229426 19.100006057880819 9.3199891629628819 12.130505135515707 12.365439001470804 98.582425943575799 234.20318912621588 72.872816197108477 60.668276641517878 3814.1061474168673
leaf_count=168539 1102 90 115 431 119 244 95 191 112 48 166 72739 88 208 71 116 84 547 1547 446 199 14170
internal_value=0 0.010115 0.0727281 0.00731051 0.00136888 0.0291167 0.0424707 3.16355e-08 -0.0290524 -0.0160877 -0.00227852 2.00421e-05 0.000327684 0.000475252 -0.0631492 0.093679 -0.111427 -9.05497e-05 -0.000144056 0.0128736 -0.000804527 0.000280281
internal_weight=0 576.108 24.6979 551.41 433.337 118.073 89.1193 56748.2 39.0595 29.5965 410.373 56709.2 14995.4 14960.6 34.7797 31.2305 25.4597 41713.8 41542.3 171.455 380.25 14929.4
internal_count=261467 2561 205 2356 1586 770 526 258906 351 239 1467 258555 87476 87233 243 324 172 171079 170086 993 1301 86909
is_linear=0
shrinkage=0.454341


Tree=26
num_leaves=28
num_cat=0
split_feature=0 3 4 5 4 3 5 3 5 4 5 5 6 6 6 6 6 5 6 5 6 5 5 5 6 5 5
split_gain=0.468889 0.550901 1.54906 0.652697 0.416237 0.170275 0.132762 0.111043 0.231208 0.0768849 0.100973 0.0803923 0.0435502 0.0220708 0.019166 0.0168135 0.00421019 0.00362372 0.0028534 0.00321685 0.00047149 0.000255979 0.000240627 0.000197309 7.35904e-05 4.96415e-05 2.85657e-06
threshold=1.0000000180025095e-35 1.0000000180025095e-35 1.0000000180025095e-35 1.0000000180025095e-35 1.0000000180025095e-35 1.0000000180025095e-35 inf 1.0000000180025095e-35 1.0000000180025095e-35 1.0000000180025095e-35 inf 1.0000000180025095e-35 1.0000000180025095e-35 1.0000000180025095e-35 1.0000000180025095e-35 1.0000000180025095e-35 1.0000000180025095e-35 1.0000000180025095e-35 1.0000000180025095e-35 inf 1.0000000180025095e-35 1.0000000180025095e-35 inf 1.0000000180025095e-35 1.0000000180025095e-35 1.0000000180025095e-35 1.0000000180025095e-35
decision_type=2 2 2 8 2 2 8 2 10 2 8 8 2 2 2 2 2 8 2 8 2 10 8 8 2 10 10
left_child=1 9 3 -3 7 6 16 8 15 18 11 12 -11 -10 -12 17 26 -2 22 21 -8 -20 25 -17 -7 -1 -6
right_child=4 2 -4 -5 5 24 20 -9 13 10 14 -13 -14 -15 -16 23 -18 -19 19 -21 -22 -23 -24 -25 -26 -27 -28
leaf_value=-0.00013011988073601081 0.0037408971270540305 -0.064504440254007797 -0.26259354595080037 0.11340018685205269 0.031340396626658835 0.069700629138905262 -0.0077401403916747954 0.040158224301797343 0.02675899936396936 -0.012842726324244829 0.035218711487916769 -0.052015920608150808 -0.0011261483558508356 0.046469446981261514 0.0074583962009436983 2.5944426696659977e-05 0.026397269495830707 0.0075071330522891314 -2.8565218346239338e-05 0.00035829382940613278 -0.012124801936271678 0.00015133227987633132 -0.00023291311234046664 -0.00094175178153727912 0.067777405418454673 -5.541429337773747e-05 0.031634198636619024
leaf_weight=19595.767874791287 299.38446490187198 12.09332758118399 6.2899217605590811 6.5694936772342762 80.651796020800248 14.03064275858924 10.71839538263157 18.460221012937836 29.140848025679588 164.10902921645902 11.833464860217646 8.912796135293318 108.97036279574968 19.62443245574832 9.0679416783386841 261.8644055314362 58.650811655446887 64.010764586739242 21596.351335573941 5987.8043515142053 9.5938116824254394 1766.2728210110217 5090.7261747182347 52.157375810667872 5.8067246321588746 2025.9562969710678 7.463378249667584
leaf_count=82810 1086 80 67 67 608 129 90 164 129 966 136 90 709 98 95 911 377 216 85526 38935 58 6363 33722 174 49 7737 75
internal_value=0 -0.000105484 -0.0675992 -0.00188029 0.0101716 0.0293405 0.0246154 0.00535992 0.00447532 -7.56047e-05 -0.00729477 -0.00955321 -0.00816731 0.034691 0.0231751 0.00230018 0.02938 0.00440431 -3.66014e-05 6.11842e-05 -0.00981109 -1.49645e-05 -0.000144044 -0.000134785 0.0691377 -0.00012312 0.0313653
internal_weight=0 56390.7 24.9527 18.6628 931.558 186.916 167.078 744.643 726.182 56365.8 302.894 281.992 273.079 48.7653 20.9014 677.417 146.766 363.395 56062.9 29350.4 20.3122 23362.6 26712.5 314.022 19.8374 21621.7 88.1152
internal_count=261467 257303 214 147 4164 1386 1208 2778 2614 257089 1996 1765 1675 227 231 2387 1060 1302 255093 130824 148 91889 124269 1085 178 90547 683
is_linear=0
shrinkage=0.454341


Tree=27
num_leaves=23
num_cat=0
split_feature=7 0 1 1 3 0 1 5 1 3 5 5 1 5 3 5 5 5 5 5 5 5
split_gain=0.269033 1.13714 32.3272 11.6716 8.10484 0.956925 8.47309 1.30947 0.943619 0.888822 0.333389 0.293827 0.243855 0.157816 0.153696 0.121097 0.0637292 0.0424577 0.0267149 0.0216694 0.00290745 1.09295e-05
threshold=1.0000000180025095e-35 1.0000000180025095e-35 1.0000000180025095e-35 1.0000000180025095e-35 1.0000000180025095e-35 1.0000000180025095e-35 1.0000000180025095e-35 1.0000000180025095e-35 1.0000000180025095e-35 1.0000000180025095e-35 1.0000000180025095e-35 1.0000000180025095e-35 1.0000000180025095e-35 inf 1.0000000180025095e-35 1.0000000180025095e-35 inf inf 1.0000000180025095e-35 1.0000000180025095e-35 1.0000000180025095e-35 1.0000000180025095e-35
decision_type=2 2 2 2 2 2 2 8 2 2 8 10 2 8 2 8 8 8 10 10 10 8
left_child=1 3 10 9 13 7 14 8 -2 20 -3 12 -9 -4 16 -5 19 -8 -12 -7 21 -1
right_child=5 2 4 15 -6 6 17 11 -10 -11 18 -13 -14 -15 -16 -17 -18 -19 -20 -21 -22 -23
leaf_value=-0.00070085004619884796 0.010849052858080544 0.09343803476924506 -0.20489667227662836 0.13070673541586211 0.20184169419171027 -0.057897804936764857 0.096794640356156175 0.045764183328341083 -0.026504066932590296 0.10461495026813777 0.067764700407171627 0.084890231638572344 -0.021827945963851614 -0.24902677179617533 -0.0056428855795494183 0.10068820044292116 -0.036670886779910553 0.071648878061382842 0.051348355288803604 -0.074303010665608696 -0.0011116394756396592 -0.00068465570199845172
leaf_weight=40094.857583079953 1100.1807079734281 291.14824440842494 96.374547533458099 119.90008909488097 10.63066344661638 233.0123119931668 94.330320955254138 109.55582535057329 159.89666575775482 16.539268605643883 72.057412163354456 37.648501615971327 12.249984404130371 20.241366152651608 12.709244462661443 36.090793720912188 29.286155240610242 16.248385543935001 28.578424617066048 17.897209936752915 3754.416849993635 10952.714223921765
leaf_count=164271 4667 1071 479 576 85 1183 424 602 578 88 234 253 67 85 89 173 181 67 145 121 13892 72136
internal_value=0 -0.000140989 0.0210257 -0.00034083 -0.177936 0.0054683 -0.0140564 0.011018 0.00610915 -0.000693974 0.085646 0.0498094 0.0389665 -0.212556 -0.0545105 0.123762 -0.056727 0.0930997 0.0631028 -0.059068 -0.000725756 -0.000697375
internal_weight=0 55493.5 519.031 54974.5 127.247 1823.02 403.484 1419.53 1260.08 54818.5 391.784 159.454 121.806 116.616 292.905 155.991 280.196 110.579 100.636 250.91 54802 51047.6
internal_count=261467 253235 2099 251136 649 8232 2065 6167 5245 250387 1450 922 669 564 1574 749 1485 491 379 1304 250299 236407
is_linear=0
shrinkage=0.454341


Tree=28
num_leaves=32
num_cat=0
split_feature=0 7 4 2 4 2 2 5 7 4 4 5 5 2 5 2 5 5 5 2 2 2 5 5 5 5 5 5 2 5 5
split_gain=0.14037 0.529558 2.80739 2.10228 0.734874 0.646535 0.612453 0.504896 0.269065 4.30067 2.96949 2.80477 2.25936 1.30298 3.0764 1.10924 0.248153 0.245918 0.239283 0.143414 0.12261 0.120742 0.970024 0.0753925 0.0599734 0.0116565 0.0111076 0.00272618 0.000164427 0.000146837 5.64119e-05
threshold=1.0000000180025095e-35 1.0000000180025095e-35 1.0000000180025095e-35 1.0000000180025095e-35 1.0000000180025095e-35 1.0000000180025095e-35 1.0000000180025095e-35 1.0000000180025095e-35 1.0000000180025095e-35 1.0000000180025095e-35 1.0000000180025095e-35 1.0000000180025095e-35 1.0000000180025095e-35 1.0000000180025095e-35 1.0000000180025095e-35 1.0000000180025095e-35 1.0000000180025095e-35 1.0000000180025095e-35 1.0000000180025095e-35 1.0000000180025095e-35 1.0000000180025095e-35 1.0000000180025095e-35 1.0000000180025095e-35 1.0000000180025095e-35 1.0000000180025095e-35 1.0000000180025095e-35 1.0000000180025095e-35 1.0000000180025095e-35 1.0000000180025095e-35 1.0000000180025095e-35 1.0000000180025095e-35
decision_type=2 2 2 2 2 2 2 8 2 2 2 8 10 2 8 2 8 10 8 2 2 2 8 10 10 10 8 8 2 8 8
left_child=8 4 3 17 5 23 30 19 10 12 21 15 18 14 -12 -11 -8 27 28 -6 -9 25 -23 26 -16 29 -2 -3 -10 -1 -4
right_child=1 2 6 -5 7 -7 16 20 9 11 13 -13 -14 -15 24 -17 -18 -19 -20 -21 -22 22 -24 -25 -26 -27 -28 -29 -30 -31 -32
leaf_value=-0.00027564003656166636 0.024039935173404428 -0.047032541819215505 0.070822167362553187 0.057209066653344826 -0.032588176053665797 -0.062708166221562486 -0.0099381897922250616 -0.16319929340030967 0.011034789540586438 -0.059573545948504662 0.063623178276484171 -0.25741094897586048 0.137212412869893 -0.031442199881026645 0.33368273591120451 0.027840932551821844 0.069130523982724942 -0.10766220225304726 0.033562651318948734 0.024726141951905062 -0.073643944278887971 -0.02027501582136397 0.1669138707647892 0.045941340325942444 0.26848843616302276 -0.0011176843482072661 0.018130726133619046 -0.042227575701324127 0.011824591483830844 -0.00033499222145048669 0.069789247228018783
leaf_weight=40076.217756451108 330.59752299741376 188.55709060747176 72.295314246788621 44.894783115945756 23.233684617793187 18.270166132599115 38.520607333630323 5.8661295903730188 1012.2688322903123 145.16584796877578 82.791437937645242 13.328191278735174 31.092411742080003 20.440128502901644 7.3947591161122528 37.760147627443075 10.407246415503321 14.432832056190817 107.51398137147771 14.723142429254947 6.8301624576561153 21.847682644613091 7.7387912394478908 31.457094846526161 4.8056676434352994 3756.2251370224403 81.9380371440202 27.993260978255421 57.503501494415104 10957.001987420954 12.855161146726457
leaf_count=163910 916 912 365 199 338 174 196 103 4080 739 642 156 211 202 97 181 54 99 555 183 57 181 50 123 46 13904 205 150 245 72104 90
internal_value=0 0.00563154 -0.00654214 -0.0327532 0.0153616 0.0210543 0.0473894 -0.0365909 -1.75162e-05 0.00619184 -0.000176285 -0.0561903 0.0163234 0.0726189 0.0950105 -0.0415292 0.0068802 -0.0502386 0.0131307 -0.0103564 -0.115022 -0.000329569 0.0286871 0.0245011 0.308003 -0.000345238 0.0228662 -0.0464114 0.0110772 -0.000288383 0.0706662
internal_weight=0 922.872 409.956 275.878 512.916 462.263 134.078 50.6531 56339.1 1404.63 54934.5 196.254 1208.38 115.432 94.9919 182.926 48.9279 230.983 1177.29 37.9568 12.6963 54819 29.5865 443.993 12.2004 54789.4 412.536 216.55 1069.77 51033.2 85.1505
internal_count=261467 4164 2065 1360 2099 1418 705 681 257303 6167 251136 1076 5091 987 785 920 250 1161 4880 521 160 250149 231 1244 143 249918 1121 1062 4325 236014 455
is_linear=0
shrinkage=0.454341


Tree=29
num_leaves=25
num_cat=0
split_feature=3 5 1 0 4 5 0 5 5 0 1 4 4 4 5 4 4 5 4 5 4 5 5 5
split_gain=0.262056 1.13055 0.24938 2.94073 0.83595 1.2828 0.795228 0.352785 0.317545 0.248371 1.56088 1.68782 1.07602 0.197084 0.799878 0.150083 0.141498 0.0409408 0.485247 0.29582 0.040147 0.0206738 0.00175131 0.000296902
threshold=1.0000000180025095e-35 inf 1.0000000180025095e-35 1.0000000180025095e-35 1.0000000180025095e-35 inf 1.0000000180025095e-35 inf inf 1.0000000180025095e-35 1.0000000180025095e-35 1.0000000180025095e-35 1.0000000180025095e-35 1.0000000180025095e-35 inf 1.0000000180025095e-35 1.0000000180025095e-35 1.0000000180025095e-35 1.0000000180025095e-35 inf 1.0000000180025095e-35 1.0000000180025095e-35 inf 1.0000000180025095e-35
decision_type=2 8 2 2 2 8 2 8 8 2 2 2 2 2 8 2 2 8 2 8 2 10 8 10
left_child=2 9 6 8 7 -6 13 -5 16 15 11 -11 -12 22 -15 -2 -4 20 21 -20 -8 -19 23 -1
right_child=1 -3 3 4 5 -7 17 -9 -10 10 12 -13 -14 14 -16 -17 -18 18 19 -21 -22 -23 -24 -25
leaf_value=-0.00010066439900749782 -0.065027949644652805 0.12599274877527789 0.026854149897300322 -0.031393389321039383 -0.002793608022253933 0.22827654471095399 0.011845581099555979 -0.081880110115948895 0.078211036593955355 -0.28459704098715821 0.20515421722500041 0.015333855918607664 -0.052881000119353185 -0.020850297904226555 0.088465064639640725 -0.1448833430899551 0.049711931787732346 0.038531450715894588 0.031281993142797886 -0.074378056063700945 0.021873980950427412 0.025630580643091913 -0.00029156795433079821 3.2568006034459178e-05
leaf_weight=40946.852096734568 13.828656834550204 8.2086827437742595 202.99377241451293 166.13001423235983 30.59401627490297 5.918980768416076 402.4140561632812 34.504595091566443 36.485377826029435 7.3460903777740887 7.1707910839468241 8.1918888436630368 6.2380770687013865 209.24892331380397 14.794256251072509 7.4896085908403611 77.151581940124743 81.456684401258826 8.5150183106306958 15.294347742572425 103.62487532175146 37.421485599130392 11030.112590000033 3770.6187479877844
leaf_count=167595 109 101 802 564 286 39 1491 105 163 94 49 73 72 1368 183 58 397 285 76 109 698 169 72542 14039
internal_value=0 -0.0303376 9.36799e-05 0.00968837 -0.0285684 0.0346643 -1.61519e-07 -0.040076 0.0383416 -0.0558676 -0.0284598 -0.126468 0.085111 -0.000183472 -0.0136319 -0.093083 0.0331491 0.0158158 0.0226129 -0.0365905 0.0138992 0.0344704 -0.000129425 -8.94301e-05
internal_weight=0 58.4738 57174.1 553.778 237.148 36.513 56620.4 200.635 316.631 50.2651 28.9468 15.538 13.4089 55971.6 224.043 21.3183 280.145 648.726 142.688 23.8094 506.039 118.878 55747.6 44717.5
internal_count=261467 556 260911 2356 994 325 258555 669 1362 455 288 167 121 255727 1551 167 1199 2828 639 185 2189 454 254176 181634
is_linear=0
shrinkage=0.454341


Tree=30
num_leaves=26
num_cat=0
split_feature=3 5 5 2 6 7 2 5 5 7 6 7 5 6 5 5 6 6 7 7 6 5 5 5 5
split_gain=0.0368214 0.732904 2.87813 0.0873521 0.0385966 0.490863 0.0363818 0.601974 0.0636672 0.0425657 0.408998 0.0313453 0.467522 1.28959 0.361704 0.195714 0.102994 0.0268184 0.485143 0.229013 0.00274547 0.0119456 0.00667988 0.00199174 0.00043874
threshold=1.0000000180025095e-35 1.0000000180025095e-35 inf 1.0000000180025095e-35 1.0000000180025095e-35 1.0000000180025095e-35 1.0000000180025095e-35 inf 1.0000000180025095e-35 1.0000000180025095e-35 1.0000000180025095e-35 1.0000000180025095e-35 1.0000000180025095e-35 1.0000000180025095e-35 1.0000000180025095e-35 1.0000000180025095e-35 1.0000000180025095e-35 1.0000000180025095e-35 1.0000000180025095e-35 1.0000000180025095e-35 1.0000000180025095e-35 1.0000000180025095e-35 1.0000000180025095e-35 1.0000000180025095e-35 1.0000000180025095e-35
decision_type=2 8 8 2 2 2 2 8 8 2 2 2 8 2 10 10 2 2 2 2 2 10 10 8 8
left_child=6 3 -3 4 5 -2 11 8 17 10 -9 20 16 15 -15 -14 -13 19 -19 -8 22 23 24 -22 -1
right_child=1 2 -4 -5 -6 -7 7 9 -10 -11 -12 12 13 14 -16 -17 -18 18 -20 -21 21 -23 -24 -25 -26
leaf_value=-0.00017808119042359919 -0.06193679043720194 -0.35160716355201438 0.081687072144962028 0.046241103815662599 -0.020345115266004951 0.068415455136191072 0.034351205377583793 -0.11582118952296358 0.038837077189844665 -0.079482937341968721 0.024979030581301638 0.0028701963459034801 0.0026289663974317515 0.049088328370223262 0.12044196366615036 -0.039665420014308533 -0.0049377313685684847 -0.063705958240671323 0.014550456855485294 -0.0067350762962120466 0.00026142034637448666 -0.0010236319001149354 0.00071258720918627983 -3.5657111084638085e-05 -2.7822082332598298e-05
leaf_weight=19237.009283595369 10.4171519393567 5.6151171863311875 7.2509565296350056 13.157921018544583 10.430122735095209 13.947584286797792 39.685910262865946 8.6932833672035486 9.7546611763536912 15.986747747287152 8.348519042134285 735.4742414848879 77.382609664229676 66.30288792680949 18.829924988560379 31.893335442990065 663.22355832159519 21.742526470217854 65.969080575741827 95.142868406139314 21240.673497531796 1764.4783573073801 2022.6566723270807 5967.4144831434824 5068.1515563474968
leaf_count=81551 92 80 101 92 97 94 385 64 88 103 50 3074 425 365 146 214 2878 214 289 460 84116 6346 7724 38809 33610
internal_value=0 -0.0111272 -0.107415 0.0147074 0.00278269 0.0126833 5.7953e-05 -0.00524998 0.00291034 -0.0626428 -0.0468453 8.27067e-05 0.00206962 0.0229464 0.0648705 -0.0097151 -0.000832106 0.00133556 -0.00484825 0.00535838 2.54673e-05 0.00012197 -8.07297e-05 0.000196264 -0.000146749
internal_weight=0 60.8189 12.8661 47.9528 34.7949 24.3647 57158.8 265.324 232.295 33.0286 17.0418 56893.5 1593.11 194.409 85.1328 109.276 1398.7 222.54 87.7116 134.829 55300.4 28972.6 26327.8 27208.1 24305.2
internal_count=261467 556 181 375 283 186 260911 1653 1436 217 114 259258 7102 1150 511 639 5952 1348 503 845 252156 129271 122885 122925 115161
is_linear=0
shrinkage=0.454341


Tree=31
num_leaves=26
num_cat=0
split_feature=1 0 3 5 0 3 3 6 5 5 6 6 5 6 5 6 5 6 5 5 6 5 5 5 5
split_gain=0.0517989 0.376799 0.823914 0.223653 0.15532 0.523291 0.414069 0.938542 0.117799 0.0773809 0.171417 0.139665 0.018416 0.43155 0.150144 0.0484689 0.0445172 0.00209211 0.058519 0.0514487 0.000671919 0.00171612 0.00135358 0.000375621 5.75764e-05
threshold=1.0000000180025095e-35 1.0000000180025095e-35 1.0000000180025095e-35 1.0000000180025095e-35 1.0000000180025095e-35 1.0000000180025095e-35 1.0000000180025095e-35 1.0000000180025095e-35 1.0000000180025095e-35 1.0000000180025095e-35 1.0000000180025095e-35 1.0000000180025095e-35 1.0000000180025095e-35 1.0000000180025095e-35 1.0000000180025095e-35 1.0000000180025095e-35 1.0000000180025095e-35 1.0000000180025095e-35 1.0000000180025095e-35 1.0000000180025095e-35 1.0000000180025095e-35 1.0000000180025095e-35 1.0000000180025095e-35 1.0000000180025095e-35 1.0000000180025095e-35
decision_type=2 2 2 10 2 2 2 2 10 8 2 2 8 2 10 2 10 2 8 8 2 8 8 10 10
left_child=4 8 3 17 5 20 12 -8 9 10 -2 -11 15 16 -15 -6 -14 19 -19 -3 21 -1 -22 -24 -23
right_child=1 2 -4 -5 6 -7 7 -9 -10 11 -12 -13 13 14 -16 -17 -18 18 -20 -21 22 24 23 -25 -26
leaf_value=-0.00010358987276606797 0.0028806783370743565 -0.012086129802329522 0.094772791928321179 0.043073402837196843 0.0036086430917638547 0.06824050433170728 0.0033890825756126394 -0.22032863607506231 -0.028999329732405946 0.064361417939596335 0.026066343687049295 0.0060862904251824642 0.027661629779116785 -0.0013815434251146215 -0.05194509243243732 0.012617079661223688 0.050238738949273165 -0.024123786377350395 0.0038098489879518564 -0.035926069607498161 -0.00013170415358936368 -0.00033861210863127695 3.5546687304625771e-05 0.00027443719385893719 -0.00042934801564440447
leaf_weight=19598.215602526441 134.96065298316535 95.256863119546324 15.034221546724437 13.037226378452031 277.12079786276445 23.124166541034356 13.971385744167494 5.3544498449191442 12.04892740154173 18.205169848399237 128.49054074287415 15.907714843982829 51.886521779000759 43.609063626732677 16.789941131602973 222.10230178711936 27.627640648279339 93.543786943890154 18.551420578733087 23.246769836638123 21554.74474006379 5071.7249482353218 5968.1265342973638 1759.1565210670233 2018.0117685729638
leaf_count=83213 586 426 146 83 1268 155 135 61 89 96 568 82 224 170 89 921 156 341 62 82 85677 33771 38954 6360 7752
internal_value=0 0.00434847 -0.00845096 -0.0148207 -1.09284e-05 -9.25091e-05 0.00692639 -0.0585945 0.0150419 0.0168252 0.0141888 0.0371862 0.00890757 0.0135144 -0.0154374 0.00761646 0.0355062 -0.0180938 -0.0195009 -0.0167628 -0.000120741 -0.000172885 -7.32164e-05 8.99314e-05 -0.000364439
internal_weight=0 568.283 258.67 243.636 56651.6 55993.1 658.462 19.3258 309.613 297.564 263.451 34.1129 639.136 139.913 60.399 499.223 79.5142 230.599 112.095 118.504 55970 26688 29282 7727.28 7089.74
internal_count=261467 2561 1140 994 258906 255882 3024 196 1421 1332 1154 178 2828 639 259 2189 380 911 403 508 255727 124736 130991 45314 41523
is_linear=0
shrinkage=0.454341


Tree=32
num_leaves=23
num_cat=0
split_feature=3 5 7 4 4 2 5 4 7 7 4 4 7 5 5 5 7 5 5 5 5 5
split_gain=0.0664114 0.516173 0.108664 1.63243 1.24391 0.019681 0.17516 0.0734014 0.310873 0.138718 0.0605899 0.00284201 1.67819 0.526912 0.116112 0.235457 0.112629 0.231977 0.0545795 0.00426497 0.000481114 4.26958e-06
threshold=1.0000000180025095e-35 1.0000000180025095e-35 1.0000000180025095e-35 1.0000000180025095e-35 1.0000000180025095e-35 1.0000000180025095e-35 inf 1.0000000180025095e-35 1.0000000180025095e-35 1.0000000180025095e-35 1.0000000180025095e-35 1.0000000180025095e-35 1.0000000180025095e-35 inf 1.0000000180025095e-35 1.0000000180025095e-35 1.0000000180025095e-35 1.0000000180025095e-35 1.0000000180025095e-35 1.0000000180025095e-35 1.0000000180025095e-35 1.0000000180025095e-35
decision_type=2 10 2 2 2 2 8 2 2 2 2 2 2 8 8 10 2 8 10 10 8 10
left_child=5 2 3 -2 -4 11 7 9 -9 -7 -8 16 13 19 -14 -16 20 -18 -19 -13 -1 -22
right_child=1 -3 4 -5 -6 6 10 8 -10 -11 -12 12 14 -15 15 -17 17 18 -20 -21 21 -23
leaf_value=-2.7130894757447909e-05 0.098257874778879983 -0.12415353591964982 -0.12475379967918214 -0.15598482028993979 0.069224147963468721 -0.029481866908886087 -0.013645888314859763 0.050613667584254424 -0.005838684521525246 0.0030572383135780553 -0.051572197254383195 0.036481883804242131 -0.017613818161047252 0.15188402384271907 -0.014321350528094384 -0.10995438964081654 0.0019091252771042417 0.015326897220773798 0.034453546701158619 0.049385181247857263 -0.00012739875426209395 -0.0001097056601694172
leaf_weight=40373.409985536709 17.574094379553575 7.7940360913053146 12.462622965453193 7.4117860882543019 15.08328750403598 38.120064705144614 16.32365101762116 27.951344319153577 72.020653859246522 93.086173183750361 18.606586374808103 101.29596856841817 210.18452958483249 8.9558381343958882 13.437622886383906 8.7913804310373962 1187.9514998542145 126.56885144114494 40.701059226877987 5.5790733075700691 11024.218936009333 3781.0161896771751
leaf_count=164732 146 80 111 120 99 321 109 324 375 416 108 935 1043 144 127 71 4909 663 289 77 72275 13993
internal_value=0 -0.0150453 0.00114284 0.0228396 -0.0185375 3.74137e-05 -0.00386077 0.000670263 0.00994493 -0.00639653 -0.0338484 5.56503e-05 0.0013496 0.0460261 -0.0209164 -0.0521434 4.76796e-05 0.00413966 0.0199809 0.0371555 -5.28218e-05 -0.00012288
internal_weight=0 60.3258 52.5318 24.9859 27.5459 57148.2 266.108 231.178 99.972 131.206 34.9302 56882.1 348.244 115.831 232.414 22.229 56533.9 1355.22 167.27 106.875 55178.6 14805.2
internal_count=261467 556 476 266 210 260911 1653 1436 699 737 217 259258 2397 1156 1241 198 256861 5861 952 1012 251000 86268
is_linear=0
shrinkage=0.454341


Tree=33
num_leaves=27
num_cat=0
split_feature=1 3 7 7 4 4 5 5 4 5 3 7 7 4 4 5 5 5 5 5 4 5 5 5 5 5
split_gain=0.0255977 0.282446 0.514225 0.375434 0.654722 0.381304 0.717858 0.350504 0.301984 0.0938286 0.0466517 0.264796 0.0710602 0.898381 0.723088 0.587039 0.535322 0.423713 0.242268 0.105125 0.0368827 0.0344545 0.0145527 0.000698928 0.000455783 0.000150229
threshold=1.0000000180025095e-35 1.0000000180025095e-35 1.0000000180025095e-35 1.0000000180025095e-35 1.0000000180025095e-35 1.0000000180025095e-35 1.0000000180025095e-35 inf 1.0000000180025095e-35 inf 1.0000000180025095e-35 1.0000000180025095e-35 1.0000000180025095e-35 1.0000000180025095e-35 1.0000000180025095e-35 1.0000000180025095e-35 1.0000000180025095e-35 1.0000000180025095e-35 1.0000000180025095e-35 inf 1.0000000180025095e-35 1.0000000180025095e-35 1.0000000180025095e-35 inf 1.0000000180025095e-35 1.0000000180025095e-35
decision_type=2 2 2 2 2 2 8 8 2 8 2 2 2 2 2 10 10 8 8 8 2 10 8 8 10 10
left_child=10 3 8 4 9 6 -5 -6 -3 24 12 22 13 23 19 18 17 -16 -15 21 -13 -14 -12 25 -2 -1
right_child=1 2 -4 5 7 -7 -8 -9 -10 -11 11 20 14 15 16 -17 -18 -19 -20 -21 -22 -23 -24 -25 -26 -27
leaf_value=-4.386211744210813e-05 0.0039336824512631215 0.11736449180378208 -0.12774215429787358 -0.0064112811387263833 -0.099173705558777414 0.041154379377707502 0.076827809802304428 0.05769033339439715 -0.047156491142852384 -0.018872739993479128 -0.030362751000387087 0.031996228355159632 0.0019788603003771566 0.039114712867155836 -0.02788065026657742 0.17296973253630404 -0.13387192227755332 0.045735368667158133 -0.026481180769759558 -0.012168608699692031 0.069140686877211227 0.016075349079553828 -0.004795350074163208 7.6112700979138497e-05 0.0064622314759610611 -0.00013874304004598002
leaf_weight=40217.919478997588 191.6374466791749 4.0129454254638404 9.282284265907947 156.61301388032734 21.26051795005333 89.812292005401105 24.769342297222465 3.4123639619792803 5.4050665800459683 44.452057784423232 13.889153664233165 11.693884970620275 1119.5834596036002 101.95944464160129 203.82839655783027 6.4042227105237535 9.2051714998669905 17.527345503214747 13.118055680999531 111.66088407533243 10.448945142328739 36.974168686196208 6.8678630826761937 10988.372374826111 15.939606851898132 3767.4517027223483
leaf_count=164376 651 56 80 596 358 362 125 50 69 134 118 90 4710 901 1092 77 72 143 149 627 66 269 77 72200 80 13939
internal_value=0 0.00305631 -0.0518519 0.00493039 -0.00684386 0.0169437 0.00495574 -0.0774787 0.0229447 7.10797e-05 -1.27552e-05 0.0149642 -2.41081e-05 5.98613e-05 -0.00311083 0.0390879 -0.026516 -0.0220516 0.0316372 0.00114421 0.0495243 0.00242951 -0.0219033 -2.63834e-05 0.00412785 -5.19889e-05
internal_weight=0 566.597 18.7003 547.897 276.702 271.195 181.382 24.6729 9.41801 252.029 56636.9 42.8998 56594 55095.2 1498.78 121.482 230.561 221.356 115.078 1268.22 22.1428 1156.56 20.757 54973.7 207.577 43985.4
internal_count=261467 2561 205 2356 1273 1083 721 408 125 865 258906 351 258555 251642 6913 1127 1307 1235 1050 5606 156 4979 195 250515 731 178315
is_linear=0
shrinkage=0.454341


Tree=34
num_leaves=24
num_cat=0
split_feature=1 7 5 4 5 4 5 3 5 7 7 4 5 4 5 5 5 5 5 5 4 5 5
split_gain=0.0105887 0.0684842 0.374585 0.233686 0.26823 0.0528097 0.502081 0.0154159 0.131324 0.186833 0.0197093 0.294619 0.256545 0.199733 0.142067 0.101395 0.0762283 0.0308044 0.0133614 0.010621 0.0075989 0.000207967 4.47934e-05
threshold=1.0000000180025095e-35 1.0000000180025095e-35 1.0000000180025095e-35 1.0000000180025095e-35 1.0000000180025095e-35 1.0000000180025095e-35 1.0000000180025095e-35 1.0000000180025095e-35 1.0000000180025095e-35 1.0000000180025095e-35 1.0000000180025095e-35 1.0000000180025095e-35 1.0000000180025095e-35 1.0000000180025095e-35 inf 1.0000000180025095e-35 1.0000000180025095e-35 inf 1.0000000180025095e-35 1.0000000180025095e-35 1.0000000180025095e-35 inf 1.0000000180025095e-35
decision_type=2 2 10 2 8 2 8 2 8 2 2 2 10 2 8 10 8 8 8 10 2 8 10
left_child=7 2 5 4 -3 18 -7 10 9 -9 11 21 16 17 15 -15 -13 19 -2 -12 -11 22 -1
right_child=1 3 -4 -5 -6 6 -8 8 -10 20 13 12 -14 14 -16 -17 -18 -19 -20 -21 -22 -23 -24
leaf_value=-2.3903282719460213e-05 0.005237305659208733 -0.0089769170053925432 -0.066269981353648519 0.025635766606659376 0.04263814315825544 -0.039451511320828032 0.13009883316775589 -0.015885105381817262 -0.036570634253250647 0.061806294541956894 0.0010826968482545607 0.022532150335358419 0.11956649333784777 -0.01463691406795627 0.026569617358602624 -0.060395728257754133 -0.013924970236484636 -0.0065289491820245881 -0.0033868568725817882 0.0089695295794565474 0.042881307429786054 4.1535121523511619e-05 -7.5714223617951874e-05
leaf_weight=40217.050556447357 193.233084352687 160.5803244789131 18.067606081138365 93.000600576866418 23.873272587487008 26.550458084209826 4.1717633557855143 14.305922598345203 10.088510112604125 10.286391290370377 1117.4449927089736 98.108199921436608 5.3960136102978131 209.43851237278432 16.763632582966238 10.497064954135565 13.463693775236605 112.99493238842115 45.890387434046715 36.394935823976994 7.6271034418605259 10988.944683960639 3767.2225865619257
leaf_count=164376 683 619 117 408 136 385 66 118 112 69 4710 901 77 1092 143 72 149 627 147 269 52 72200 13939
internal_value=0 0.00197231 -0.0029365 0.00706617 -0.00229654 0.00130401 -0.0164283 -3.72117e-06 0.00866574 0.0228301 -1.02022e-05 3.40925e-05 0.0228122 -0.00163318 -0.0137479 -0.0168209 0.0181328 0.00063036 0.00358224 0.00133147 0.0537485 -1.43729e-05 -2.83409e-05
internal_weight=0 565.367 287.913 277.454 184.454 269.846 30.7222 56636 42.3079 32.2194 56593.7 55090.2 116.968 1503.53 236.699 219.936 111.572 1266.83 239.123 1153.84 17.9135 54973.2 43984.3
internal_count=261467 2561 1398 1163 755 1281 451 258906 351 239 258555 251642 1127 6913 1307 1164 1050 5606 830 4979 121 250515 178315
is_linear=0
shrinkage=0.454341


Tree=35
num_leaves=19
num_cat=0
split_feature=0 4 3 1 2 4 2 4 1 2 2 4 4 2 1 3 1 4
split_gain=0.0385959 0.266 0.247325 0.211211 2.07983 0.231223 0.149593 0.324979 0.11554 1.33522 0.10248 0.0394902 0.0308986 0.0130021 0.408255 0.185702 0.145644 0.00299069
